svm_type epsilon_svr
kernel_type rbf
gamma 2.829402152151963
nr_class 2
total_sv 2470
rho -0.31209439978397896
SV
129.1549665014884 0:0.32369591306869855 1:0.001861734703915323 2:0.0 3:0.0 4:0.145154063544588 5:0.13360984869399326 6:1.4533398574965363E-4 7:0.0 8:0.0 9:0.041549019122525434 10:0.010845469355789655 11:2.221261790933571E-6 12:0.0 13:0.0 14:0.0037678946436493174 15:0.0010436757186257878 16:6.029139146819692E-6 17:4.442523581867142E-6 18:0.0 19:0.0 20:4.38540542152885E-4 21:0.03228413619254151 22:6.41310011353821E-4 23:0.0 24:0.0 25:0.05560675035111803 26:0.05706040753172755 27:1.999135611840214E-4 28:0.0 29:0.0 30:0.024773415431169125 31:0.02218120292114965 32:0.0 33:0.0 34:0.0 35:0.0 36:0.0 37:1.2692924519620404E-6 38:0.0 39:0.0 40:0.0 41:2.252994102232622E-5 42:0.007924827423825 43:2.846388323524876E-4 44:0.0 45:0.0 46:0.015888685590547832 47:0.0761753172120499 48:0.0 49:0.0 50:0.0 51:0.0 52:0.0 53:0.0 54:0.0 55:0.0 56:0.0 57:0.0 58:0.0 59:3.173231129905101E-7 60:0.0 61:0.0 62:1.2692924519620406E-5 63:0.04481839915566666 
-129.1549665014884 0:0.11454380677307145 1:0.003482621165070849 2:0.0 3:0.0 4:0.04511097106584391 5:0.046289191784377674 6:0.0 7:0.0 8:0.0 9:0.005572828510339339 10:3.45247546933675E-4 11:0.0 12:0.0 13:0.0 14:1.2692924519620404E-6 15:0.0 16:0.002870187556999164 17:8.123471692557059E-5 18:0.0 19:0.0 20:0.010016938707771433 21:0.24432007493902635 22:0.006305844901347417 23:0.0 24:0.0 25:0.11282137691575897 26:0.085367533149159 27:2.538584903924081E-6 28:0.0 29:0.0 30:0.0041121902212440204 31:1.446993395236726E-4 32:0.0 33:0.0 34:0.0 35:0.0 36:8.567724050743774E-6 37:0.002467504526614207 38:1.840474055344959E-5 39:0.0 40:0.0 41:0.003251927261926748 42:0.17581921721465196 43:0.018781085765456333 44:0.0 45:0.0 46:0.015847750908972058 47:0.037541862851681276 48:0.0 49:0.0 50:0.0 51:0.0 52:0.0 53:0.0 54:0.0 55:0.0 56:0.0 57:0.0 58:3.173231129905101E-5 59:1.0788985841677344E-5 60:0.0 61:0.0 62:9.202370276724794E-5 63:0.06474057883543687 
129.1549665014884 0:0.3285322346337869 1:0.004854408982528824 2:0.0 3:0.0 4:0.011497251029872164 5:0.017363286096614732 6:0.0 7:0.0 8:0.0 9:0.002914930115930826 10:6.022792684559883E-4 11:0.0 12:0.0 13:0.0 14:3.941153063342136E-4 15:1.2692924519620404E-6 16:0.03740922179045124 17:3.097073582787379E-4 18:0.0 19:0.0 20:0.04062909941796595 21:0.12381218025729827 22:0.00735269385110311 23:0.0 24:0.0 25:0.008443968036677475 26:0.02971604023910931 27:0.0 28:0.0 29:0.0 30:8.482046810236336E-4 31:8.313865560351366E-5 32:0.0 33:0.0 34:0.0 35:0.0 36:7.298431598781734E-5 37:0.0023234398333165152 38:5.172366741745315E-5 39:0.0 40:0.0 41:0.00473953801562626 42:0.1533111714871221 43:0.016964093620472673 44:0.0 45:0.0 46:0.011634017291571073 47:0.06045005302469218 48:0.0 49:0.0 50:0.0 51:0.0 52:0.0 53:0.0 54:0.0 55:0.0 56:0.0 57:0.0013943177584803015 58:0.0011074576643368803 59:3.0145695734098463E-5 60:0.0 61:0.0 62:0.0010119434073267368 63:0.13214508520442908 
129.1549665014884 0:0.1876980463663737 1:0.01018524169921875 2:0.0 3:0.0 4:0.022081693013509113 5:0.041056315104166664 6:0.0 7:0.0 8:0.0 9:2.266565958658854E-4 10:1.2715657552083333E-6 11:0.0 12:0.0 13:0.0 14:0.0 15:0.0 16:0.0015312830607096355 17:2.40325927734375E-4 18:0.0 19:0.0 20:0.0013427734375 21:0.23110421498616537 22:0.01563231150309245 23:0.0 24:0.0 25:0.018085797627766926 26:0.05087629954020182 27:0.0 28:0.0 29:0.0 30:0.0 31:0.0 32:0.0 33:0.0 34:0.0 35:0.0 36:0.0 37:7.152557373046875E-5 38:3.5603841145833336E-5 39:0.0 40:0.0 41:3.9577484130859375E-4 42:0.20600477854410806 43:0.024928728739420574 44:0.0 45:0.0 46:0.0032329559326171875 47:0.05539099375406901 48:0.0 49:0.0 50:0.0 51:0.0 52:0.0 53:0.0 54:0.0 55:0.0 56:0.0 57:0.0 58:1.52587890625E-5 59:8.900960286458334E-6 60:0.0 61:0.0 62:5.5631001790364586E-5 63:0.12979761759440103 
129.1549665014884 0:0.3126827875773112 1:0.004129091898600261 2:0.0 3:0.0 4:0.01264031728108724 5:0.023383458455403645 6:3.178914388020833E-7 7:0.0 8:0.0 9:0.002986907958984375 10:0.001037279764811198 11:0.0 12:0.0 13:0.0 14:7.527669270833334E-4 15:0.0 16:0.016953468322753906 17:3.337860107421875E-5 18:0.0 19:0.0 20:0.01784229278564453 21:0.13255627950032553 22:0.008763949076334635 23:0.0 24:0.0 25:0.01098791758219401 26:0.05039532979329427 27:3.1789143880208335E-6 28:0.0 29:0.0 30:6.430943806966146E-4 31:2.193450927734375E-5 32:0.0 33:0.0 34:0.0 35:0.0 36:0.0 37:6.987253824869791E-4 38:1.3669331868489584E-5 39:0.0 40:0.0 41:0.0012108484903971355 42:0.2176071802775065 43:0.023557662963867188 44:0.0 45:0.0 46:0.014332771301269531 47:0.07516892751057942 48:0.0 49:0.0 50:0.0 51:0.0 52:0.0 53:0.0 54:0.0 55:0.0 56:0.0 57:0.0 58:6.262461344401042E-5 59:1.049041748046875E-5 60:0.0 61:0.0 62:3.452301025390625E-4 63:0.07117811838785808 
-120.89905503409932 0:0.13571719148736325 1:0.003854206530382736 2:0.0 3:0.0 4:0.024093392000030463 5:0.016986306238382008 6:0.0 7:0.0 8:0.0 9:8.75811791853808E-5 10:4.442523581867142E-6 11:0.0 12:0.0 13:0.0 14:0.0 15:0.0 16:0.007978772353033388 17:5.19457935965465E-4 18:0.0 19:0.0 20:0.02820812080617841 21:0.2942641943388287 22:0.004993079182905677 23:0.0 24:0.0 25:0.0363639594562605 26:0.0358622716146225 27:0.0 28:0.0 29:0.0 30:7.076305419688376E-5 31:1.5866155649525507E-6 32:0.0 33:0.0 34:0.0 35:0.0 36:3.204963441204152E-5 37:0.011073307350916842 38:1.3391035368199528E-4 39:0.0 40:0.0 41:0.01223566191380108 42:0.16649023501584395 43:0.011394121018150247 44:0.0 45:0.0 46:0.021699823758743044 47:0.02649172008801274 48:0.0 49:0.0 50:0.0 51:0.0 52:0.0 53:0.0 54:0.0 55:0.0 56:0.0 57:0.0 58:2.9637978753313646E-4 59:1.0249536549593477E-4 60:0.0 61:0.0 62:4.039523228369194E-4 63:0.16064101807408987 
-129.1549665014884 0:0.3728192647298177 1:0.007640520731608073 2:0.0 3:0.0 4:0.020333607991536457 5:0.02729066212972005 6:1.2715657552083333E-6 7:0.0 8:0.0 9:0.0017642974853515625 10:2.4318695068359375E-4 11:0.0 12:0.0 13:0.0 14:2.2029876708984375E-4 15:5.404154459635417E-6 16:0.016327540079752605 17:9.187062581380208E-5 18:0.0 19:0.0 20:0.017012596130371094 21:0.12301349639892578 22:0.011085828145345053 23:0.0 24:0.0 25:0.013813336690266928 26:0.044911702473958336 27:3.178914388020833E-7 28:0.0 29:0.0 30:9.83874003092448E-4 31:1.4495849609375E-4 32:0.0 33:0.0 34:0.0 35:0.0 36:0.0 37:0.0014677047729492188 38:2.2252400716145832E-5 39:0.0 40:0.0 41:0.002444585164388021 42:0.14525985717773438 43:0.020444234212239582 44:0.0 45:0.0 46:0.016338666280110676 47:0.05839347839355469 48:0.0 49:0.0 50:0.0 51:0.0 52:0.0 53:0.0 54:0.0 55:0.0 56:0.0 57:0.0 58:2.6607513427734375E-4 59:1.3033548990885416E-5 60:0.0 61:0.0 62:4.863739013671875E-4 63:0.09715970357259114 
-111.58548361867327 0:0.32012939453125 1:0.005613009134928386 2:0.0 3:0.0 4:0.010197321573893229 5:0.02171484629313151 6:7.947285970052084E-6 7:0.0 8:0.0 9:0.0031255086263020835 10:5.340576171875E-4 11:0.0 12:0.0 13:3.178914388020833E-7 14:9.705225626627604E-4 15:5.5948893229166664E-5 16:0.012534141540527344 17:1.373291015625E-4 18:0.0 19:0.0 20:0.023286819458007812 21:0.1372553507486979 22:0.007540067036946614 23:0.0 24:0.0 25:0.008867581685384115 26:0.03387578328450521 27:9.5367431640625E-6 28:0.0 29:0.0 30:0.001212755839029948 31:1.5894571940104166E-4 32:0.0 33:0.0 34:0.0 35:0.0 36:0.0 37:0.0019057591756184895 38:3.62396240234375E-5 39:0.0 40:0.0 41:0.0042616526285807295 42:0.14352544148763022 43:0.01746686299641927 44:0.0 45:0.0 46:0.008150736490885416 47:0.0727831522623698 48:0.0 49:0.0 50:0.0 51:0.0 52:0.0 53:0.0 54:0.0 55:0.0 56:0.0 57:0.0 58:9.342829386393229E-4 59:2.9246012369791668E-5 60:0.0 61:0.0 62:0.0010356903076171875 63:0.1626437505086263 
-114.18764925601464 0:0.3823283513387044 1:0.0029004414876302085 2:0.0 3:0.0 4:0.1241451899210612 5:0.09851010640462239 6:2.8896331787109375E-4 7:0.0 8:0.0 9:0.0572052001953125 10:0.005180040995279948 11:0.0 12:0.0 13:0.0 14:0.013681411743164062 15:1.338322957356771E-4 16:0.0 17:0.0 18:0.0 19:0.0 20:5.702972412109375E-4 21:0.012285232543945312 22:0.0022236506144205728 23:0.0 24:0.0 25:0.054862022399902344 26:0.08437665303548177 27:0.001423199971516927 28:0.0 29:0.0 30:0.03241793314615885 31:0.0028791427612304688 32:0.0 33:0.0 34:0.0 35:0.0 36:0.0 37:3.178914388020833E-7 38:0.0 39:0.0 40:0.0 41:1.1126200358072916E-5 42:0.005684216817220052 43:0.002551396687825521 44:0.0 45:0.0 46:0.03766345977783203 47:0.055637359619140625 48:0.0 49:0.0 50:0.0 51:0.0 52:0.0 53:0.0 54:0.0 55:0.0 56:0.0 57:0.0 58:0.0 59:0.0 60:0.0 61:0.0 62:0.0 63:0.0230404535929362 
-129.1549665014884 0:0.13153645947371326 1:0.008190426869398058 2:0.0 3:0.0 4:0.024778492600976976 5:0.058763163356034626 6:0.0 7:0.0 8:0.0 9:0.0026490133472447785 10:6.029139146819692E-6 11:0.0 12:0.0 13:0.0 14:0.0 15:0.0 16:0.0022733027814640146 17:1.3835287726386242E-4 18:0.0 19:0.0 20:0.006732327165206663 21:0.22882137945434386 22:0.018386970459122118 23:0.0 24:0.0 25:0.07336605569274492 26:0.05652857399435546 27:3.173231129905101E-7 28:0.0 29:0.0 30:3.3318926864003566E-5 31:8.567724050743774E-6 32:0.0 33:0.0 34:0.0 35:0.0 36:0.0 37:5.822879123375861E-4 38:1.7135448101487547E-5 39:0.0 40:0.0 41:5.438918156657344E-4 42:0.2860163319859794 43:0.04367318004088391 44:0.0 45:0.0 46:0.0020108765670208625 47:0.03201631548517752 48:0.0 49:0.0 50:0.0 51:0.0 52:0.0 53:0.0 54:0.0 55:0.0 56:0.0 57:0.0 58:2.633781837821234E-5 59:1.2058278293639385E-5 60:0.0 61:0.0 62:4.886775940053856E-5 63:0.02283996570371795 
-129.1549665014884 0:0.26588884989420575 1:9.256998697916666E-4 2:0.0 3:0.0 4:0.15134239196777344 5:0.14485867818196616 6:3.5190582275390625E-4 7:0.0 8:0.0 9:0.05578835805257162 10:0.027492523193359375 11:3.814697265625E-5 12:0.0 13:0.0 14:0.006693522135416667 15:0.002266565958658854 16:0.0 17:0.0 18:0.0 19:0.0 20:7.311503092447917E-6 21:0.01219940185546875 22:1.7642974853515625E-4 23:0.0 24:0.0 25:0.04393450419108073 26:0.06921927134195964 27:4.5744578043619793E-4 28:0.0 29:0.0 30:0.04175631205240885 31:0.04710992177327474 32:0.0 33:0.0 34:0.0 35:0.0 36:0.0 37:0.0 38:0.0 39:0.0 40:0.0 41:6.357828776041666E-7 42:0.0029544830322265625 43:9.854634602864583E-5 44:0.0 45:0.0 46:0.012814203898111979 47:0.08546161651611328 48:0.0 49:0.0 50:0.0 51:0.0 52:0.0 53:0.0 54:0.0 55:0.0 56:0.0 57:0.0 58:0.0 59:0.0 60:0.0 61:0.0 62:1.9073486328125E-6 63:0.028161366780598957 
129.1549665014884 0:0.16870959286809958 1:0.0046636977916215275 2:0.0 3:0.0 4:0.09176191119903077 5:0.028656498364834 6:0.0 7:0.0 8:0.0 9:0.010752176360570445 10:6.016446222300072E-4 11:0.0 12:0.0 13:0.0 14:1.6786392677197985E-4 15:0.0 16:0.001154421485059476 17:2.18952947963452E-5 18:0.0 19:0.0 20:0.028092932516162853 21:0.1888961027009909 22:0.005390050397256805 23:0.0 24:0.0 25:0.1154719768785687 26:0.03178911213627632 27:0.0 28:0.0 29:0.0 30:0.0016703888667820453 31:1.9039386779430608E-6 32:0.0 33:0.0 34:0.0 35:0.0 36:0.0 37:1.9007654468131558E-4 38:3.1732311299051014E-6 39:0.0 40:0.0 41:0.01747181060125749 42:0.11399134723335498 43:0.010318078341999428 44:0.0 45:0.0 46:0.03606250249891951 47:0.0270213323635939 48:0.0 49:0.0 50:0.0 51:0.0 52:0.0 53:0.0 54:0.0 55:0.0 56:0.0 57:0.0 58:4.442523581867142E-6 59:3.173231129905101E-7 60:0.0 61:0.0 62:0.015207075543844217 63:0.10192767444679475 
-13.020445968102226 0:0.22995612690639794 1:9.551425701014355E-4 2:0.0 3:0.0 4:0.10585359600071334 5:0.1606429220127678 6:2.681380304769811E-4 7:0.0 8:0.0 9:0.05145362544829823 10:0.022910728757914833 11:3.173231129905101E-7 12:0.0 13:0.0 14:0.005578857649486159 15:2.9828372621107953E-5 16:0.0 17:0.0 18:0.0 19:0.0 20:5.394492920838672E-6 21:0.03567441633173212 22:7.247659900703251E-4 23:0.0 24:0.0 25:0.06688504843302674 26:0.0983212972676576 27:2.694073229289431E-4 28:0.0 29:0.0 30:0.1121613448407387 31:0.03992242084533608 32:0.0 33:0.0 34:0.0 35:0.0 36:0.0 37:0.0 38:0.0 39:0.0 40:0.0 41:3.173231129905101E-7 42:0.0021736633239849944 43:2.2053956352840453E-4 44:0.0 45:0.0 46:0.006838630408058484 47:0.057766134135018445 48:0.0 49:0.0 50:0.0 51:0.0 52:0.0 53:0.0 54:0.0 55:0.0 56:0.0 57:0.0 58:0.0 59:0.0 60:0.0 61:0.0 62:0.0 63:0.0013873366499945103 
-129.1549665014884 0:0.2528532107704542 1:0.0011560081006244285 2:0.0 3:0.0 4:0.14136681219104627 5:0.08368762458898724 6:3.661908723910487E-4 7:0.0 8:0.0 9:0.014981776133620955 10:0.010309193294835694 11:9.519693389715304E-7 12:0.0 13:0.0 14:0.00593425953603553 15:2.1673168617251842E-4 16:1.9039386779430608E-6 17:3.173231129905101E-7 18:0.0 19:0.0 20:0.011147560959356621 21:0.08046044852987375 22:0.001298803501470158 23:0.0 24:0.0 25:0.07039146883157188 26:0.13403252308049662 27:0.0024786108355688745 28:0.0 29:0.0 30:0.04642849663098051 31:0.01267705836397088 32:0.0 33:0.0 34:0.0 35:0.0 36:0.0 37:0.0 38:0.0 39:0.0 40:0.0 41:1.0249536549593477E-4 42:0.02132823839343116 43:0.002312650847474838 44:0.0 45:0.0 46:0.05872127670511988 47:0.038744517449915306 48:0.0 49:0.0 50:0.0 51:0.0 52:0.0 53:0.0 54:0.0 55:0.0 56:0.0 57:0.0 58:0.0 59:0.0 60:0.0 61:0.0 62:1.2375601406629896E-5 63:0.00898849449856919 
129.1549665014884 0:0.1713587443033854 1:0.008629163106282553 2:0.0 3:0.0 4:0.04902044932047526 5:0.2692705790201823 6:0.003424962361653646 7:0.0 8:0.0 9:0.013934771219889322 10:0.016274770100911457 11:2.4159749348958332E-5 12:0.0 13:0.0 14:6.67572021484375E-5 15:6.103515625E-5 16:0.0 17:0.0 18:0.0 19:0.0 20:1.5894571940104167E-6 21:0.04125754038492838 22:0.004829724629720052 23:0.0 24:0.0 25:0.03125445048014323 26:0.17549864451090494 27:0.0033721923828125 28:0.0 29:0.0 30:0.01563294728597005 31:0.01591809590657552 32:0.0 33:0.0 34:0.0 35:0.0 36:0.0 37:0.0 38:0.0 39:0.0 40:0.0 41:7.947285970052084E-6 42:0.014352162679036459 43:0.0031750996907552085 44:0.0 45:0.0 46:0.016855239868164062 47:0.11788336435953777 48:0.0 49:0.0 50:0.0 51:0.0 52:0.0 53:0.0 54:0.0 55:0.0 56:0.0 57:0.0 58:0.0 59:0.0 60:0.0 61:0.0 62:1.2715657552083333E-6 63:0.027894337972005207 
-129.1549665014884 0:0.1691745122273763 1:0.0025663375854492188 2:0.0 3:0.0 4:0.14137840270996094 5:0.048297882080078125 6:6.357828776041666E-7 7:0.0 8:0.0 9:0.011101722717285156 10:6.856918334960938E-4 11:0.0 12:0.0 13:0.0 14:8.328755696614583E-5 15:0.0 16:1.713434855143229E-4 17:5.086263020833333E-6 18:0.0 19:0.0 20:0.01929505666097005 21:0.14293130238850912 22:0.0032094319661458335 23:0.0 24:0.0 25:0.12505118052164713 26:0.057576497395833336 27:6.357828776041666E-7 28:0.0 29:0.0 30:0.007758776346842448 31:7.279713948567708E-5 32:0.0 33:0.0 34:0.0 35:0.0 36:0.0 37:6.0717264811197914E-5 38:5.7538350423177086E-5 39:0.0 40:0.0 41:0.007791201273600261 42:0.0822906494140625 43:0.0055573781331380205 44:0.0 45:0.0 46:0.05860614776611328 47:0.029249827067057293 48:0.0 49:0.0 50:0.0 51:0.0 52:0.0 53:0.0 54:0.0 55:0.0 56:0.0 57:0.0 58:4.450480143229167E-6 59:1.9073486328125E-6 60:0.0 61:0.0 62:0.011452992757161459 63:0.07556660970052083 
129.1549665014884 0:0.2707335154215495 1:0.004748026529947917 2:0.0 3:0.0 4:0.01895904541015625 5:0.029465357462565105 6:2.2252400716145835E-6 7:0.0 8:0.0 9:0.0038506189982096353 10:0.0010550816853841145 11:0.0 12:0.0 13:0.0 14:0.0012849171956380208 15:2.5431315104166665E-6 16:0.009049733479817709 17:1.6721089680989584E-4 18:0.0 19:0.0 20:0.018029212951660156 21:0.167237917582194 22:0.007502237955729167 23:0.0 24:0.0 25:0.02086607615152995 26:0.04652976989746094 27:9.218851725260416E-6 28:0.0 29:0.0 30:0.001972834269205729 31:1.5322367350260416E-4 32:0.0 33:0.0 34:0.0 35:0.0 36:0.0 37:3.7352244059244793E-4 38:2.8292338053385418E-5 39:0.0 40:0.0 41:0.0023517608642578125 42:0.18004449208577475 43:0.013954480489095053 44:0.0 45:0.0 46:0.022535324096679688 47:0.06197420756022135 48:0.0 49:0.0 50:0.0 51:0.0 52:0.0 53:0.0 54:0.0 55:0.0 56:0.0 57:0.0 58:7.756551106770833E-5 59:1.4940897623697916E-5 60:0.0 61:0.0 62:9.244283040364584E-4 63:0.11610221862792969 
-129.1549665014884 0:0.22712465276918362 1:0.005739105821546366 2:3.3318926864003566E-5 3:0.0 4:0.0907042732634334 5:0.09531815132631541 6:7.48882546657604E-5 7:0.0 8:0.0 9:0.010334261820761944 10:0.0016351660012400987 11:0.0 12:0.0 13:0.0 14:4.8074451618062284E-4 15:3.173231129905101E-7 16:4.442523581867142E-6 17:1.1360167445060262E-4 18:8.250400937753264E-5 19:0.0 20:0.0042223013414517275 21:0.10252773245345981 22:0.010641430594136757 23:2.7607110830174382E-5 24:0.0 25:0.058590856905680784 26:0.1688051071251097 27:2.132411319296228E-4 28:0.0 29:0.0 30:0.04078617435889625 31:0.0017014865318551154 32:0.0 33:0.0 34:0.0 35:0.0 36:0.0 37:3.173231129905101E-7 38:0.0 39:1.2692924519620404E-6 40:0.0 41:4.664649760960499E-5 42:0.053340428678139803 43:0.012868404201104158 44:0.0 45:0.0 46:0.042203022058398876 47:0.05521866418393063 48:0.0 49:0.0 50:0.0 51:0.0 52:0.0 53:0.0 54:0.0 55:0.0 56:0.0 57:0.0 58:0.0 59:3.173231129905101E-7 60:0.0 61:0.0 62:5.711816033829183E-6 63:0.017153852842040997 
-129.1549665014884 0:0.13385928600201982 1:0.00866901786544288 2:0.0 3:0.0 4:0.022474247796620675 5:0.051225209808761156 6:0.0 7:0.0 8:0.0 9:0.0020735827830023128 10:3.161913362309107E-7 11:0.0 12:0.0 13:0.0 14:0.0 15:0.0 16:0.0020448093714052996 17:1.8212620966900458E-4 18:0.0 19:0.0 20:0.004918040043735586 21:0.2367583811256538 22:0.01874097668974231 23:0.0 24:0.0 25:0.06288887581964699 26:0.05628079308375719 27:0.0 28:0.0 29:0.0 30:1.9287671510085554E-5 31:0.0 32:0.0 33:0.0 34:0.0 35:0.0 36:0.0 37:2.7824837588320145E-4 38:3.9840108365094755E-5 39:0.0 40:0.0 41:3.623552713206237E-4 42:0.27401330912572464 43:0.045499300900955594 44:0.0 45:0.0 46:0.002294600527027719 47:0.03881817796639645 48:0.0 49:0.0 50:0.0 51:0.0 52:0.0 53:0.0 54:0.0 55:0.0 56:0.0 57:0.0 58:2.3081967544856484E-5 59:1.4860992802852805E-5 60:0.0 61:0.0 62:3.857534302017111E-5 63:0.038482698958655456 
129.1549665014884 0:0.2129373550415039 1:0.006658871968587239 2:7.375081380208333E-5 3:0.0 4:0.04596265157063802 5:0.13534259796142578 6:2.988179524739583E-4 7:0.0 8:0.0 9:0.021393458048502605 10:0.008519490559895834 11:0.0 12:0.0 13:0.0 14:9.123484293619792E-5 15:2.5431315104166665E-6 16:0.0029538472493489585 17:2.3206075032552082E-5 18:1.4241536458333334E-4 19:1.0331471761067708E-4 20:0.0035225550333658853 21:0.06453227996826172 22:0.01145172119140625 23:9.600321451822916E-4 24:0.0 25:0.048366546630859375 26:0.20168781280517578 27:5.105336507161459E-4 28:0.0 29:0.0 30:0.04567400614420573 31:0.01935863494873047 32:0.0 33:0.0 34:0.0 35:0.0 36:0.0 37:0.0033343633015950522 38:1.9073486328125E-5 39:2.4445851643880207E-4 40:0.0 41:0.0028651555379231772 42:0.032780965169270836 43:0.013617515563964844 44:0.0 45:0.0 46:0.01910877227783203 47:0.08155345916748047 48:0.0 49:0.0 50:0.0 51:0.0 52:0.0 53:0.0 54:0.0 55:0.0 56:0.0 57:0.0 58:2.25067138671875E-4 59:4.38690185546875E-5 60:0.0 61:0.0 62:1.3637542724609375E-4 63:0.015503247578938803 
129.1549665014884 0:0.17799510180042788 1:0.0044079353625511766 2:2.1038522391270823E-4 3:0.0 4:0.04048503472466825 5:0.06915708192203879 6:3.173231129905101E-7 7:0.0 8:0.0 9:6.632053061501661E-4 10:2.538584903924081E-6 11:0.0 12:0.0 13:0.0 14:0.0 15:0.0 16:0.004719546659507857 17:9.354685370960239E-4 18:7.99971567849076E-4 19:3.4905542428956115E-6 20:0.012435892798098092 21:0.25479681483752104 22:0.009057988260314112 23:3.173231129905101E-5 24:0.0 25:0.025059958202199556 26:0.030515377160732406 27:9.519693389715304E-7 28:0.0 29:0.0 30:3.173231129905101E-7 31:6.346462259810202E-7 32:0.0 33:0.0 34:0.0 35:0.0 36:0.0 37:3.29064068171159E-4 38:2.1355845504261332E-4 39:4.283862025371887E-5 40:0.0 41:6.171934547665422E-4 42:0.29180906541362117 43:0.019485225753182275 44:0.0 45:0.0 46:0.005058765067294713 47:0.02246235119925924 48:0.0 49:0.0 50:0.0 51:0.0 52:0.0 53:0.0 54:0.0 55:0.0 56:0.0 57:0.0 58:5.3944929208386726E-5 59:3.649215799390867E-5 60:0.0 61:0.0 62:2.3640571917793004E-4 63:0.028375350086724406 
129.1549665014884 0:0.21782811482747397 1:0.003692626953125 2:0.0 3:0.0 4:0.03610674540201823 5:0.018833160400390625 6:0.0 7:0.0 8:0.0 9:5.5631001790364586E-5 10:6.67572021484375E-6 11:0.0 12:0.0 13:0.0 14:0.0 15:0.0 16:0.010916392008463541 17:9.717941284179688E-4 18:0.0 19:0.0 20:0.034192403157552086 21:0.28037675221761066 22:0.0042819976806640625 23:0.0 24:0.0 25:0.024473826090494793 26:0.02252356211344401 27:0.0 28:0.0 29:0.0 30:4.9591064453125E-5 31:3.1789143880208335E-6 32:0.0 33:0.0 34:0.0 35:0.0 36:0.0 37:0.013451258341471354 38:1.1889139811197917E-4 39:0.0 40:0.0 41:0.008829116821289062 42:0.154234250386556 43:0.016225179036458332 44:0.0 45:0.0 46:0.0058027903238932295 47:0.03714466094970703 48:0.0 49:0.0 50:0.0 51:0.0 52:0.0 53:0.0 54:0.0 55:0.0 56:0.0 57:0.0 58:9.409586588541667E-5 59:2.574920654296875E-5 60:0.0 61:0.0 62:1.2079874674479167E-4 63:0.10964075724283855 
-70.16675189649233 0:0.044155193849516494 1:0.0014165303763896372 2:0.0 3:0.0 4:0.020280754797449483 5:0.010548454922030538 6:0.0 7:0.0 8:0.0 9:1.3391035368199528E-4 10:3.173231129905101E-7 11:0.0 12:0.0 13:0.0 14:0.0 15:0.0 16:5.537288321684401E-4 17:5.397666151968578E-4 18:0.0 19:0.0 20:0.0073590403133629205 21:0.22553105609574528 22:0.0013264106123003323 23:0.0 24:0.0 25:0.09773551880107711 26:0.0201163814249204 27:1.5866155649525507E-6 28:0.0 29:0.0 30:6.927163556582837E-4 31:9.837016502705814E-6 32:0.0 33:0.0 34:0.0 35:0.0 36:0.0 37:4.6202245251418273E-4 38:3.1732311299051014E-6 39:0.0 40:0.0 41:0.08065115972078105 42:0.2666551795699764 43:0.0014254154235533716 44:0.0 45:0.0 46:0.10378623591958017 47:0.01852913121374187 48:0.0 49:0.0 50:0.0 51:0.0 52:0.0 53:0.0 54:0.0 55:0.0 56:0.0 57:0.0 58:1.8087417440459076E-5 59:0.0 60:0.0 61:0.0 62:0.04029527550309993 63:0.05777311524350424 
-129.1549665014884 0:0.196533203125 1:0.004883766174316406 2:0.0 3:0.0 4:0.07996114095052083 5:0.04487419128417969 6:3.4968058268229165E-6 7:0.0 8:0.0 9:0.0030314127604166665 10:2.6702880859375E-4 11:0.0 12:0.0 13:0.0 14:2.2252400716145835E-6 15:0.0 16:0.01593176523844401 17:1.5894571940104168E-5 18:0.0 19:0.0 20:0.03521887461344401 21:0.23072401682535806 22:0.004738807678222656 23:0.0 24:0.0 25:0.03522364298502604 26:0.07384649912516277 27:6.993611653645833E-6 28:0.0 29:0.0 30:0.0053437550862630205 31:8.519490559895833E-5 32:0.0 33:0.0 34:0.0 35:0.0 36:5.645751953125E-4 37:0.0025205612182617188 38:9.5367431640625E-7 39:0.0 40:0.0 41:0.0025949478149414062 42:0.06915632883707683 43:0.013689676920572916 44:0.0 45:0.0 46:0.018296559651692707 47:0.06284268697102864 48:0.0 49:0.0 50:0.0 51:0.0 52:0.0 53:0.0 54:0.0 55:0.0 56:0.0 57:2.574920654296875E-5 58:1.586278279622396E-4 59:3.178914388020833E-7 60:0.0 61:0.0 62:1.6657511393229166E-4 63:0.09929052988688152 
129.1549665014884 0:0.19965302808214788 1:0.01898859012559272 2:0.0 3:0.0 4:0.010616910162757913 5:0.04760476239106754 6:2.7533480712546456E-6 7:0.0 8:0.0 9:0.005133742631039344 10:7.495364363065488E-4 11:0.0 12:0.0 13:0.0 14:5.083681757016532E-4 15:1.1263696655132642E-6 16:8.915841663462771E-4 17:1.9611347398436498E-4 18:0.0 19:0.0 20:0.004779311642957837 21:0.17713652301198257 22:0.025469095420030757 23:0.0 24:0.0 25:0.019543514914135588 26:0.08926792479655261 27:6.007304882737409E-6 28:0.0 29:0.0 30:0.0010034702197872613 31:4.8934504357298475E-5 32:0.0 33:0.0 34:0.0 35:0.0 36:0.0 37:5.7319700756119444E-5 38:4.90596565423555E-5 39:0.0 40:0.0 41:0.002222202197872613 42:0.2152275917515699 43:0.030049289936562862 44:0.0 45:0.0 46:0.017310925084903242 47:0.057772000752915546 48:0.0 49:0.0 50:0.0 51:0.0 52:0.0 53:0.0 54:0.0 55:0.0 56:0.0 57:0.0 58:1.3140979430988081E-5 59:7.008522363193643E-6 60:0.0 61:0.0 62:5.092442409970525E-4 63:0.07518091999871844 
-129.1549665014884 0:0.14251837776808884 1:0.028501327362581638 2:0.0 3:0.0 4:0.01404567295029895 5:0.15755156024601427 6:0.0026956598448543835 7:0.0 8:0.0 9:7.184195278105149E-4 10:0.0020543498335005624 11:1.9039386779430608E-6 12:0.0 13:0.0 14:3.173231129905101E-7 15:0.0 16:1.5548832536534996E-4 17:1.0154339615696323E-5 18:0.0 19:0.0 20:0.0030932657054314927 21:0.1907203932775733 22:0.02941077540441244 23:0.0 24:0.0 25:0.009957916608755198 26:0.14005436379571753 27:0.003140864172380069 28:0.0 29:0.0 30:5.435744925527438E-4 31:0.00408045790994497 32:0.0 33:0.0 34:0.0 35:0.0 36:0.0 37:9.519693389715304E-7 38:6.346462259810202E-7 39:0.0 40:0.0 41:1.1645758246751722E-4 42:0.08056453051093464 43:0.02489875806080038 44:0.0 45:0.0 46:0.004143605209430082 47:0.10201081310239826 48:0.0 49:0.0 50:0.0 51:0.0 52:0.0 53:0.0 54:0.0 55:0.0 56:0.0 57:0.0 58:0.0 59:0.0 60:0.0 61:0.0 62:2.9511049508117443E-5 63:0.058979895042207145 
-129.1549665014884 0:0.24381457922003247 1:0.0047243065062027145 2:1.5866155649525507E-6 3:0.0 4:0.08149270061643188 5:0.07263811647154468 6:7.869613202164651E-5 7:0.0 8:0.0 9:0.009565387917985937 10:0.0013172082420236076 11:0.0 12:0.0 13:0.0 14:7.298431598781734E-5 15:0.0 16:2.700419691549241E-4 17:6.006926528910357E-4 18:5.4896898547358255E-5 19:0.0 20:0.004810935716049124 21:0.07084143300579242 22:0.007741097341403495 23:1.9039386779430608E-6 24:0.0 25:0.07668398616217369 26:0.18565940694848768 27:1.2439066029227997E-4 28:0.0 29:0.0 30:0.03863345436036863 31:0.004695430102920579 32:0.0 33:0.0 34:0.0 35:0.0 36:0.0 37:7.933077824762753E-6 38:3.1732311299051014E-6 39:1.2692924519620404E-6 40:0.0 41:1.9927891495804037E-4 42:0.043421860135395424 43:0.010780418117626601 44:0.0 45:0.0 46:0.06584486326864385 47:0.06491764513248557 48:0.0 49:0.0 50:0.0 51:0.0 52:0.0 53:0.0 54:0.0 55:0.0 56:0.0 57:0.0 58:0.0 59:0.0 60:0.0 61:0.0 62:1.2692924519620406E-5 63:0.010987630110409404 
10.059683949008985 0:0.08759244283040364 1:0.005466461181640625 2:0.0 3:0.0 4:0.0032068888346354165 5:0.011891047159830729 6:0.0 7:0.0 8:0.0 9:2.193450927734375E-4 10:9.568532307942708E-5 11:0.0 12:0.0 13:0.0 14:0.0 15:0.0 16:0.010738054911295572 17:1.068115234375E-4 18:0.0 19:0.0 20:0.019881248474121094 21:0.26392650604248047 22:0.0065809885660807295 23:0.0 24:0.0 25:0.009075164794921875 26:0.022077560424804688 27:0.0 28:0.0 29:0.0 30:4.100799560546875E-4 31:5.9445699055989586E-5 32:0.0 33:0.0 34:0.0 35:0.0 36:0.0 37:0.004030863444010417 38:7.62939453125E-6 39:0.0 40:0.0 41:0.035971641540527344 42:0.14959939320882162 43:0.016631444295247395 44:0.0 45:0.0 46:0.005521456400553386 47:0.06080500284830729 48:0.0 49:0.0 50:0.0 51:0.0 52:0.0 53:0.0 54:0.0 55:0.0 56:0.0 57:0.0 58:1.9168853759765625E-4 59:0.0 60:0.0 61:0.0 62:9.46044921875E-4 63:0.2849671045939128 
-129.1549665014884 0:0.21681831538236482 1:0.004255302945202741 2:0.0 3:0.0 4:0.07347616681295262 5:0.11329450567722782 6:1.4216075461974853E-4 7:0.0 8:0.0 9:0.017432779858359657 10:0.004339076247032236 11:3.173231129905101E-7 12:0.0 13:0.0 14:4.918508251352907E-5 15:1.5866155649525507E-6 16:3.173231129905101E-7 17:3.173231129905101E-7 18:0.0 19:0.0 20:0.0017655858006791984 21:0.08305742088658809 22:0.00577274207152336 23:0.0 24:0.0 25:0.06301497574699448 26:0.1943061444543661 27:4.293381718761602E-4 28:0.0 29:0.0 30:0.05091576277177931 31:0.008353530949475179 32:0.0 33:0.0 34:0.0 35:0.0 36:0.0 37:0.0 38:0.0 39:0.0 40:0.0 41:1.4914186310553976E-5 42:0.028965253753773765 43:0.0035286330164544725 44:0.0 45:0.0 46:0.06948487669775799 47:0.05253728387916082 48:0.0 49:0.0 50:0.0 51:0.0 52:0.0 53:0.0 54:0.0 55:0.0 56:0.0 57:0.0 58:0.0 59:0.0 60:0.0 61:0.0 62:9.519693389715304E-6 63:0.008033986574693735 
-129.1549665014884 0:0.11057155604465625 1:0.008871402269875692 2:3.173231129905101E-7 3:0.0 4:0.02514817402761092 5:0.059954394322201 6:3.173231129905101E-7 7:0.0 8:0.0 9:0.00405570670713171 10:1.5421903291338793E-4 11:0.0 12:0.0 13:0.0 14:0.0 15:0.0 16:0.003677457556447022 17:1.2343869095330845E-4 18:0.0 19:0.0 20:0.007482161681203238 21:0.1991872085783861 22:0.015415239505965992 23:0.0 24:0.0 25:0.0829866578323912 26:0.07991782600665998 27:2.221261790933571E-6 28:0.0 29:0.0 30:2.0276946920093597E-4 31:5.711816033829183E-6 32:0.0 33:0.0 34:0.0 35:0.0 36:8.060007069958957E-5 37:0.001017655223360566 38:7.615754711772243E-6 39:0.0 40:0.0 41:6.841486316075398E-4 42:0.25139035121956793 43:0.0581789715050191 44:0.0 45:0.0 46:0.004019531872250792 47:0.06010639209332346 48:0.0 49:0.0 50:0.0 51:0.0 52:0.0 53:0.0 54:0.0 55:0.0 56:0.0 57:0.0 58:8.567724050743774E-6 59:6.346462259810202E-7 60:0.0 61:0.0 62:2.062600234438316E-5 63:0.02672812580719067 
-129.1549665014884 0:0.19543997446695963 1:0.0035502115885416665 2:0.0 3:0.0 4:0.08385753631591797 5:0.1116015116373698 6:1.3097127278645834E-4 7:0.0 8:0.0 9:0.012417793273925781 10:0.0035257339477539062 11:0.0 12:0.0 13:0.0 14:2.511342366536458E-4 15:0.0 16:0.0 17:0.0 18:0.0 19:0.0 20:0.001037915547688802 21:0.07702096303304036 22:0.0063076019287109375 23:0.0 24:0.0 25:0.07307370503743489 26:0.20618120829264322 27:2.190272013346354E-4 28:0.0 29:0.0 30:0.04160245259602865 31:0.0041243235270182295 32:0.0 33:0.0 34:0.0 35:0.0 36:0.0 37:0.0 38:0.0 39:0.0 40:0.0 41:1.4940897623697916E-5 42:0.03230412801106771 43:0.005038261413574219 44:0.0 45:0.0 46:0.0740216573079427 47:0.05901940663655599 48:0.0 49:0.0 50:0.0 51:0.0 52:0.0 53:0.0 54:0.0 55:0.0 56:0.0 57:0.0 58:0.0 59:0.0 60:0.0 61:0.0 62:0.0 63:0.009259541829427084 
-129.1549665014884 0:0.08167330423990886 1:0.005351066589355469 2:1.8564860026041666E-4 3:0.0 4:0.006646792093912761 5:0.007823944091796875 6:0.0 7:0.0 8:0.0 9:3.5921732584635414E-5 10:1.9073486328125E-6 11:0.0 12:0.0 13:0.0 14:0.0 15:0.0 16:0.0034348169962565103 17:0.0022192001342773438 18:7.232030232747396E-4 19:0.0 20:0.002571741739908854 21:0.20778973897298178 22:0.011645634969075521 23:6.357828776041666E-7 24:0.0 25:0.005166371663411458 26:0.019643783569335938 27:0.0 28:0.0 29:0.0 30:0.0 31:0.0 32:0.0 33:0.0 34:0.0 35:0.0 36:0.0 37:7.031758626302084E-4 38:4.965464274088541E-4 39:6.039937337239583E-6 40:0.0 41:0.0010992685953776042 42:0.5880756378173828 43:0.010189692179361979 44:0.0 45:0.0 46:0.00251007080078125 47:0.012050310770670572 48:0.0 49:0.0 50:0.0 51:0.0 52:0.0 53:0.0 54:0.0 55:0.0 56:0.0 57:0.0 58:4.7588348388671875E-4 59:1.6657511393229166E-4 60:0.0 61:0.0 62:5.445480346679688E-4 63:0.028768539428710938 
-129.1549665014884 0:0.20791021982828775 1:0.006560325622558594 2:7.088979085286458E-5 3:0.0 4:0.061459859212239586 5:0.06808630625406902 6:2.8928120930989582E-5 7:0.0 8:0.0 9:0.006142934163411458 10:8.325576782226562E-4 11:0.0 12:0.0 13:0.0 14:3.62396240234375E-5 15:3.4968058268229165E-6 16:3.1789143880208335E-6 17:8.58306884765625E-6 18:1.354217529296875E-4 19:1.262029012044271E-4 20:0.007366498311360677 21:0.10134410858154297 22:0.018039385477701824 23:5.025863647460938E-4 24:0.0 25:0.08584817250569661 26:0.1832739512125651 27:5.53131103515625E-5 28:0.0 29:0.0 30:0.021417935689290363 31:0.0011453628540039062 32:0.0 33:0.0 34:0.0 35:0.0 36:0.0 37:6.961822509765625E-5 38:5.2769978841145836E-5 39:5.359649658203125E-4 40:0.0 41:3.706614176432292E-4 42:0.08515230814615886 43:0.017713546752929688 44:0.0 45:0.0 46:0.05382823944091797 47:0.048191070556640625 48:0.0 49:0.0 50:0.0 51:0.0 52:0.0 53:0.0 54:0.0 55:0.0 56:0.0 57:0.0 58:4.132588704427083E-6 59:1.846949259440104E-4 60:0.0 61:0.0 62:5.14984130859375E-5 63:0.023447036743164062 
-129.1549665014884 0:0.1960704609625933 1:0.01343006611109736 2:0.0 3:0.0 4:0.06601907365767563 5:0.23288248065439643 6:0.002159701107013412 7:0.0 8:0.0 9:0.02043941635394474 10:0.014931956404881444 11:2.4751202813259792E-5 12:0.0 13:0.0 14:6.606667212462421E-4 15:1.3422767679498578E-4 16:9.519693389715304E-7 17:2.221261790933571E-6 18:0.0 19:0.0 20:7.298431598781733E-6 21:0.03426518438694127 22:0.005373866918494289 23:0.0 24:0.0 25:0.030502049589986806 26:0.14033424278137516 27:0.0017202085955215554 28:0.0 29:0.0 30:0.02384905320302777 31:0.01845709886709302 32:0.0 33:0.0 34:0.0 35:0.0 36:0.0 37:6.346462259810202E-7 38:3.173231129905101E-7 39:0.0 40:0.0 41:1.3644893858591936E-5 42:0.017362651450388754 43:0.003592732285278556 44:0.0 45:0.0 46:0.019224068831191085 47:0.12312834894880373 48:0.0 49:0.0 50:0.0 51:0.0 52:0.0 53:0.0 54:0.0 55:0.0 56:0.0 57:0.0 58:0.0 59:0.0 60:0.0 61:0.0 62:4.759846694857652E-6 63:0.03540786491682009 
-129.1549665014884 0:0.3740348815917969 1:0.004078229268391927 2:0.0 3:0.0 4:0.020936012268066406 5:0.01854387919108073 6:9.5367431640625E-7 7:0.0 8:0.0 9:0.0030040740966796875 10:5.156199137369791E-4 11:0.0 12:0.0 13:0.0 14:4.475911458333333E-4 15:5.404154459635417E-6 16:0.020366986592610676 17:5.2134195963541664E-5 18:0.0 19:0.0 20:0.028623580932617188 21:0.10541979471842448 22:0.007079124450683594 23:0.0 24:0.0 25:0.014220555623372396 26:0.037278175354003906 27:9.5367431640625E-7 28:0.0 29:0.0 30:0.0037082036336263022 31:1.1094411214192708E-4 32:0.0 33:0.0 34:0.0 35:0.0 36:1.7547607421875E-4 37:0.002788543701171875 38:1.239776611328125E-5 39:0.0 40:0.0 41:0.004749615987141927 42:0.16492176055908203 43:0.017164230346679688 44:0.0 45:0.0 46:0.027905782063802082 47:0.059638023376464844 48:0.0 49:0.0 50:0.0 51:0.0 52:0.0 53:0.0 54:0.0 55:0.0 56:0.0 57:6.663004557291666E-4 58:2.304712931315104E-4 59:1.1444091796875E-5 60:0.0 61:0.0 62:8.134841918945312E-4 63:0.08249537150065105 
129.1549665014884 0:0.1324716106876963 1:0.002674081873171029 2:8.567724050743774E-6 3:0.0 4:0.04057515448875756 5:0.11524572549900645 6:2.9828372621107953E-5 7:0.0 8:0.0 9:0.005068602083797418 10:7.450746693017178E-4 11:0.0 12:0.0 13:0.0 14:0.0 15:0.0 16:2.2212617909335708E-5 17:5.5214221660348764E-5 18:1.3962216971582446E-5 19:0.0 20:2.408482427597972E-4 21:0.16152032042018657 22:0.0035546535117196945 23:0.0 24:0.0 25:0.18470362973216026 26:0.17834637848650836 27:3.14149881860605E-5 28:0.0 29:0.0 30:0.022624503309997393 31:0.0015136312489647333 32:0.0 33:0.0 34:0.0 35:0.0 36:0.0 37:0.0 38:0.0 39:0.0 40:0.0 41:0.001289601131193433 42:0.09771743138363666 43:6.0291391468196925E-5 44:0.0 45:0.0 46:0.04383755341341299 47:0.006430870207865679 48:0.0 49:0.0 50:0.0 51:0.0 52:0.0 53:0.0 54:0.0 55:0.0 56:0.0 57:0.0 58:0.0 59:0.0 60:0.0 61:0.0 62:1.4279540084572955E-5 63:0.0012045585369119766 
-83.79890450267125 0:0.06763044993082683 1:0.007620493570963542 2:1.6339619954427084E-4 3:0.0 4:0.0034093856811523438 5:0.00802453358968099 6:0.0 7:0.0 8:0.0 9:9.5367431640625E-7 10:0.0 11:0.0 12:0.0 13:0.0 14:0.0 15:0.0 16:0.003314336140950521 17:0.0012454986572265625 18:6.192525227864584E-4 19:0.0 20:0.001479784647623698 21:0.19669055938720703 22:0.02447509765625 23:9.5367431640625E-7 24:0.0 25:0.0036029815673828125 26:0.02255535125732422 27:0.0 28:0.0 29:0.0 30:0.0 31:0.0 32:0.0 33:0.0 34:0.0 35:0.0 36:0.0 37:0.0013373692830403645 38:7.143020629882812E-4 39:1.6848246256510418E-5 40:0.0 41:8.789698282877604E-4 42:0.5683838526407877 43:0.024129549662272137 44:0.0 45:0.0 46:0.0015506744384765625 47:0.014358202616373697 48:0.0 49:0.0 50:0.0 51:0.0 52:0.0 53:0.0 54:0.0 55:0.0 56:0.0 57:0.0 58:0.0017293294270833333 59:3.147125244140625E-4 60:0.0 61:0.0 62:0.0015741984049479167 63:0.04417896270751953 
129.1549665014884 0:0.11850431654630601 1:0.002692803936837469 2:0.0 3:0.0 4:0.07361896221379835 5:0.06519815876436919 6:1.0788985841677344E-5 7:0.0 8:0.0 9:0.0173845467451851 10:7.146116504546288E-4 11:0.0 12:0.0 13:0.0 14:3.8078773558861215E-6 15:0.0 16:6.0608714581187435E-5 17:7.615754711772243E-6 18:0.0 19:0.0 20:0.009247112835656456 21:0.13793210681603701 22:0.004029368888753498 23:0.0 24:0.0 25:0.1491977119734261 26:0.15187496707772702 27:8.250400937753264E-6 28:0.0 29:0.0 30:0.025905306975206276 31:1.500938324445113E-4 32:0.0 33:0.0 34:0.0 35:0.0 36:0.0 37:1.3962216971582446E-5 38:3.173231129905101E-7 39:0.0 40:0.0 41:5.851438203545007E-4 42:0.08738888137890855 43:0.015289579553221749 44:0.0 45:0.0 46:0.03988021687130834 47:0.05950760337911037 48:0.0 49:0.0 50:0.0 51:0.0 52:0.0 53:0.0 54:0.0 55:0.0 56:0.0 57:0.0 58:2.221261790933571E-6 59:6.346462259810202E-7 60:0.0 61:0.0 62:4.823311317455754E-5 63:0.04074206644619057 
-129.1549665014884 0:0.12873268127441406 1:0.009562492370605469 2:0.0 3:0.0 4:0.018676122029622395 5:0.038195292154947914 6:1.5894571940104167E-6 7:0.0 8:0.0 9:0.004021008809407552 10:1.300175984700521E-4 11:0.0 12:0.0 13:0.0 14:0.0 15:0.0 16:9.123484293619791E-4 17:1.1507670084635417E-4 18:0.0 19:0.0 20:0.004316647847493489 21:0.1737524668375651 22:0.016075770060221355 23:0.0 24:0.0 25:0.09633858998616536 26:0.09338951110839844 27:1.9073486328125E-6 28:0.0 29:0.0 30:7.352828979492188E-4 31:2.6702880859375E-5 32:0.0 33:0.0 34:0.0 35:0.0 36:0.0 37:5.741119384765625E-4 38:1.811981201171875E-5 39:0.0 40:0.0 41:0.0015589396158854167 42:0.18411477406819662 43:0.051709493001302086 44:0.0 45:0.0 46:0.010633150736490885 47:0.07565879821777344 48:0.0 49:0.0 50:0.0 51:0.0 52:0.0 53:0.0 54:0.0 55:0.0 56:0.0 57:0.0 58:1.71661376953125E-5 59:3.1789143880208335E-6 60:0.0 61:0.0 62:5.2769978841145836E-5 63:0.09067598978678386 
-129.1549665014884 0:0.1631907092869686 1:0.011248152386174612 2:0.0 3:0.0 4:0.03821871305169003 5:0.06016224096120979 6:1.0788985841677344E-5 7:0.0 8:0.0 9:0.0024008666728861996 10:8.694653295939977E-5 11:0.0 12:0.0 13:0.0 14:0.0 15:0.0 16:2.881293865953832E-4 17:8.186936315155162E-5 18:0.0 19:0.0 20:0.004279736824903011 21:0.17820770828613153 22:0.018627501378768927 23:0.0 24:0.0 25:0.09141031718983729 26:0.10617916951464161 27:1.7452771214478057E-5 28:0.0 29:0.0 30:0.0013327570745601425 31:3.078034196007948E-5 32:0.0 33:0.0 34:0.0 35:0.0 36:0.0 37:1.0471662728686834E-4 38:1.840474055344959E-5 39:0.0 40:0.0 41:5.083516270107972E-4 42:0.15591956747590408 43:0.03090282868169382 44:0.0 45:0.0 46:0.021125786247343212 47:0.053591113937402304 48:0.0 49:0.0 50:0.0 51:0.0 52:0.0 53:0.0 54:0.0 55:0.0 56:0.0 57:0.0 58:7.298431598781733E-6 59:2.7607110830174382E-5 60:0.0 61:0.0 62:2.18952947963452E-5 63:0.06199858981608587 
129.1549665014884 0:0.07088522359538511 1:0.003001876648890226 2:0.0 3:0.0 4:0.02397280921709407 5:0.024728355549124476 6:6.346462259810202E-7 7:0.0 8:0.0 9:0.0013556043386954593 10:3.3699714599592174E-4 11:0.0 12:0.0 13:0.0 14:3.4905542428956115E-6 15:0.0 16:0.01413864862240517 17:3.2684280638022546E-5 18:0.0 19:0.0 20:0.02936635016859377 21:0.3231885134110267 22:0.0046640151147345175 23:0.0 24:0.0 25:0.03478400767668075 26:0.04102987850967296 27:9.519693389715304E-7 28:0.0 29:0.0 30:0.003261446955316463 31:2.1260648570364178E-4 32:0.0 33:0.0 34:0.0 35:0.0 36:0.0 37:0.004082044525509922 38:4.759846694857652E-6 39:0.0 40:0.0 41:0.031079260332516543 42:0.10709464669561923 43:0.012149667350180651 44:0.0 45:0.0 46:0.01762253907992798 47:0.05609733188380135 48:0.0 49:0.0 50:0.0 51:0.0 52:0.0 53:0.0 54:0.0 55:0.0 56:0.0 57:0.0 58:1.4025681594180547E-4 59:1.2692924519620404E-6 60:0.0 61:0.0 62:3.8745152096141287E-4 63:0.19637667776662915 
129.1549665014884 0:0.08400567372639973 1:3.019968668619792E-4 2:0.0 3:0.0 4:0.1856540044148763 5:0.14282798767089844 6:2.2570292154947918E-5 7:0.0 8:0.0 9:0.06907240549723308 10:0.008676528930664062 11:0.0 12:0.0 13:0.0 14:0.001965204874674479 15:0.0 16:0.0 17:0.0 18:0.0 19:0.0 20:0.003441492716471354 21:0.03259086608886719 22:9.136199951171875E-4 23:0.0 24:0.0 25:0.13541793823242188 26:0.13816006978352866 27:2.8260548909505207E-4 28:0.0 29:0.0 30:0.0701901117960612 31:0.001445452372233073 32:0.0 33:0.0 34:0.0 35:0.0 36:0.0 37:0.0 38:0.0 39:0.0 40:0.0 41:1.373291015625E-4 42:0.016512235005696613 43:0.00139617919921875 44:0.0 45:0.0 46:0.06775410970052083 47:0.0230868657430013 48:0.0 49:0.0 50:0.0 51:0.0 52:0.0 53:0.0 54:0.0 55:0.0 56:0.0 57:0.0 58:0.0 59:0.0 60:0.0 61:0.0 62:1.9327799479166666E-4 63:0.01595147450764974 
-90.01925526782594 0:0.12238216400146484 1:0.00453948974609375 2:0.0 3:0.0 4:0.048212687174479164 5:0.0384368896484375 6:0.0 7:0.0 8:0.0 9:0.010669390360514322 10:0.0 11:0.0 12:0.0 13:0.0 14:0.0 15:0.0 16:0.0050118764241536455 17:9.854634602864584E-6 18:0.0 19:0.0 20:0.026001612345377605 21:0.17304388682047525 22:0.011671066284179688 23:0.0 24:0.0 25:0.05320199330647787 26:0.06795374552408855 27:0.0 28:0.0 29:0.0 30:7.025400797526042E-5 31:0.0 32:0.0 33:0.0 34:0.0 35:0.0 36:0.0 37:4.5871734619140625E-4 38:9.5367431640625E-7 39:0.0 40:0.0 41:0.001407941182454427 42:0.2962942123413086 43:0.028328895568847656 44:0.0 45:0.0 46:0.0060214996337890625 47:0.05608558654785156 48:0.0 49:0.0 50:0.0 51:0.0 52:0.0 53:0.0 54:0.0 55:0.0 56:0.0 57:0.0 58:6.357828776041667E-6 59:3.178914388020833E-7 60:0.0 61:0.0 62:3.719329833984375E-5 63:0.05015341440836588 
129.1549665014884 0:0.30451202392578125 1:0.003973642985026042 2:0.0 3:0.0 4:0.008780161539713541 5:0.02120685577392578 6:2.5431315104166665E-6 7:0.0 8:0.0 9:4.4663747151692707E-4 10:1.1761983235677084E-5 11:0.0 12:0.0 13:0.0 14:6.357828776041666E-7 15:0.0 16:0.0139007568359375 17:8.805592854817708E-5 18:0.0 19:0.0 20:0.009648005167643229 21:0.1448949178059896 22:0.008276939392089844 23:0.0 24:0.0 25:0.00835418701171875 26:0.04593722025553385 27:0.0 28:0.0 29:0.0 30:1.789728800455729E-4 31:2.86102294921875E-6 32:0.0 33:0.0 34:0.0 35:0.0 36:9.5367431640625E-7 37:0.0024811426798502603 38:2.6067097981770832E-5 39:0.0 40:0.0 41:0.0024836858113606772 42:0.22822856903076172 43:0.01556396484375 44:0.0 45:0.0 46:0.01166693369547526 47:0.06392351786295573 48:0.0 49:0.0 50:0.0 51:0.0 52:0.0 53:0.0 54:0.0 55:0.0 56:0.0 57:0.0 58:1.9073486328125E-4 59:1.430511474609375E-5 60:0.0 61:0.0 62:4.812876383463542E-4 63:0.10472265879313152 
94.42541826556915 0:0.14866765340169272 1:0.0021448135375976562 2:0.0 3:0.0 4:0.12516085306803384 5:0.21386114756266275 6:2.7052561442057293E-4 7:0.0 8:0.0 9:0.03655020395914713 10:0.005641619364420573 11:3.178914388020833E-7 12:0.0 13:0.0 14:0.001755078633626302 15:3.910064697265625E-5 16:0.0 17:0.0 18:0.0 19:0.0 20:1.9168853759765625E-4 21:0.053771654764811196 22:0.0012763341267903645 23:0.0 24:0.0 25:0.07844734191894531 26:0.08979638417561848 27:2.70843505859375E-4 28:0.0 29:0.0 30:0.02107969919840495 31:0.0030689239501953125 32:0.0 33:0.0 34:0.0 35:0.0 36:0.0 37:0.0 38:0.0 39:0.0 40:0.0 41:1.10626220703125E-4 42:0.01493072509765625 43:9.644826253255209E-4 44:0.0 45:0.0 46:0.057848612467447914 47:0.0918741226196289 48:0.0 49:0.0 50:0.0 51:0.0 52:0.0 53:0.0 54:0.0 55:0.0 56:0.0 57:0.0 58:0.0 59:0.0 60:0.0 61:0.0 62:4.291534423828125E-5 63:0.05223433176676432 
129.1549665014884 0:0.1398159662882487 1:0.010287602742513021 2:0.0 3:0.0 4:0.010565439860026041 5:0.04759407043457031 6:0.0 7:0.0 8:0.0 9:0.0010690689086914062 10:3.337860107421875E-5 11:0.0 12:0.0 13:0.0 14:0.0 15:0.0 16:0.0038976669311523438 17:3.4014383951822914E-5 18:0.0 19:0.0 20:0.011633555094401041 21:0.19235738118489584 22:0.02285480499267578 23:0.0 24:0.0 25:0.0373223622639974 26:0.10611852010091145 27:5.086263020833333E-6 28:0.0 29:0.0 30:5.3087870279947914E-5 31:9.5367431640625E-7 32:0.0 33:0.0 34:0.0 35:0.0 36:6.284713745117188E-4 37:0.001926104227701823 38:9.5367431640625E-7 39:0.0 40:0.0 41:6.736119588216146E-4 42:0.3050934473673503 43:0.048510233561197914 44:0.0 45:0.0 46:0.0014750162760416667 47:0.04622205098470052 48:0.0 49:0.0 50:0.0 51:0.0 52:0.0 53:0.0 54:0.0 55:0.0 56:0.0 57:0.0 58:2.2252400716145835E-6 59:0.0 60:0.0 61:0.0 62:1.1761983235677084E-5 63:0.011813163757324219 
15.942370302060942 0:0.13137684594787905 1:0.004475207862505165 2:0.0 3:0.0 4:0.05749863075076744 5:0.1390589211902663 6:1.440646932976916E-4 7:1.9039386779430608E-6 8:0.0 9:0.06610348160573111 10:0.003511497568352985 11:1.2058278293639385E-5 12:0.0 13:0.0 14:3.868168747354319E-4 15:9.551425701014355E-5 16:1.5866155649525506E-4 17:2.538584903924081E-5 18:0.0 19:0.0 20:1.2661192208321355E-4 21:0.09396603754186285 22:3.6079637947021E-4 23:1.2692924519620404E-6 24:0.0 25:0.24946419992371552 26:0.17927581788445757 27:1.3422767679498578E-4 28:0.0 29:0.0 30:0.04640850527486211 31:0.0031621248209504336 32:0.0 33:0.0 34:0.0 35:0.0 36:0.0 37:0.0 38:0.0 39:0.0 40:0.0 41:1.0471662728686835E-5 42:0.010068979698301877 43:9.805284191406763E-5 44:0.0 45:0.0 46:0.0067383563043534826 47:0.0068145138514712055 48:0.0 49:0.0 50:0.0 51:0.0 52:0.0 53:0.0 54:0.0 55:0.0 56:0.0 57:0.0 58:0.0 59:0.0 60:0.0 61:0.0 62:0.0 63:5.210445515304176E-4 
-129.1549665014884 0:0.037942324620275296 1:0.0014260500697793525 2:0.0 3:0.0 4:0.02408450695286673 5:0.12778601760127842 6:1.4914186310553976E-5 7:0.0 8:0.0 9:0.008265949770289799 10:9.031015795709918E-4 11:0.0 12:0.0 13:0.0 14:6.6637853728007125E-6 15:0.0 16:0.0 17:0.0 18:0.0 19:0.0 20:1.9039386779430608E-6 21:0.17312038413866765 22:0.007550703473609189 23:0.0 24:0.0 25:0.19172821148443117 26:0.25738775805508857 27:9.04370872022954E-5 28:0.0 29:0.0 30:0.040334940892223746 31:0.005238052626134351 32:0.0 33:0.0 34:0.0 35:0.0 36:0.0 37:0.0 38:0.0 39:0.0 40:0.0 41:4.350499879099894E-4 42:0.05043565290182467 43:1.71671804127866E-4 44:0.0 45:0.0 46:0.06490082700749708 47:0.008110778768037438 48:0.0 49:0.0 50:0.0 51:0.0 52:0.0 53:0.0 54:0.0 55:0.0 56:0.0 57:0.0 58:0.0 59:0.0 60:0.0 61:0.0 62:3.173231129905101E-7 63:6.378194571109253E-5 
-129.1549665014884 0:0.3263664245605469 1:0.008023897806803385 2:0.0 3:0.0 4:0.033958117167154946 5:0.04433663686116537 6:1.9073486328125E-6 7:0.0 8:0.0 9:0.0 10:0.0 11:0.0 12:0.0 13:0.0 14:0.0 15:0.0 16:0.005979220072428386 17:1.3033548990885416E-5 18:0.0 19:0.0 20:0.024525006612141926 21:0.18295796712239584 22:0.006650606791178386 23:0.0 24:0.0 25:0.02867921193440755 26:0.03919569651285807 27:1.0172526041666666E-5 28:0.0 29:0.0 30:1.5894571940104167E-6 31:6.357828776041666E-7 32:0.0 33:0.0 34:0.0 35:0.0 36:0.0 37:1.4972686767578125E-4 38:3.178914388020833E-7 39:0.0 40:0.0 41:0.004484494527180989 42:0.13007609049479166 43:0.008891741434733072 44:0.0 45:0.0 46:0.016473770141601562 47:0.03969701131184896 48:0.0 49:0.0 50:0.0 51:0.0 52:0.0 53:0.0 54:0.0 55:0.0 56:0.0 57:0.0 58:2.5113423665364582E-5 59:0.0 60:0.0 61:0.0 62:0.0021740595499674478 63:0.09732755025227864 
129.1549665014884 0:0.3103955586751302 1:0.003143946329752604 2:0.0 3:0.0 4:0.06627623240152995 5:0.028594970703125 6:9.5367431640625E-7 7:0.0 8:6.357828776041666E-7 9:0.012723604838053385 10:7.635752360026041E-4 11:0.0 12:0.0 13:2.9246012369791668E-5 14:0.0016956329345703125 15:4.7047932942708336E-5 16:0.0070273081461588545 17:1.9709269205729168E-5 18:0.0 19:0.0 20:0.0569006601969401 21:0.1224826176961263 22:0.0033063888549804688 23:0.0 24:3.178914388020833E-7 25:0.0400238037109375 26:0.034434000651041664 27:1.5894571940104167E-6 28:0.0 29:0.0 30:0.017148653666178387 31:5.950927734375E-4 32:0.0 33:0.0 34:0.0 35:0.0 36:5.4677327473958336E-5 37:0.0012543996175130208 38:2.2252400716145835E-6 39:0.0 40:0.0 41:0.0057303110758463545 42:0.0669403076171875 43:0.0065161387125651045 44:0.0 45:0.0 46:0.04199695587158203 47:0.048388163248697914 48:0.0 49:0.0 50:0.0 51:0.0 52:0.0 53:0.0 54:0.0 55:0.0 56:0.0 57:7.638931274414062E-4 58:1.5322367350260416E-4 59:1.5894571940104167E-6 60:0.0 61:0.0 62:7.651646931966146E-4 63:0.12182140350341797 
129.1549665014884 0:0.18803806100346454 1:0.027278998731342194 2:0.0 3:0.0 4:0.01727856082544627 5:0.21868005008628016 6:0.004811570362275105 7:0.0 8:0.0 9:0.0023335941729322116 10:0.0053954448901776435 11:2.18952947963452E-5 12:0.0 13:0.0 14:5.077169807848162E-6 15:1.8087417440459076E-5 16:1.5866155649525507E-6 17:1.2692924519620404E-6 18:0.0 19:0.0 20:6.6637853728007125E-6 21:0.10479373680332504 22:0.018004596107968555 23:0.0 24:0.0 25:0.01530195515462838 26:0.1644317599818745 27:0.005338009406726361 28:0.0 29:0.0 30:0.0027470661891588464 31:0.009338184569084732 32:0.0 33:0.0 34:0.0 35:0.0 36:0.0 37:0.0 38:0.0 39:0.0 40:0.0 41:2.221261790933571E-6 42:0.04454930915585071 43:0.013216190332941757 44:0.0 45:0.0 46:0.006599051457750649 47:0.10681667164863955 48:0.0 49:0.0 50:0.0 51:0.0 52:0.0 53:0.0 54:0.0 55:0.0 56:0.0 57:0.0 58:0.0 59:6.346462259810202E-7 60:0.0 61:0.0 62:6.346462259810202E-7 63:0.04498911899045555 
-129.1549665014884 0:0.24213911318344258 1:1.1677490558050773E-4 2:0.0 3:0.0 4:0.15769308635440804 5:0.11841895662891157 6:1.618347876251602E-5 7:0.0 8:0.0 9:0.015156938491991716 10:9.57363831892369E-4 11:0.0 12:0.0 13:0.0 14:1.0757253530378294E-4 15:6.600320750202611E-5 16:5.261217213382658E-4 17:0.0 18:0.0 19:0.0 20:0.0031694232525492153 21:0.05372058176750243 22:7.23496697618363E-5 23:0.0 24:0.0 25:0.08598853448128142 26:0.0823345588351957 27:1.840474055344959E-5 28:0.0 29:0.0 30:0.02023569491540483 31:0.001508554079156885 32:0.0 33:0.0 34:0.0 35:0.0 36:0.0 37:4.125200468876632E-6 38:0.0 39:0.0 40:0.0 41:2.792443394316489E-4 42:0.02286662084520915 43:6.981108485791223E-5 44:0.0 45:0.0 46:0.06659596707709238 47:0.07565776321476238 48:0.0 49:0.0 50:0.0 51:0.0 52:0.0 53:0.0 54:0.0 55:0.0 56:0.0 57:0.0 58:0.0 59:0.0 60:0.0 61:0.0 62:4.759846694857652E-5 63:0.05223265369068993 
129.1549665014884 0:0.1471703847249349 1:0.008915583292643229 2:0.0 3:0.0 4:0.042424519856770836 5:0.04521338144938151 6:0.0 7:0.0 8:0.0 9:0.017383893330891926 10:0.0010236104329427083 11:0.0 12:0.0 13:0.0 14:9.648005167643229E-4 15:6.357828776041666E-7 16:0.0021683375040690103 17:2.3206075032552082E-5 18:0.0 19:0.0 20:0.015969276428222656 21:0.17843310038248697 22:0.017024676005045574 23:0.0 24:0.0 25:0.07388114929199219 26:0.07284800211588542 27:0.0 28:0.0 29:0.0 30:0.008488337198893229 31:1.4940897623697916E-4 32:0.0 33:0.0 34:0.0 35:0.0 36:0.0 37:4.7016143798828125E-4 38:1.621246337890625E-5 39:0.0 40:0.0 41:0.009606361389160156 42:0.20787715911865234 43:0.025170326232910156 44:0.0 45:0.0 46:0.03838475545247396 47:0.03661664326985677 48:0.0 49:0.0 50:0.0 51:0.0 52:0.0 53:0.0 54:0.0 55:0.0 56:0.0 57:0.0 58:1.598993937174479E-4 59:3.1789143880208335E-6 60:0.0 61:0.0 62:0.006566683451334636 63:0.04304631551106771 
-77.29873885537417 0:0.11231931050618489 1:0.00825341542561849 2:0.0 3:0.0 4:0.01667340596516927 5:0.04501469930013021 6:6.357828776041666E-7 7:0.0 8:0.0 9:0.0029446283976236978 10:6.357828776041666E-7 11:0.0 12:0.0 13:0.0 14:0.0 15:0.0 16:9.587605794270834E-4 17:6.866455078125E-5 18:0.0 19:0.0 20:0.004261016845703125 21:0.20438861846923828 22:0.015941937764485676 23:0.0 24:0.0 25:0.06561787923177083 26:0.05780982971191406 27:0.0 28:0.0 29:0.0 30:3.7829081217447914E-5 31:9.5367431640625E-7 32:0.0 33:0.0 34:0.0 35:0.0 36:0.0 37:2.9023488362630207E-4 38:1.2079874674479166E-5 39:0.0 40:0.0 41:8.122126261393229E-4 42:0.28055699666341144 43:0.053870201110839844 44:0.0 45:0.0 46:0.002902348836263021 47:0.06229241689046224 48:0.0 49:0.0 50:0.0 51:0.0 52:0.0 53:0.0 54:0.0 55:0.0 56:0.0 57:0.0 58:1.1761983235677084E-5 59:5.086263020833333E-6 60:0.0 61:0.0 62:3.8782755533854164E-5 63:0.06491565704345703 
-119.03162860595346 0:0.3642768859863281 1:0.005022366841634114 2:0.0 3:0.0 4:0.04877312978108724 5:0.025949478149414062 6:9.5367431640625E-7 7:0.0 8:0.0 9:0.009016990661621094 10:0.002010345458984375 11:0.0 12:0.0 13:0.0 14:0.002506256103515625 15:5.2769978841145836E-5 16:0.01777807871500651 17:8.042653401692708E-5 18:0.0 19:0.0 20:0.042388598124186196 21:0.11167081197102864 22:0.0068264007568359375 23:0.0 24:0.0 25:0.024269739786783855 26:0.035827318827311196 27:2.2252400716145835E-6 28:0.0 29:0.0 30:0.005554517110188802 31:2.5177001953125E-4 32:0.0 33:0.0 34:0.0 35:0.0 36:5.7220458984375E-6 37:5.289713541666666E-4 38:9.218851725260416E-6 39:0.0 40:0.0 41:0.0019963582356770835 42:0.09931564331054688 43:0.017574310302734375 44:0.0 45:0.0 46:0.031111399332682293 47:0.06045754750569662 48:0.0 49:0.0 50:0.0 51:0.0 52:0.0 53:0.0 54:0.0 55:0.0 56:0.0 57:5.4995218912760414E-5 58:1.7865498860677084E-4 59:7.311503092447917E-6 60:0.0 61:0.0 62:6.745656331380209E-4 63:0.08582623799641927 
105.24761939997792 0:0.2156299771710933 1:2.131487397580762E-4 2:0.0 3:0.0 4:0.20601925274450147 5:0.14021888345585157 6:3.3410219128746066E-5 7:0.0 8:9.72702582229316E-6 9:0.09019236673763166 10:0.014244172031332865 11:0.0 12:0.0 13:4.65205582805325E-6 14:0.022088806899929203 15:0.006090809821420264 16:0.0 17:0.0 18:0.0 19:0.0 20:1.7339480813653023E-5 21:0.011160281931499746 22:8.796614656682509E-5 23:0.0 24:0.0 25:0.0721089799056563 26:0.04519514528370351 27:4.3137244951039226E-5 28:0.0 29:3.806227495679932E-6 30:0.04198903298984245 31:0.009160743753769223 32:0.0 33:0.0 34:0.0 35:0.0 36:0.0 37:0.0 38:0.0 39:0.0 40:0.0 41:1.945405164458632E-5 42:0.0025560932204321675 43:3.763936079061266E-5 44:0.0 45:0.0 46:0.03143605580098675 47:0.07743685257127583 48:0.0 49:0.0 50:0.0 51:0.0 52:0.0 53:0.0 54:0.0 55:0.0 56:0.0 57:0.0 58:0.0 59:0.0 60:0.0 61:0.0 62:0.0 63:0.014002265128274096 
129.1549665014884 0:0.17478950371299776 1:0.008916779475033335 2:0.0 3:0.0 4:0.05602149165979662 5:0.1998554910543441 6:0.0012280404472732743 7:0.0 8:0.0 9:0.004930883852759537 10:0.004571674088854279 11:9.202370276724795E-6 12:0.0 13:0.0 14:1.2692924519620406E-5 15:1.4596863197563467E-5 16:0.0 17:0.0 18:0.0 19:0.0 20:5.610272637672219E-4 21:0.10451290584832844 22:0.007124855855975924 23:0.0 24:0.0 25:0.03427533872655696 26:0.15897856228513257 27:0.001627867569641317 28:0.0 29:0.0 30:0.006726298026059843 31:0.0070617085564908125 32:0.0 33:0.0 34:0.0 35:0.0 36:0.0 37:0.0 38:0.0 39:0.0 40:0.0 41:1.2692924519620406E-5 42:0.042517489263372475 43:0.005846995679963139 44:0.0 45:0.0 46:0.017582556367691175 47:0.1099378617880142 48:0.0 49:0.0 50:0.0 51:0.0 52:0.0 53:0.0 54:0.0 55:0.0 56:0.0 57:0.0 58:0.0 59:0.0 60:0.0 61:0.0 62:3.8078773558861215E-6 63:0.05287967551807758 
129.1549665014884 0:0.021765826966245072 1:8.171070159505636E-4 2:1.3010247632610915E-5 3:0.0 4:0.016566170436782574 5:0.07007858824216323 6:1.5866155649525507E-6 7:0.0 8:0.0 9:0.00292984430224138 10:1.2153475227536538E-4 11:0.0 12:0.0 13:0.0 14:0.0 15:0.0 16:1.0408198106088732E-4 17:3.4905542428956114E-5 18:2.7607110830174382E-5 19:3.8078773558861215E-6 20:2.6179156821717084E-4 21:0.18124702906235463 22:0.006420398545136992 23:1.034473348349063E-4 24:0.0 25:0.14503633666966853 26:0.22104664586296338 27:6.6637853728007125E-6 28:0.0 29:0.0 30:0.003727277285186532 31:4.896295633443572E-4 32:0.0 33:0.0 34:0.0 35:0.0 36:0.0 37:3.649215799390867E-5 38:8.948511786332385E-5 39:1.7833558950066668E-4 40:0.0 41:4.382232190398945E-4 42:0.1748012446681784 43:0.004192790291943611 44:0.0 45:0.0 46:0.06963687446888044 47:0.06781194924607202 48:0.0 49:0.0 50:0.0 51:0.0 52:0.0 53:0.0 54:0.0 55:0.0 56:0.0 57:0.0 58:0.0 59:9.519693389715304E-7 60:0.0 61:0.0 62:6.441659193707356E-5 63:0.011945945911640745 
-129.1549665014884 0:0.14432394628100484 1:0.006555895514383939 2:0.0 3:0.0 4:0.02471312403970093 5:0.03177705385798268 6:0.0 7:0.0 8:0.0 9:0.0012711963906399835 10:0.0 11:0.0 12:0.0 13:0.0 14:0.0 15:0.0 16:0.011533425864753082 17:1.0059142681799172E-4 18:0.0 19:0.0 20:0.026850295205692015 21:0.19340113893611716 22:0.020579990492999536 23:0.0 24:0.0 25:0.019484273783843303 26:0.0760214155022495 27:0.0 28:0.0 29:0.0 30:1.3962216971582446E-5 31:0.0 32:0.0 33:0.0 34:0.0 35:0.0 36:0.0 37:3.760278888937545E-4 38:3.3001603751013056E-5 39:0.0 40:0.0 41:5.759414500777759E-4 42:0.3252685664166795 43:0.0339697565687471 44:0.0 45:0.0 46:0.0019524891142306089 47:0.04402096617272151 48:0.0 49:0.0 50:0.0 51:0.0 52:0.0 53:0.0 54:0.0 55:0.0 56:0.0 57:0.0 58:7.933077824762753E-6 59:4.125200468876632E-6 60:0.0 61:0.0 62:3.2684280638022546E-5 63:0.037132198712810524 
-13.031681039951325 0:0.16600599994542042 1:0.007170550384246558 2:0.0 3:0.0 4:0.0505016561093267 5:0.06779417915174454 6:6.981108485791223E-6 7:0.0 8:0.0 9:0.003124998016730544 10:1.6056549517319812E-4 11:0.0 12:0.0 13:0.0 14:0.0 15:0.0 16:0.003526094431550549 17:0.0018290504232773004 18:5.572193864113358E-4 19:6.346462259810202E-7 20:0.009916981927179424 21:0.23412924316533612 22:0.010171475063797812 23:4.156932780175683E-5 24:0.0 25:0.06718936129838464 26:0.10232718424604981 27:3.4588219315965604E-5 28:0.0 29:0.0 30:0.015611662512907118 31:7.780762730527309E-4 32:0.0 33:0.0 34:0.0 35:0.0 36:0.0 37:2.224435022063476E-4 38:6.790714617996917E-5 39:2.887640328213642E-5 40:0.0 41:0.0018030299280120787 42:0.06921864260595895 43:0.02142946446647513 44:0.0 45:0.0 46:0.027125097021541797 47:0.07666780268341117 48:0.0 49:0.0 50:0.0 51:0.0 52:0.0 53:0.0 54:0.0 55:0.0 56:0.0 57:0.0 58:1.0471662728686835E-5 59:9.202370276724795E-6 60:0.0 61:0.0 62:5.680083722530131E-5 63:0.062482190240283404 
-129.1549665014884 0:0.07513809204101562 1:0.0029385884602864585 2:0.0 3:0.0 4:0.13125069936116537 5:0.14870007832845053 6:4.0849049886067707E-4 7:0.0 8:0.0 9:0.06928602854410808 10:0.011396090189615885 11:0.0 12:0.0 13:1.5894571940104167E-6 14:0.021120389302571613 15:6.481806437174479E-4 16:1.0808308919270833E-4 17:0.0 18:0.0 19:0.0 20:7.607142130533854E-4 21:0.1490360895792643 22:0.0029322306315104165 23:0.0 24:0.0 25:0.055212974548339844 26:0.07570838928222656 27:9.123484293619791E-4 28:0.0 29:0.0 30:0.04499944051106771 31:0.015072186787923178 32:0.0 33:0.0 34:0.0 35:0.0 36:0.0 37:1.5894571940104167E-6 38:0.0 39:0.0 40:0.0 41:3.4332275390625E-4 42:0.007374763488769531 43:0.0024487177530924478 44:0.0 45:0.0 46:0.02817058563232422 47:0.08800093332926433 48:0.0 49:0.0 50:0.0 51:0.0 52:0.0 53:0.0 54:0.0 55:0.0 56:0.0 57:0.0 58:0.0 59:0.0 60:0.0 61:0.0 62:4.132588704427083E-6 63:0.06802527109781902 
80.8424961570535 0:0.11608727773030598 1:0.005101839701334636 2:7.05718994140625E-5 3:0.0 4:0.0052344004313151045 5:0.007724761962890625 6:0.0 7:0.0 8:0.0 9:6.103515625E-5 10:0.0 11:0.0 12:0.0 13:0.0 14:0.0 15:0.0 16:0.006796201070149739 17:0.0010662078857421875 18:3.1884511311848957E-4 19:0.0 20:0.006807645161946614 21:0.17258326212565103 22:0.010537147521972656 23:0.0 24:0.0 25:0.0036334991455078125 26:0.0175015131632487 27:0.0 28:0.0 29:0.0 30:0.0 31:0.0 32:0.0 33:0.0 34:0.0 35:0.0 36:0.0 37:9.797414143880208E-4 38:1.6085306803385416E-4 39:1.5894571940104167E-6 40:0.0 41:0.0013052622477213542 42:0.6206099192301432 43:0.004762331644694011 44:0.0 45:0.0 46:0.001041730244954427 47:0.004053433736165364 48:0.0 49:0.0 50:0.0 51:0.0 52:0.0 53:0.0 54:0.0 55:0.0 56:0.0 57:0.0 58:2.9786427815755207E-4 59:4.9273173014322914E-5 60:0.0 61:0.0 62:4.4218699137369793E-4 63:0.0127716064453125 
61.92394165247604 0:0.22537434247420013 1:6.766626658986546E-5 2:0.0 3:0.0 4:0.19710549086378526 5:0.10908182797035879 6:8.88119748991984E-6 7:0.0 8:0.0 9:0.060939393862500454 10:0.006114915928892904 11:0.0 12:0.0 13:6.766626658986546E-6 14:0.008572893062769767 15:8.771239806711309E-4 16:0.0 17:0.0 18:0.0 19:0.0 20:2.4867352971775554E-4 21:0.012274237845235406 22:6.51287815927455E-5 23:0.0 24:0.0 25:0.10655237834239638 26:0.06228426091097403 27:1.8608223312213E-5 28:0.0 29:2.1145708309332955E-6 30:0.04881359888959656 31:0.0061707405988295425 32:0.0 33:0.0 34:0.0 35:0.0 36:0.0 37:0.0 38:0.0 39:0.0 40:0.0 41:2.8758163300692818E-5 42:0.002956170021644747 43:7.189540825173204E-6 44:0.0 45:0.0 46:0.05564873764350535 47:0.08165330680815683 48:0.0 49:0.0 50:0.0 51:0.0 52:0.0 53:0.0 54:0.0 55:0.0 56:0.0 57:0.0 58:0.0 59:0.0 60:0.0 61:0.0 62:0.0 63:0.015126793896164422 
129.1549665014884 0:0.14048449198404947 1:0.001762072245279948 2:0.0 3:0.0 4:0.12164084116617839 5:0.04013760884602865 6:0.0 7:0.0 8:0.0 9:0.012577692667643229 10:4.6094258626302086E-5 11:0.0 12:0.0 13:0.0 14:5.086263020833333E-6 15:0.0 16:1.9073486328125E-4 17:6.357828776041666E-7 18:0.0 19:0.0 20:0.025835037231445312 21:0.14319229125976562 22:0.002826690673828125 23:0.0 24:0.0 25:0.11415545145670573 26:0.05525493621826172 27:0.0 28:0.0 29:0.0 30:5.648930867513021E-4 31:7.62939453125E-6 32:0.0 33:0.0 34:0.0 35:0.0 36:0.0 37:8.519490559895833E-5 38:0.0 39:0.0 40:0.0 41:0.003159205118815104 42:0.10297266642252605 43:0.012564659118652344 44:0.0 45:0.0 46:0.04344654083251953 47:0.07389322916666667 48:0.0 49:0.0 50:0.0 51:0.0 52:0.0 53:0.0 54:0.0 55:0.0 56:0.0 57:0.0 58:6.67572021484375E-6 59:0.0 60:0.0 61:0.0 62:0.0018561681111653645 63:0.1033334732055664 
-129.1549665014884 0:0.19654337565104166 1:0.007763226826985677 2:0.0 3:0.0 4:0.008389472961425781 5:0.0243374506632487 6:0.0 7:0.0 8:0.0 9:3.286997477213542E-4 10:1.3669331868489584E-5 11:0.0 12:0.0 13:0.0 14:0.0 15:0.0 16:0.0031229654947916665 17:2.460479736328125E-4 18:0.0 19:0.0 20:0.0023196538289388022 21:0.24642531077067056 22:0.011494318644205729 23:0.0 24:0.0 25:0.006804148356119792 26:0.030254046122233074 27:6.357828776041666E-7 28:0.0 29:0.0 30:1.9073486328125E-6 31:0.0 32:0.0 33:0.0 34:0.0 35:0.0 36:0.0 37:4.482269287109375E-4 38:8.678436279296875E-5 39:0.0 40:0.0 41:5.925496419270834E-4 42:0.2523212432861328 43:0.01804669698079427 44:0.0 45:0.0 46:0.0024592081705729165 47:0.03901481628417969 48:0.0 49:0.0 50:0.0 51:0.0 52:0.0 53:0.0 54:0.0 55:0.0 56:0.0 57:0.0 58:1.3033548990885416E-4 59:5.0226847330729164E-5 60:0.0 61:0.0 62:1.4623006184895834E-4 63:0.14865875244140625 
129.1549665014884 0:0.29671551538668045 1:7.422187612848032E-4 2:0.0 3:0.0 4:0.16213370599759722 5:0.09914189483785106 6:2.443387970026928E-5 7:0.0 8:0.0 9:0.01043136269333704 10:5.49286308586573E-4 11:0.0 12:0.0 13:0.0 14:2.9511049508117443E-5 15:6.6637853728007125E-6 16:0.0 17:0.0 18:0.0 19:0.0 20:0.0052853337699699365 21:0.06762250734761668 22:5.854611434674912E-4 23:0.0 24:0.0 25:0.06684855627503283 26:0.06695739810278857 27:3.649215799390867E-5 28:0.0 29:0.0 30:0.009992504828071165 31:6.079910844898174E-4 32:0.0 33:0.0 34:0.0 35:0.0 36:0.0 37:0.0 38:0.0 39:0.0 40:0.0 41:5.108902119147213E-4 42:0.02923529572292869 43:8.101259074647724E-4 44:0.0 45:0.0 46:0.055975797131525985 47:0.06704497928197395 48:0.0 49:0.0 50:0.0 51:0.0 52:0.0 53:0.0 54:0.0 55:0.0 56:0.0 57:0.0 58:0.0 59:0.0 60:0.0 61:0.0 62:1.3073712255209019E-4 63:0.058581337212291064 
-129.1549665014884 0:0.2223504905076199 1:0.017783865514971343 2:0.0 3:0.0 4:0.040626476218301025 5:0.21182764283785518 6:0.0026329252567947937 7:0.0 8:0.0 9:0.0049544020474021405 10:0.007580371094799854 11:3.604581233032382E-5 12:0.0 13:0.0 14:7.620211203164949E-5 15:5.090680513317663E-5 16:2.8457220260781966E-6 17:2.3081967544856484E-5 18:0.0 19:0.0 20:1.653680688487663E-4 21:0.08366897043674244 22:0.009819954329323395 23:0.0 24:0.0 25:0.0258122797332104 26:0.15195681332253225 27:0.0025756946249369988 28:0.0 29:0.0 30:0.0064031907500121735 31:0.009707706404961422 32:0.0 33:0.0 34:0.0 35:0.0 36:0.0 37:1.8971480173854644E-6 38:3.7942960347709288E-6 39:0.0 40:0.0 41:2.0552436855009197E-5 42:0.039923899069195946 43:0.0065211301184263035 44:0.0 45:0.0 46:0.012705200272430455 47:0.10385209581103394 48:0.0 49:0.0 50:0.0 51:0.0 52:0.0 53:0.0 54:0.0 55:0.0 56:0.0 57:0.0 58:1.8971480173854644E-6 59:4.4266787072327505E-6 60:0.0 61:0.0 62:1.8971480173854646E-5 63:0.03889090197372956 
-129.1549665014884 0:0.15225607213642864 1:0.007085507789965101 2:0.0 3:0.0 4:0.013680434047246873 5:0.012027180628566315 6:0.0 7:0.0 8:0.0 9:0.0 10:0.0 11:0.0 12:0.0 13:0.0 14:0.0 15:0.0 16:0.013107031182073021 17:0.0014930052466203502 18:0.0 19:0.0 20:0.019403673713143714 21:0.27201413230216015 22:0.008383676645209278 23:0.0 24:0.0 25:0.009947762269139503 26:0.018938795352612618 27:0.0 28:0.0 29:0.0 30:0.0 31:0.0 32:0.0 33:0.0 34:0.0 35:0.0 36:9.900481125303917E-5 37:0.019552180930023273 38:2.786096932056679E-4 39:0.0 40:0.0 41:0.017021211780810962 42:0.18728505325633804 43:0.019431280823973888 44:0.0 45:0.0 46:0.003237013075616194 47:0.031298847926705974 48:0.0 49:0.0 50:0.0 51:0.0 52:0.0 53:0.0 54:0.0 55:0.0 56:0.0 57:5.711816033829183E-6 58:7.650660254201199E-4 59:1.034473348349063E-4 60:0.0 61:0.0 62:3.404877002388174E-4 63:0.19224481351237974 
129.1549665014884 0:0.17975116790771736 1:0.005867939005420514 2:0.0 3:0.0 4:0.08863278798183134 5:0.03290164697042104 6:6.346462259810203E-6 7:0.0 8:0.0 9:0.010403438259393875 10:4.2045312471242593E-4 11:0.0 12:0.0 13:0.0 14:7.298431598781733E-6 15:0.0 16:0.0018414260246839304 17:1.2439066029227997E-4 18:0.0 19:0.0 20:0.01752385159178793 21:0.192035062934693 22:0.008852680206209251 23:0.0 24:0.0 25:0.12985750288288048 26:0.028653007810591102 27:1.8087417440459076E-5 28:0.0 29:0.0 30:3.4302628514274147E-4 31:0.0 32:0.0 33:0.0 34:0.0 35:0.0 36:0.0 37:7.603061787252623E-4 38:2.2434744088429068E-4 39:0.0 40:0.0 41:0.019752729137433273 42:0.12202660310050067 43:0.02086240806356109 44:0.0 45:0.0 46:0.01873443926784673 47:0.044713047882153814 48:0.0 49:0.0 50:0.0 51:0.0 52:0.0 53:0.0 54:0.0 55:0.0 56:0.0 57:0.0 58:1.1391899756359313E-4 59:2.2212617909335708E-5 60:0.0 61:0.0 62:0.007058218002247917 63:0.0684916553540977 
129.1549665014884 0:0.10612173403119032 1:0.001691332192239419 2:6.346462259810202E-7 3:0.0 4:0.07976392429685958 5:0.08305869017904005 6:1.9166316024626812E-4 7:0.0 8:0.0 9:0.01784054005855246 10:0.004336537662128312 11:3.173231129905101E-7 12:0.0 13:0.0 14:0.0010373292563659777 15:1.5485367913936894E-4 16:3.347758842049882E-4 17:3.173231129905101E-7 18:0.0 19:0.0 20:0.006729153934076758 21:0.10552199334763826 22:0.0013676626169890987 23:0.0 24:0.0 25:0.18150977259991077 26:0.08359401427065503 27:0.0018376181473280441 28:0.0 29:0.0 30:0.04018199115176232 31:0.0175717673818495 32:0.0 33:0.0 34:0.0 35:0.0 36:1.0471662728686834E-4 37:3.941153063342136E-4 38:0.0 39:0.0 40:0.0 41:0.00320972328789901 42:0.02177090413605292 43:0.006405801681939428 44:0.0 45:0.0 46:0.08417249430563674 47:0.13741487014186246 48:0.0 49:0.0 50:0.0 51:0.0 52:0.0 53:0.0 54:0.0 55:0.0 56:0.0 57:0.0 58:0.0 59:0.0 60:0.0 61:0.0 62:1.5231509423544486E-5 63:0.01366551986093632 
-129.1549665014884 0:0.036548614501953125 1:9.285608927408854E-4 2:0.0 3:0.0 4:0.03691387176513672 5:0.1169891357421875 6:2.47955322265625E-5 7:0.0 8:0.0 9:0.01653289794921875 10:0.0023517608642578125 11:1.1348724365234375E-4 12:0.0 13:0.0 14:6.421407063802083E-5 15:1.2715657552083333E-6 16:2.2252400716145835E-6 17:3.178914388020833E-7 18:0.0 19:0.0 20:2.86102294921875E-6 21:0.1291631062825521 22:0.004526774088541667 23:0.0 24:0.0 25:0.19575277964274088 26:0.25075562795003253 27:1.9741058349609375E-4 28:0.0 29:0.0 30:0.041671435038248696 31:0.0029052098592122397 32:0.0 33:0.0 34:0.0 35:0.0 36:0.0 37:3.178914388020833E-7 38:0.0 39:0.0 40:0.0 41:9.5367431640625E-7 42:0.06769657135009766 43:2.1998087565104166E-4 44:0.0 45:0.0 46:0.08186562856038411 47:0.013117472330729166 48:0.0 49:0.0 50:0.0 51:0.0 52:0.0 53:0.0 54:0.0 55:0.0 56:0.0 57:0.0 58:0.0 59:0.0 60:0.0 61:0.0 62:1.33514404296875E-5 63:0.0016393661499023438 
129.1549665014884 0:0.148500124613444 1:0.003999074300130208 2:0.0 3:0.0 4:0.05910555521647135 5:0.05673917134602865 6:0.0 7:0.0 8:0.0 9:0.021460215250651043 10:0.0016390482584635417 11:0.0 12:0.0 13:0.0 14:8.751551310221354E-4 15:0.0 16:1.351038614908854E-4 17:2.4477640787760418E-5 18:0.0 19:0.0 20:0.014293352762858072 21:0.17096392313639322 22:0.008600870768229166 23:0.0 24:0.0 25:0.10694058736165364 26:0.07995764414469402 27:9.5367431640625E-7 28:0.0 29:0.0 30:0.008337974548339844 31:7.979075113932292E-5 32:0.0 33:0.0 34:0.0 35:0.0 36:0.0 37:3.814697265625E-6 38:1.2715657552083333E-6 39:0.0 40:0.0 41:0.008131027221679688 42:0.17225170135498047 43:0.009893099466959635 44:0.0 45:0.0 46:0.04984569549560547 47:0.034281412760416664 48:0.0 49:0.0 50:0.0 51:0.0 52:0.0 53:0.0 54:0.0 55:0.0 56:0.0 57:0.0 58:3.178914388020833E-7 59:0.0 60:0.0 61:0.0 62:0.0071125030517578125 63:0.036826133728027344 
-129.1549665014884 0:0.22388668772422846 1:4.474255893166193E-4 2:5.680083722530131E-5 3:7.298431598781733E-6 4:0.13702805326712703 5:0.0770047998294071 6:1.726237734668375E-4 7:0.0 8:0.0 9:0.036671128229635315 10:0.014367438586871327 11:0.0 12:0.0 13:0.0 14:0.004610387508639122 15:2.6020495265221833E-4 16:0.001565037593269196 17:0.0 18:6.029139146819692E-6 19:1.7135448101487547E-5 20:0.01282048841104259 21:0.07474863249604456 22:9.526039851975115E-4 23:2.316458724830724E-5 24:0.0 25:0.10159543714749368 26:0.1743569923099917 27:1.8246078996954332E-4 28:0.0 29:0.0 30:0.052246298584548524 31:0.012096039744085256 32:0.0 33:0.0 34:0.0 35:0.0 36:1.9039386779430608E-6 37:2.2403011777130015E-4 38:3.173231129905101E-7 39:1.5866155649525507E-6 40:0.0 41:1.7928755883963823E-4 42:0.017239530082548436 43:3.630176412611436E-4 44:0.0 45:0.0 46:0.03068514502618233 47:0.02299005953616246 48:0.0 49:0.0 50:0.0 51:0.0 52:0.0 53:0.0 54:0.0 55:0.0 56:0.0 57:0.0 58:3.1732311299051014E-6 59:9.519693389715304E-7 60:0.0 61:0.0 62:6.346462259810202E-7 63:0.0031871933468766837 
129.1549665014884 0:0.2703960929497671 1:8.75855238172571E-4 2:0.0 3:0.0 4:0.17953467600122813 5:0.08168375662812227 6:5.7516326601385635E-5 7:0.0 8:2.5374849971199546E-6 9:0.03119457181209416 10:0.003500883467693164 11:4.229141661866591E-7 12:0.0 13:3.256439079637275E-5 14:0.007713531477078475 15:6.034985151483625E-4 16:0.0 17:0.0 18:0.0 19:0.0 20:0.003977084818819342 21:0.04259887521748361 22:3.856977195622331E-4 23:0.0 24:0.0 25:0.11743988063670574 26:0.040365042591685676 27:9.600151572437162E-5 28:0.0 29:3.8062274956799315E-5 30:0.021470083474798122 31:0.0033025367237516207 32:0.0 33:0.0 34:0.0 35:0.0 36:0.0 37:0.0 38:0.0 39:0.0 40:0.0 41:0.0014522872466849873 42:0.012258167106920313 43:3.7470195124137995E-4 44:0.0 45:8.458283323733182E-7 46:0.053713482419035195 47:0.08034058123631344 48:0.0 49:0.0 50:0.0 51:0.0 52:0.0 53:0.0 54:0.0 55:0.0 56:0.0 57:0.0 58:0.0 59:0.0 60:0.0 61:0.0 62:8.415991907114516E-5 63:0.04650660211304834 
129.1549665014884 0:0.17505912189222095 1:0.02558223299532231 2:0.0 3:0.0 4:0.005113593129245162 5:0.038115348263488405 6:3.7545655517108805E-7 7:0.0 8:0.0 9:0.0037896081635268486 10:6.146223808150711E-4 11:0.0 12:0.0 13:0.0 14:4.512987793156478E-4 15:1.3140979430988081E-5 16:8.952135797129309E-4 17:3.297760076252723E-4 18:0.0 19:0.0 20:0.005095320910226836 21:0.17980063757529155 22:0.03866714424740485 23:0.0 24:0.0 25:0.021266234741445598 26:0.09033384595668333 27:7.509131103421761E-7 28:0.0 29:0.0 30:0.0025403390522875818 31:5.519211361014994E-5 32:0.0 33:0.0 34:0.0 35:0.0 36:0.0 37:6.895885396642317E-5 38:7.158704985262079E-5 39:0.0 40:0.0 41:0.0038674528226323207 42:0.2524181905196719 43:0.04134026976803793 44:0.0 45:0.0 46:0.017961340990644625 47:0.03527376790176855 48:0.0 49:0.0 50:0.0 51:0.0 52:0.0 53:0.0 54:0.0 55:0.0 56:0.0 57:0.0 58:1.15140010252467E-5 59:1.15140010252467E-5 60:0.0 61:0.0 62:3.804626425733692E-4 63:0.060871144311482765 
-129.1549665014884 0:0.16569248205818274 1:0.018937778338459568 2:0.0 3:0.0 4:0.004169319892989876 5:0.03545223491765988 6:3.7545655517108805E-7 7:0.0 8:0.0 9:0.004031652489427143 10:7.982206362937332E-4 11:0.0 12:0.0 13:0.0 14:2.3979158656926822E-4 15:6.257609252851467E-7 16:0.0017317307846341152 17:5.558008538382673E-4 18:1.7521305907984109E-6 19:0.0 20:0.0026170573417275407 21:0.18539794389978215 22:0.02734788002210688 23:0.0 24:0.0 25:0.01607379573561451 26:0.07835265182461873 27:2.0024349609124695E-6 28:0.0 29:0.0 30:0.0018826643198128926 31:4.217628636421889E-5 32:0.0 33:0.0 34:0.0 35:0.0 36:0.0 37:1.8985586473151353E-4 38:1.5681568787645776E-4 39:0.0 40:0.0 41:0.0036992482859156735 42:0.2871431660899654 43:0.041080578984044595 44:0.0 45:0.0 46:0.01650844927431757 47:0.051747925477380496 48:0.0 49:0.0 50:0.0 51:0.0 52:0.0 53:0.0 54:0.0 55:0.0 56:0.0 57:0.0 58:3.904748173779316E-5 59:1.6019479687299756E-5 60:0.0 61:0.0 62:4.1600586312956554E-4 63:0.05567495074009996 
129.1549665014884 0:0.32162125905354816 1:0.003958702087402344 2:0.0 3:0.0 4:0.029299418131510418 5:0.02962176005045573 6:1.9073486328125E-6 7:0.0 8:0.0 9:0.009222666422526041 10:0.001437822977701823 11:0.0 12:0.0 13:0.0 14:0.0019028981526692708 15:2.2125244140625E-4 16:0.012261072794596354 17:5.7220458984375E-5 18:0.0 19:0.0 20:0.028440157572428387 21:0.14644845326741537 22:0.005054473876953125 23:0.0 24:0.0 25:0.025659879048665363 26:0.0357659657796224 27:2.3523966471354168E-5 28:0.0 29:0.0 30:0.005888938903808594 31:0.001194000244140625 32:0.0 33:0.0 34:0.0 35:0.0 36:0.0 37:0.0011234283447265625 38:1.33514404296875E-5 39:0.0 40:0.0 41:0.0031957626342773438 42:0.10929330190022786 43:0.010824203491210938 44:0.0 45:0.0 46:0.031055132548014324 47:0.058883984883626304 48:0.0 49:0.0 50:0.0 51:0.0 52:0.0 53:0.0 54:0.0 55:0.0 56:0.0 57:0.0 58:6.326039632161459E-4 59:7.311503092447917E-6 60:0.0 61:0.0 62:9.962717692057292E-4 63:0.12589327494303384 
129.1549665014884 0:0.08572928110758464 1:0.00811163584391276 2:0.0 3:0.0 4:0.010216712951660156 5:0.019346237182617188 6:3.178914388020833E-7 7:0.0 8:0.0 9:4.062652587890625E-4 10:1.220703125E-4 11:0.0 12:0.0 13:0.0 14:0.0 15:0.0 16:0.012181917826334635 17:1.0045369466145833E-4 18:0.0 19:0.0 20:0.02068487803141276 21:0.3356326421101888 22:0.009976387023925781 23:0.0 24:0.0 25:0.01318963368733724 26:0.03922049204508463 27:4.100799560546875E-5 28:0.0 29:0.0 30:3.5572052001953125E-4 31:1.9709269205729168E-5 32:0.0 33:0.0 34:0.0 35:0.0 36:0.0 37:0.0039704640706380205 38:2.86102294921875E-6 39:0.0 40:0.0 41:0.013483683268229166 42:0.11503442128499348 43:0.04126675923665365 44:0.0 45:0.0 46:0.0048465728759765625 47:0.12221558888753255 48:0.0 49:0.0 50:0.0 51:0.0 52:0.0 53:0.0 54:0.0 55:0.0 56:0.0 57:0.0 58:9.218851725260416E-6 59:1.2715657552083333E-6 60:0.0 61:0.0 62:4.76837158203125E-5 63:0.1437861124674479 
-115.47620339426287 0:0.1065365473429362 1:0.003810246785481771 2:0.0 3:0.0 4:0.1268291473388672 5:0.04434076944986979 6:0.0 7:0.0 8:0.0 9:0.010366121927897135 10:7.076263427734375E-4 11:0.0 12:0.0 13:0.0 14:1.1761983235677084E-5 15:0.0 16:4.936854044596354E-4 17:1.5894571940104167E-6 18:0.0 19:0.0 20:0.026134808858235676 21:0.18642584482828775 22:0.008701006571451822 23:0.0 24:0.0 25:0.11617024739583333 26:0.05698172251383463 27:0.0 28:0.0 29:0.0 30:0.0013370513916015625 31:0.0 32:0.0 33:0.0 34:0.0 35:0.0 36:0.0 37:2.86102294921875E-6 38:0.0 39:0.0 40:0.0 41:0.011415799458821615 42:0.15111668904622397 43:0.022537867228190105 44:0.0 45:0.0 46:0.02653789520263672 47:0.05234336853027344 48:0.0 49:0.0 50:0.0 51:0.0 52:0.0 53:0.0 54:0.0 55:0.0 56:0.0 57:0.0 58:0.0 59:0.0 60:0.0 61:0.0 62:0.009416898091634115 63:0.037780443827311196 
-129.1549665014884 0:0.17419560750325522 1:1.529057820638021E-4 2:0.0 3:0.0 4:0.16650899251302084 5:0.1437053680419922 6:3.337860107421875E-5 7:0.0 8:0.0 9:0.023247400919596355 10:9.829203287760417E-4 11:0.0 12:0.0 13:0.0 14:1.7642974853515625E-4 15:3.178914388020833E-7 16:0.0 17:0.0 18:0.0 19:0.0 20:6.9427490234375E-4 21:0.036893208821614586 22:1.1666615804036458E-4 23:0.0 24:0.0 25:0.09928544362386067 26:0.09608236948649089 27:5.53131103515625E-5 28:0.0 29:0.0 30:0.018376986185709637 31:7.279713948567709E-4 32:0.0 33:0.0 34:0.0 35:0.0 36:0.0 37:0.0 38:0.0 39:0.0 40:0.0 41:1.0903676350911458E-4 42:0.018259048461914062 43:1.471837361653646E-4 44:0.0 45:0.0 46:0.07444413503011067 47:0.0846414566040039 48:0.0 49:0.0 50:0.0 51:0.0 52:0.0 53:0.0 54:0.0 55:0.0 56:0.0 57:0.0 58:0.0 59:0.0 60:0.0 61:0.0 62:2.3523966471354168E-5 63:0.06114006042480469 
129.1549665014884 0:0.08994515736897786 1:0.004353841145833333 2:8.392333984375E-5 3:6.357828776041666E-7 4:0.015820821126302082 5:0.03192011515299479 6:0.0 7:0.0 8:0.0 9:7.432301839192709E-4 10:5.91278076171875E-5 11:0.0 12:0.0 13:0.0 14:0.0 15:0.0 16:9.390513102213541E-4 17:5.6584676106770836E-5 18:1.846949259440104E-4 19:6.898244222005208E-5 20:8.576711018880209E-4 21:0.16805076599121094 22:0.014898300170898438 23:2.3396809895833334E-4 24:0.0 25:0.048262596130371094 26:0.10277175903320312 27:0.0 28:0.0 29:0.0 30:0.0012035369873046875 31:6.039937337239583E-6 32:0.0 33:0.0 34:0.0 35:0.0 36:0.0 37:2.7052561442057293E-4 38:2.4827321370442707E-4 39:7.994969685872396E-4 40:0.0 41:4.812876383463542E-4 42:0.36136341094970703 43:0.031252543131510414 44:0.0 45:0.0 46:0.014225959777832031 47:0.05398877461751302 48:0.0 49:0.0 50:0.0 51:0.0 52:0.0 53:0.0 54:0.0 55:0.0 56:0.0 57:0.0 58:7.62939453125E-6 59:1.64031982421875E-4 60:0.0 61:0.0 62:3.0835469563802086E-5 63:0.05670642852783203 
-52.96992132724345 0:0.1607646942138672 1:0.0046329498291015625 2:0.0 3:0.0 4:0.04872258504231771 5:0.05100727081298828 6:2.0345052083333332E-5 7:0.0 8:0.0 9:0.016794840494791668 10:5.753835042317709E-4 11:0.0 12:0.0 13:0.0 14:7.464090983072916E-4 15:2.0662943522135418E-5 16:0.0033884048461914062 17:4.76837158203125E-5 18:0.0 19:0.0 20:0.012476603190104166 21:0.1901089350382487 22:0.007869402567545572 23:0.0 24:0.0 25:0.0796190897623698 26:0.06539758046468098 27:1.0808308919270834E-5 28:0.0 29:0.0 30:0.006018320719401042 31:2.044041951497396E-4 32:0.0 33:0.0 34:0.0 35:0.0 36:0.0 37:6.373723347981771E-4 38:5.086263020833333E-6 39:0.0 40:0.0 41:0.009025255839029947 42:0.1780563990275065 43:0.011990229288736979 44:0.0 45:0.0 46:0.04837640126546224 47:0.046047210693359375 48:0.0 49:0.0 50:0.0 51:0.0 52:0.0 53:0.0 54:0.0 55:0.0 56:0.0 57:0.0 58:1.548131306966146E-4 59:6.67572021484375E-6 60:0.0 61:0.0 62:0.005884806315104167 63:0.05138937632242838 
-129.1549665014884 0:0.2008380889892578 1:0.00274658203125 2:0.0 3:0.0 4:0.10434850056966145 5:0.045052528381347656 6:0.0 7:0.0 8:0.0 9:0.011607805887858072 10:1.5703837076822916E-4 11:0.0 12:0.0 13:0.0 14:2.5431315104166668E-5 15:0.0 16:3.7511189778645836E-5 17:2.5431315104166665E-6 18:0.0 19:0.0 20:0.020038604736328125 21:0.15949503580729166 22:0.00489044189453125 23:0.0 24:0.0 25:0.09596729278564453 26:0.04411443074544271 27:0.0 28:0.0 29:0.0 30:6.256103515625E-4 31:1.5894571940104167E-6 32:0.0 33:0.0 34:0.0 35:0.0 36:0.0 37:6.67572021484375E-6 38:0.0 39:0.0 40:0.0 41:0.009618123372395834 42:0.1240091323852539 43:0.010798454284667969 44:0.0 45:0.0 46:0.025424639383951824 47:0.05584939320882162 48:0.0 49:0.0 50:0.0 51:0.0 52:0.0 53:0.0 54:0.0 55:0.0 56:0.0 57:0.0 58:2.2252400716145835E-6 59:0.0 60:0.0 61:0.0 62:0.004996299743652344 63:0.0793460210164388 
129.1549665014884 0:0.08014170328776042 1:0.0015548070271809895 2:0.0 3:0.0 4:0.03649711608886719 5:0.05538018544514974 6:9.5367431640625E-7 7:0.0 8:0.0 9:0.0033206939697265625 10:1.1920928955078125E-4 11:0.0 12:0.0 13:0.0 14:3.178914388020833E-7 15:0.0 16:9.218851725260416E-6 17:1.9391377766927082E-5 18:0.0 19:0.0 20:0.005396525065104167 21:0.2169497807820638 22:0.0031840006510416665 23:0.0 24:0.0 25:0.237489382425944 26:0.08929761250813802 27:2.2252400716145835E-6 28:0.0 29:1.3669331868489584E-5 30:0.009937604268391928 31:1.8946329752604166E-4 32:0.0 33:0.0 34:0.0 35:0.0 36:0.0 37:1.1761983235677084E-5 38:0.0 39:0.0 40:0.0 41:0.019977251688639324 42:0.09993616739908855 43:3.39508056640625E-4 44:0.0 45:8.265177408854166E-6 46:0.1148989995320638 47:0.014709790547688803 48:0.0 49:0.0 50:0.0 51:0.0 52:0.0 53:0.0 54:0.0 55:0.0 56:0.0 57:0.0 58:3.1789143880208335E-6 59:0.0 60:0.0 61:0.0 62:6.068547566731771E-4 63:0.010004361470540365 
7.736843824474934 0:0.12576071421305338 1:0.0046304066975911455 2:0.0 3:0.0 4:0.03314495086669922 5:0.05536588033040365 6:0.0 7:0.0 8:0.0 9:0.010266304016113281 10:0.0010579427083333333 11:0.0 12:0.0 13:0.0 14:2.342859903971354E-4 15:0.0 16:8.487701416015625E-5 17:8.58306884765625E-6 18:0.0 19:0.0 20:0.010260581970214844 21:0.20028209686279297 22:0.01195367177327474 23:0.0 24:0.0 25:0.06672954559326172 26:0.10616779327392578 27:0.0 28:0.0 29:0.0 30:0.004534403483072917 31:3.24249267578125E-5 32:0.0 33:0.0 34:0.0 35:0.0 36:0.0 37:1.52587890625E-5 38:2.86102294921875E-6 39:0.0 40:0.0 41:0.0042502085367838545 42:0.25922171274820965 43:0.010431289672851562 44:0.0 45:0.0 46:0.03529834747314453 47:0.03246529897054037 48:0.0 49:0.0 50:0.0 51:0.0 52:0.0 53:0.0 54:0.0 55:0.0 56:0.0 57:0.0 58:9.218851725260416E-6 59:3.4968058268229165E-6 60:0.0 61:0.0 62:0.002503077189127604 63:0.025284767150878906 
129.1549665014884 0:0.32347997029622394 1:0.005710283915201823 2:0.0 3:0.0 4:0.012058893839518229 5:0.020487467447916668 6:3.4968058268229165E-6 7:0.0 8:0.0 9:0.0017608006795247395 10:2.155303955078125E-4 11:0.0 12:0.0 13:7.311503092447917E-6 14:4.53948974609375E-4 15:1.5894571940104167E-6 16:0.03056653340657552 17:1.9931793212890625E-4 18:0.0 19:0.0 20:0.04131507873535156 21:0.11950969696044922 22:0.00846703847249349 23:0.0 24:0.0 25:0.007654507954915364 26:0.03740374247233073 27:7.62939453125E-6 28:0.0 29:0.0 30:0.001010894775390625 31:1.4019012451171875E-4 32:0.0 33:0.0 34:0.0 35:0.0 36:6.262461344401042E-5 37:0.0023371378580729165 38:1.9391377766927082E-5 39:0.0 40:0.0 41:0.0058625539143880205 42:0.13722674051920572 43:0.02144940694173177 44:0.0 45:0.0 46:0.011555671691894531 47:0.07921346028645833 48:0.0 49:0.0 50:0.0 51:0.0 52:0.0 53:0.0 54:0.0 55:0.0 56:0.0 57:5.353291829427084E-4 58:0.0025739669799804688 59:2.4159749348958332E-5 60:0.0 61:0.0 62:0.0010077158610026042 63:0.12767791748046875 
129.1549665014884 0:0.11380896098894532 1:0.002337918740091354 2:1.2805749117351885E-4 3:3.161913362309107E-7 4:0.04040893657897416 5:0.04698318684188726 6:0.0 7:0.0 8:0.0 9:0.009341556837606027 10:7.775144957918095E-4 11:0.0 12:0.0 13:0.0 14:1.5177184139083715E-5 15:0.0 16:1.8433954902262096E-4 17:7.999640806642041E-5 18:2.7603503652958507E-4 19:2.292387187674103E-4 20:0.0019610186673041084 21:0.17889568278673337 22:0.009882560213897116 23:5.795787193112594E-4 24:0.0 25:0.07894412329944395 26:0.13415682204941312 27:3.161913362309107E-7 28:0.0 29:3.161913362309107E-7 30:0.012309961102141817 31:5.988663908213449E-4 32:0.0 33:0.0 34:0.0 35:0.0 36:0.0 37:9.846198210230561E-4 38:2.235472747152539E-4 39:5.005308852535317E-4 40:0.0 41:0.0012789939550540339 42:0.2399294640367136 43:0.010411232128075197 44:0.0 45:0.0 46:0.03559334252817739 47:0.041145346201055956 48:0.0 49:0.0 50:0.0 51:0.0 52:0.0 53:0.0 54:0.0 55:0.0 56:0.0 57:0.0 58:1.296384478546734E-5 59:2.029948378602447E-4 60:0.0 61:0.0 62:8.252593875626771E-5 63:0.037733957874460655 
-129.1549665014884 0:0.1071860357521605 1:0.006970002176836555 2:0.0 3:0.0 4:0.01868144630797731 5:0.04069795853348489 6:3.173231129905101E-7 7:0.0 8:0.0 9:0.0038583317308516127 10:1.0788985841677344E-5 11:0.0 12:0.0 13:0.0 14:0.0 15:0.0 16:0.0010627151054052185 17:6.632053061501662E-5 18:0.0 19:0.0 20:0.006826572129764844 21:0.21235738705994425 22:0.01449373318584155 23:0.0 24:0.0 25:0.10060411974251134 26:0.08616369683965219 27:5.394492920838672E-6 28:0.0 29:0.0 30:1.475552475405872E-4 31:2.221261790933571E-6 32:0.0 33:0.0 34:0.0 35:0.0 36:0.0 37:3.144672049735955E-4 38:1.5548832536534996E-5 39:0.0 40:0.0 41:8.101259074647724E-4 42:0.2548088731158147 43:0.039062475209131794 44:0.0 45:0.0 46:0.005826052354505766 47:0.05078407367988825 48:0.0 49:0.0 50:0.0 51:0.0 52:0.0 53:0.0 54:0.0 55:0.0 56:0.0 57:0.0 58:1.1106308954667854E-5 59:7.298431598781733E-6 60:0.0 61:0.0 62:5.9974068355206415E-5 63:0.049165408480523656 
129.1549665014884 0:0.03777154286702474 1:0.0012709299723307292 2:0.0 3:0.0 4:0.03827603658040365 5:0.058760643005371094 6:0.0 7:0.0 8:0.0 9:0.0038398106892903647 10:8.265177408854167E-5 11:0.0 12:0.0 13:0.0 14:0.0 15:0.0 16:3.083546956380208E-4 17:3.5603841145833336E-5 18:2.5431315104166665E-6 19:0.0 20:0.006308555603027344 21:0.26956907908121747 22:0.004995981852213542 23:0.0 24:0.0 25:0.10092671712239583 26:0.07623640696207683 27:0.0 28:0.0 29:0.0 30:5.6902567545572914E-5 31:3.814697265625E-5 32:0.0 33:0.0 34:0.0 35:0.0 36:0.0 37:5.963643391927084E-4 38:1.1030832926432292E-4 39:0.0 40:0.0 41:0.0015726089477539062 42:0.28532950083414715 43:0.01513512929280599 44:0.0 45:0.0 46:0.011287371317545572 47:0.052944183349609375 48:0.0 49:0.0 50:0.0 51:0.0 52:0.0 53:0.0 54:0.0 55:0.0 56:0.0 57:0.0 58:1.049041748046875E-5 59:8.265177408854166E-6 60:0.0 61:0.0 62:8.742014567057292E-5 63:0.0344384511311849 
-129.1549665014884 0:0.06909529368082683 1:0.0015328725179036458 2:0.0 3:0.0 4:0.02939637502034505 5:0.006142616271972656 6:0.0 7:0.0 8:0.0 9:4.8414866129557293E-4 10:3.6875406901041664E-5 11:0.0 12:0.0 13:0.0 14:0.0 15:0.0 16:0.0022694269816080728 17:3.6144256591796875E-4 18:0.0 19:0.0 20:0.010480880737304688 21:0.2837842305501302 22:0.005740165710449219 23:0.0 24:0.0 25:0.03531010945638021 26:0.01305993398030599 27:0.0 28:0.0 29:0.0 30:3.62396240234375E-5 31:0.0 32:0.0 33:0.0 34:0.0 35:0.0 36:0.0016765594482421875 37:0.004468282063802083 38:6.189346313476562E-4 39:0.0 40:0.0 41:0.01058355967203776 42:0.40347830454508465 43:0.0063139597574869795 44:0.0 45:0.0 46:0.004304567972819011 47:0.008102099100748697 48:0.0 49:0.0 50:0.0 51:0.0 52:0.0 53:0.0 54:0.0 55:0.0 56:0.0 57:2.5431315104166665E-6 58:0.00543975830078125 59:6.354649861653646E-4 60:0.0 61:0.0 62:0.0045922597249348955 63:0.09205309549967448 
-129.1549665014884 0:0.055786450703938804 1:0.0021111170450846353 2:0.0 3:0.0 4:0.048044840494791664 5:0.06512673695882161 6:1.9391377766927082E-5 7:0.0 8:0.0 9:0.002457300821940104 10:3.6207834879557293E-4 11:0.0 12:0.0 13:0.0 14:1.9391377766927082E-5 15:0.0 16:1.9073486328125E-6 17:6.357828776041666E-7 18:0.0 19:0.0 20:0.004566510518391927 21:0.2980655034383138 22:0.005902290344238281 23:0.0 24:0.0 25:0.08585707346598308 26:0.10414854685465495 27:4.673004150390625E-5 28:0.0 29:0.0 30:0.01578235626220703 31:8.284250895182291E-4 32:0.0 33:0.0 34:0.0 35:0.0 36:0.0 37:3.178914388020833E-7 38:0.0 39:0.0 40:0.0 41:5.505879720052084E-4 42:0.10001436869303386 43:0.013478279113769531 44:0.0 45:0.0 46:0.06378491719563802 47:0.10611534118652344 48:0.0 49:0.0 50:0.0 51:0.0 52:0.0 53:0.0 54:0.0 55:0.0 56:0.0 57:0.0 58:0.0 59:0.0 60:0.0 61:0.0 62:2.86102294921875E-6 63:0.026926040649414062 
0.8243222259286053 0:0.13717402189910266 1:0.014243047926579048 2:1.1740955180648875E-5 3:0.0 4:0.024540182943121103 5:0.059608194805928355 6:7.882306126684272E-4 7:0.0 8:0.0 9:8.288479711312125E-4 10:1.5866155649525507E-6 11:0.0 12:0.0 13:0.0 14:0.0 15:0.0 16:0.002754999266983609 17:1.8880725222935354E-4 18:0.0 19:0.0 20:0.006142106175044315 21:0.1953726674371272 22:0.02900491914289758 23:2.157797168335469E-5 24:0.0 25:0.030322762031147168 26:0.06949312709869573 27:7.209581127144391E-4 28:0.0 29:0.0 30:6.981108485791223E-6 31:0.0 32:0.0 33:0.0 34:0.0 35:0.0 36:0.0 37:6.603493981332516E-4 38:7.933077824762753E-6 39:0.0 40:0.0 41:4.7535002325978416E-4 42:0.313850963488168 43:0.0479570420662558 44:0.0 45:0.0 46:0.0015152178645296858 47:0.03993701770853365 48:0.0 49:0.0 50:0.0 51:0.0 52:0.0 53:0.0 54:0.0 55:0.0 56:0.0 57:0.0 58:2.18952947963452E-5 59:2.221261790933571E-6 60:0.0 61:0.0 62:5.204099053044366E-5 63:0.024295209499892428 
-129.1549665014884 0:0.1276108423868815 1:0.0059286753336588545 2:0.0 3:0.0 4:0.0039590199788411455 5:0.0035260518391927085 6:0.0 7:0.0 8:0.0 9:8.996327718098958E-5 10:0.0 11:0.0 12:0.0 13:0.0 14:0.0 15:0.0 16:0.008908589680989584 17:0.0030110677083333335 18:0.0 19:0.0 20:0.0045706431070963545 21:0.23513126373291016 22:0.011672655741373697 23:0.0 24:0.0 25:0.0029026667277018228 26:0.0054772694905598955 27:0.0 28:0.0 29:0.0 30:0.0 31:0.0 32:0.0 33:0.0 34:0.0 35:0.0 36:0.0 37:0.005307515462239583 38:0.0026572545369466147 39:0.0 40:0.0 41:0.0029783248901367188 42:0.5124594370524088 43:0.010617574055989584 44:0.0 45:0.0 46:8.376439412434896E-4 47:0.0030679702758789062 48:0.0 49:0.0 50:0.0 51:0.0 52:0.0 53:0.0 54:0.0 55:0.0 56:0.0 57:0.0 58:0.004344940185546875 59:0.0017477671305338542 60:0.0 61:0.0 62:0.001354217529296875 63:0.041838645935058594 
129.1549665014884 0:0.23528766632080078 1:0.0039221445719401045 2:0.0 3:0.0 4:0.0072828928629557295 5:0.021048863728841145 6:0.0 7:0.0 8:0.0 9:0.0010560353597005208 10:3.2647450764973957E-4 11:0.0 12:0.0 13:0.0 14:2.6671091715494793E-4 15:0.0 16:0.013648351033528646 17:4.5140584309895836E-5 18:0.0 19:0.0 20:0.012018521626790365 21:0.15866788228352866 22:0.009202957153320312 23:0.0 24:0.0 25:0.008603413899739584 26:0.05219046274820963 27:0.0 28:0.0 29:0.0 30:7.686614990234375E-4 31:3.4650166829427086E-5 32:0.0 33:0.0 34:0.0 35:0.0 36:0.0 37:0.006220499674479167 38:1.8755594889322918E-5 39:0.0 40:0.0 41:0.0042591094970703125 42:0.26139259338378906 43:0.024256070454915363 44:0.0 45:0.0 46:0.009799003601074219 47:0.07723426818847656 48:0.0 49:0.0 50:0.0 51:0.0 52:0.0 53:0.0 54:0.0 55:0.0 56:0.0 57:0.0 58:2.1648406982421875E-4 59:1.621246337890625E-5 60:0.0 61:0.0 62:4.329681396484375E-4 63:0.09178320566813152 
129.1549665014884 0:0.07196744283040364 1:0.0014524459838867188 2:0.0 3:0.0 4:0.05926958719889323 5:0.05367501576741537 6:1.2715657552083333E-6 7:0.0 8:0.0 9:0.016805013020833332 10:0.0010506312052408855 11:0.0 12:0.0 13:0.0 14:8.742014567057292E-5 15:6.039937337239583E-6 16:8.900960286458334E-6 17:2.2252400716145835E-6 18:0.0 19:0.0 20:0.0077126820882161455 21:0.1524184544881185 22:0.00218963623046875 23:0.0 24:0.0 25:0.13121445973714194 26:0.1643838882446289 27:6.357828776041666E-7 28:0.0 29:0.0 30:0.027352015177408855 31:1.586278279622396E-4 32:0.0 33:0.0 34:0.0 35:0.0 36:0.0 37:2.5113423665364582E-5 38:0.0 39:0.0 40:0.0 41:0.0029325485229492188 42:0.07461929321289062 43:0.010393142700195312 44:0.0 45:0.0 46:0.05433177947998047 47:0.07666333516438802 48:0.0 49:0.0 50:0.0 51:0.0 52:0.0 53:0.0 54:0.0 55:0.0 56:0.0 57:0.0 58:1.9073486328125E-6 59:0.0 60:0.0 61:0.0 62:3.814697265625E-5 63:0.09123833974202473 
-129.1549665014884 0:0.17455785784051467 1:0.011962446713516251 2:0.0 3:0.0 4:0.02529160407468263 5:0.0379388340660324 6:0.0 7:0.0 8:0.0 9:9.113519805087451E-4 10:5.077169807848162E-6 11:0.0 12:0.0 13:0.0 14:0.0 15:0.0 16:0.0014216075461974853 17:8.060007069958957E-5 18:0.0 19:0.0 20:0.00871464465205838 21:0.20521729969454477 22:0.030957090934015198 23:0.0 24:0.0 25:0.050368697724983674 26:0.055648954325145765 27:1.9039386779430608E-6 28:0.0 29:0.0 30:9.837016502705814E-6 31:3.173231129905101E-7 32:0.0 33:0.0 34:0.0 35:0.0 36:0.0 37:1.504111555575018E-4 38:6.124336080716845E-5 39:0.0 40:0.0 41:6.54954905212413E-4 42:0.2606263577462697 43:0.045229649910102365 44:0.0 45:0.0 46:0.0011344301289410738 47:0.042782136739606555 48:0.0 49:0.0 50:0.0 51:0.0 52:0.0 53:0.0 54:0.0 55:0.0 56:0.0 57:0.0 58:3.1732311299051014E-6 59:7.298431598781733E-6 60:0.0 61:0.0 62:1.4914186310553976E-5 63:0.04624730513346293 
-129.1549665014884 0:0.250118891398112 1:0.0028079350789388022 2:0.0 3:0.0 4:0.16616535186767578 5:0.05141576131184896 6:3.4968058268229165E-6 7:0.0 8:0.0 9:0.02766863505045573 10:0.0037854512532552085 11:0.0 12:0.0 13:0.0 14:0.003990491231282552 15:2.3174285888671875E-4 16:3.1789143880208335E-6 17:0.0 18:0.0 19:0.0 20:0.014237403869628906 21:0.10325177510579427 22:0.0024258295694986978 23:0.0 24:0.0 25:0.07934856414794922 26:0.06016667683919271 27:8.58306884765625E-6 28:0.0 29:0.0 30:0.031053543090820312 31:4.558563232421875E-4 32:0.0 33:0.0 34:0.0 35:0.0 36:0.0 37:1.2715657552083333E-6 38:0.0 39:0.0 40:0.0 41:6.055831909179688E-4 42:0.02769629160563151 43:0.004041035970052083 44:0.0 45:0.0 46:0.06770547231038411 47:0.03509934743245443 48:0.0 49:0.0 50:0.0 51:0.0 52:0.0 53:0.0 54:0.0 55:0.0 56:0.0 57:0.0 58:0.0 59:0.0 60:0.0 61:0.0 62:1.0458628336588542E-4 63:0.06760724385579427 
129.1549665014884 0:0.22423732976408295 1:0.00944321851948459 2:0.0 3:0.0 4:0.018875330730014513 5:0.029237199661606633 6:0.0 7:0.0 8:0.0 9:7.977503060581424E-4 10:4.442523581867142E-6 11:0.0 12:0.0 13:0.0 14:0.0 15:0.0 16:0.002763249667921362 17:3.811050587016027E-4 18:0.0 19:0.0 20:0.002317728017282686 21:0.23028233506655219 22:0.01164417163118677 23:0.0 24:0.0 25:0.024908595077303083 26:0.03365814527179042 27:0.0 28:0.0 29:0.0 30:9.837016502705814E-6 31:0.0 32:0.0 33:0.0 34:0.0 35:0.0 36:0.0 37:5.213618746434082E-4 38:9.900481125303917E-5 39:0.0 40:0.0 41:8.066353532218768E-4 42:0.19617454294365422 43:0.018378402735071374 44:0.0 45:0.0 46:0.0029479317196818393 47:0.03868200479665618 48:0.0 49:0.0 50:0.0 51:0.0 52:0.0 53:0.0 54:0.0 55:0.0 56:0.0 57:0.0 58:8.75811791853808E-5 59:6.314729948511151E-5 60:0.0 61:0.0 62:9.07544103152859E-5 63:0.1535881945647628 
129.1549665014884 0:0.24362259873667322 1:0.0015031595862360465 2:0.0 3:0.0 4:0.11401895434418514 5:0.1359869161334052 6:2.259340564492432E-4 7:0.0 8:0.0 9:0.05371137939722571 10:0.021835638051102984 11:5.711816033829183E-6 12:0.0 13:0.0 14:0.00740251357984262 15:0.0024313296917332886 16:1.2692924519620404E-6 17:1.2692924519620404E-6 18:0.0 19:0.0 20:6.473391505006407E-5 21:0.026365425489042516 22:4.6868623788698345E-4 23:0.0 24:0.0 25:0.057285706941950815 26:0.07845274519398279 27:2.3767501162989208E-4 28:0.0 29:0.0 30:0.04414979935659566 31:0.04615845466182558 32:0.0 33:0.0 34:0.0 35:0.0 36:0.0 37:0.0 38:0.0 39:0.0 40:0.0 41:1.2058278293639385E-5 42:0.007447890785000263 43:2.1673168617251842E-4 44:0.0 45:0.0 46:0.01848248471613226 47:0.10089669165268858 48:0.0 49:0.0 50:0.0 51:0.0 52:0.0 53:0.0 54:0.0 55:0.0 56:0.0 57:0.0 58:3.173231129905101E-7 59:0.0 60:0.0 61:0.0 62:1.9991356118402137E-5 63:0.03899393341672585 
129.1549665014884 0:0.11767324731338387 1:0.0065777908091802844 2:0.0 3:0.0 4:0.02123684933688989 5:0.021599866978151035 6:0.0 7:0.0 8:0.0 9:4.699555303389455E-4 10:1.5802691026927404E-4 11:0.0 12:0.0 13:0.0 14:0.0 15:0.0 16:0.0078312171054928 17:1.031300117219158E-4 18:0.0 19:0.0 20:0.029471384118993627 21:0.2977271414708942 22:0.008252304876431207 23:0.0 24:0.0 25:0.017642530436046383 26:0.035845453489634006 27:0.0 28:0.0 29:0.0 30:4.071255539668245E-4 31:7.298431598781733E-6 32:0.0 33:0.0 34:0.0 35:0.0 36:0.0 37:0.0035775007758550113 38:1.1106308954667854E-5 39:0.0 40:0.0 41:0.01916504673217485 42:0.1268578474957812 43:0.023069072991297096 44:0.0 45:0.0 46:0.014734898751714338 47:0.06833680167495831 48:0.0 49:0.0 50:0.0 51:0.0 52:0.0 53:0.0 54:0.0 55:0.0 56:0.0 57:0.0 58:1.3200641500405222E-4 59:2.221261790933571E-6 60:0.0 61:0.0 62:3.3160265307508307E-4 63:0.17877857256640145 
129.1549665014884 0:0.1030111312866211 1:0.0028743743896484375 2:2.86102294921875E-6 3:0.0 4:0.10468800862630208 5:0.08469613393147786 6:6.67572021484375E-6 7:0.0 8:0.0 9:0.03387228647867838 10:0.001262346903483073 11:0.0 12:0.0 13:0.0 14:6.421407063802084E-4 15:0.0 16:8.551279703776042E-5 17:0.0 18:0.0 19:0.0 20:0.010994593302408854 21:0.16586939493815103 22:0.005351702372233073 23:1.5894571940104167E-6 24:0.0 25:0.11561171213785808 26:0.08530553181966145 27:6.357828776041667E-6 28:0.0 29:0.0 30:0.013613700866699219 31:5.1180521647135414E-5 32:0.0 33:0.0 34:0.0 35:0.0 36:0.0 37:1.239776611328125E-5 38:0.0 39:0.0 40:0.0 41:0.0036179224650065103 42:0.11508433024088542 43:0.015154520670572916 44:0.0 45:0.0 46:0.05632209777832031 47:0.05191485087076823 48:0.0 49:0.0 50:0.0 51:0.0 52:0.0 53:0.0 54:0.0 55:0.0 56:0.0 57:0.0 58:0.0 59:0.0 60:0.0 61:0.0 62:0.0038137435913085938 63:0.026132901509602863 
-15.109891491519312 0:0.09183426086879261 1:0.006005022590232414 2:4.188665091474734E-5 3:0.0 4:0.005578540326373168 5:0.026545347694108136 6:0.0 7:0.0 8:0.0 9:1.2692924519620406E-5 10:6.346462259810202E-7 11:0.0 12:0.0 13:0.0 14:0.0 15:0.0 16:0.0063642323541376715 17:6.632053061501662E-5 18:1.719891272408565E-4 19:1.5453635602637845E-4 20:0.0017922409421704012 21:0.16302094142151868 22:0.025891979404460676 23:3.896727827523464E-4 24:0.0 25:0.01870302427966067 26:0.1434998581565685 27:0.0 28:0.0 29:0.0 30:1.56757617817312E-4 31:0.0 32:0.0 33:0.0 34:0.0 35:0.0 36:0.0 37:4.375885728139135E-4 38:9.107173342827641E-5 39:3.852302591704793E-4 40:0.0 41:0.0010075008837448698 42:0.39066536944978075 43:0.023584088403680693 44:0.0 45:0.0 46:0.008205658378821602 47:0.0384773313887773 48:0.0 49:0.0 50:0.0 51:0.0 52:0.0 53:0.0 54:0.0 55:0.0 56:0.0 57:1.5866155649525507E-6 58:1.8848992911636302E-4 59:7.996542447360855E-5 60:0.0 61:0.0 62:1.1994813671041283E-4 63:0.046526232149781584 
129.1549665014884 0:0.22649478912353516 1:0.010613759358723959 2:0.0 3:0.0 4:0.01535638173421224 5:0.03614934285481771 6:6.357828776041666E-7 7:0.0 8:0.0 9:4.685719807942708E-4 10:6.67572021484375E-6 11:0.0 12:0.0 13:0.0 14:0.0 15:0.0 16:0.0012960433959960938 17:2.511342366536458E-4 18:0.0 19:0.0 20:0.001525561014811198 21:0.21217791239420572 22:0.012479782104492188 23:0.0 24:0.0 25:0.012815157572428385 26:0.04169114430745443 27:3.178914388020833E-7 28:0.0 29:0.0 30:7.62939453125E-6 31:0.0 32:0.0 33:0.0 34:0.0 35:0.0 36:0.0 37:2.079010009765625E-4 38:4.5458475748697914E-5 39:0.0 40:0.0 41:5.229314168294271E-4 42:0.199525515238444 43:0.02172692616780599 44:0.0 45:0.0 46:0.0030492146809895835 47:0.05347792307535807 48:0.0 49:0.0 50:0.0 51:0.0 52:0.0 53:0.0 54:0.0 55:0.0 56:0.0 57:0.0 58:4.2597452799479164E-5 59:1.9073486328125E-5 60:0.0 61:0.0 62:4.9908955891927086E-5 63:0.14999771118164062 
-129.1549665014884 0:0.005186398824055989 1:4.8796335856119793E-4 2:5.086263020833333E-6 3:0.0 4:0.010149955749511719 5:0.05714702606201172 6:9.854634602864584E-6 7:0.0 8:0.0 9:0.0011564890543619792 10:1.0395050048828125E-4 11:1.4623006184895834E-5 12:0.0 13:0.0 14:0.0 15:2.1616617838541668E-5 16:5.6584676106770836E-5 17:2.2252400716145832E-5 18:2.3523966471354168E-5 19:0.0 20:9.028116861979167E-5 21:0.19536209106445312 22:0.007435162862141927 23:1.662572224934896E-4 24:0.0 25:0.14077091217041016 26:0.26721986134847003 27:1.125335693359375E-4 28:0.0 29:0.0 30:0.01632849375406901 31:0.0016066233317057292 32:0.0 33:0.0 34:0.0 35:0.0 36:0.0 37:3.4968058268229165E-6 38:4.76837158203125E-5 39:1.1380513509114583E-4 40:0.0 41:3.3696492513020836E-5 42:0.15662606557210287 43:0.008124987284342447 44:0.0 45:0.0 46:0.10829798380533855 47:0.022154490152994793 48:0.0 49:0.0 50:0.0 51:0.0 52:0.0 53:0.0 54:0.0 55:0.0 56:0.0 57:0.0 58:0.0 59:0.0 60:0.0 61:0.0 62:0.0 63:0.0011202494303385417 
-129.1549665014884 0:0.1415606966130835 1:0.0038656301624503944 2:0.0 3:0.0 4:0.057512910290852017 5:0.037121727050081835 6:0.0 7:0.0 8:0.0 9:0.0016948227464823147 10:3.4270896202975095E-5 11:0.0 12:0.0 13:0.0 14:0.0 15:0.0 16:0.007491681374592954 17:6.092603769417795E-4 18:0.0 19:0.0 20:0.015579612878495077 21:0.2354880207351615 22:0.005275179430354241 23:0.0 24:0.0 25:0.1004644975727955 26:0.08244466995540341 27:0.0 28:0.0 29:0.0 30:8.104432305777629E-4 31:6.029139146819692E-6 32:0.0 33:0.0 34:0.0 35:0.0 36:0.0 37:0.002325661095107449 38:7.298431598781734E-5 39:0.0 40:0.0 41:0.0019705765316710678 42:0.15584467922123832 43:0.013799430214618314 44:0.0 45:0.0 46:0.024926682494743543 47:0.029635757491522714 48:0.0 49:0.0 50:0.0 51:0.0 52:0.0 53:0.0 54:0.0 55:0.0 56:0.0 57:0.0 58:7.8378808908656E-5 59:2.379923347428826E-5 60:0.0 61:0.0 62:1.440646932976916E-4 63:0.08121853344680807 
-108.81584503782341 0:0.05530021622396919 1:0.002766422899051267 2:0.0 3:0.0 4:0.01416308250210544 5:0.038836541152682556 6:3.8078773558861215E-6 7:0.0 8:0.0 9:2.944758488551934E-4 10:5.838745279025387E-5 11:0.0 12:0.0 13:0.0 14:0.0 15:0.0 16:1.0376465794789681E-4 17:1.5897887960824558E-4 18:4.569452827063346E-5 19:0.0 20:0.0015736053173199397 21:0.2926090369814702 22:0.0110913947683573 23:9.519693389715304E-6 24:0.0 25:0.11181800123248298 26:0.10681254644817066 27:4.347326647969989E-5 28:0.0 29:0.0 30:0.001130304928472197 31:4.0934681575775805E-4 32:0.0 33:0.0 34:0.0 35:0.0 36:0.0 37:2.598876295392278E-4 38:4.7376340769483165E-4 39:2.652821224600665E-4 40:0.0 41:0.006403897743261485 42:0.27323836487207753 43:0.006814196528358215 44:0.0 45:0.0 46:0.03071021355210858 47:0.029039190039100556 48:0.0 49:0.0 50:0.0 51:0.0 52:0.0 53:0.0 54:0.0 55:0.0 56:0.0 57:0.0 58:2.3228051870905343E-4 59:2.1704900928550894E-4 60:0.0 61:0.0 62:1.40574139054796E-4 63:0.014976698963813108 
129.1549665014884 0:0.2932453155517578 1:6.361007690429688E-4 2:0.0 3:0.0 4:0.1826181411743164 5:0.08025519053141277 6:1.4559427897135416E-4 7:0.0 8:0.0 9:0.026850064595540363 10:0.003276189168294271 11:5.086263020833333E-6 12:0.0 13:0.0 14:0.0013252894083658855 15:1.3033548990885416E-5 16:0.0 17:0.0 18:0.0 19:0.0 20:0.004978497823079427 21:0.038634300231933594 22:1.7261505126953125E-4 23:0.0 24:0.0 25:0.08529218037923177 26:0.051280975341796875 27:1.2175242106119792E-4 28:0.0 29:0.0 30:0.0463714599609375 31:0.005293846130371094 32:0.0 33:0.0 34:0.0 35:0.0 36:0.0 37:0.0 38:0.0 39:0.0 40:0.0 41:0.0012982686360677083 42:0.011876742045084635 43:1.713434855143229E-4 44:0.0 45:0.0 46:0.06639035542805989 47:0.07253678639729817 48:0.0 49:0.0 50:0.0 51:0.0 52:0.0 53:0.0 54:0.0 55:0.0 56:0.0 57:0.0 58:0.0 59:0.0 60:0.0 61:0.0 62:1.1094411214192708E-4 63:0.0270999272664388 
