svm_type epsilon_svr
kernel_type rbf
gamma 4.746463364001757
nr_class 2
total_sv 2433
rho -0.2725815184573553
SV
5.994842503189409 0:0.4910519029486619 1:0.04120459160394745 2:0.2842745451708405 3:0.4900081363876019 4:0.0 5:0.0 6:0.030062577905179945 7:0.26208191698245403 
-2.779105068414653 0:0.6422757666482304 1:0.22589832248564698 2:0.006572478303751195 3:0.09641554982874223 4:0.17674350514070788 5:1.2750747669214115E-4 6:0.16379748552403312 7:0.46309465302517305 
5.994842503189409 0:0.551209115002149 1:0.10765266417498252 2:0.09311360440130362 3:0.5898180807364762 4:0.0 5:0.0 6:2.2288588426666776E-4 7:0.30225959126745816 
5.994842503189409 0:0.5361333478445468 1:0.23421598286111198 2:0.015152686314190615 3:0.055289467192056234 4:0.11834326190020383 5:0.019636151410589737 6:0.021596291361899094 7:0.6061281051745824 
5.994842503189409 0:0.5555354092756726 1:0.20548523772766666 2:0.1498414464510326 3:0.20448540085234992 4:0.03818650690870598 5:0.0010625623057678429 6:0.00829405654180206 7:0.4186174568232771 
5.994842503189409 0:0.5359196601176056 1:0.10868894486777282 2:0.15310864121964496 3:0.8396793447485428 4:0.013693539487167937 5:8.500498446142743E-5 6:0.0049710306309171965 7:0.156126590184637 
-5.994842503189409 0:0.6052336853362068 1:0.4048513873072859 2:0.11798023538222507 3:0.516850094384638 4:0.0 5:0.0 6:3.309517675474763E-4 7:0.23601525948689311 
-5.994842503189409 0:0.4429913766779146 1:0.2998690252710116 2:0.0904800282373818 3:0.22819246500311793 4:0.011306178984470897 5:8.500498446142743E-5 6:0.004532012980088911 7:0.5683690939394695 
-5.994842503189409 0:0.6796864102782809 1:0.10166526461663858 2:0.03792658363402931 3:0.13393842162931283 4:0.037972545354218984 5:7.792123575630848E-4 6:0.023298329023571828 7:0.41340786874075114 
5.994842503189409 0:0.6277638214196953 1:0.07076874766492783 2:0.05093421482316755 3:0.09590615240118905 4:0.014290379612842198 5:8.500498446142743E-5 6:0.0665685841009781 7:0.4734626691635463 
-5.065124634442232 0:0.2993826378089041 1:0.4356163130599123 2:0.004918322578693819 3:0.06326181080284822 4:0.04737559261720026 5:0.03258524404354718 6:0.009337567727232368 7:0.8501942913108949 
5.994842503189409 0:0.22446163072113676 1:0.07404513345060308 2:0.1277600116424956 3:0.19744969573090237 4:0.003076167914955249 5:0.001049532661388073 6:0.003641809187248447 7:0.1554015248769234 
-5.994842503189409 0:0.4348583041642568 1:0.2509225821782127 2:0.02109773674988121 3:0.09822674068226467 4:0.16886071102802896 5:0.013742472487930767 6:0.027671620237592055 7:0.6856004233654127 
-5.994842503189409 0:0.645213572589071 1:0.10353039277878905 2:0.08435459300171913 3:0.515288216312177 4:0.0 5:1.4142168780772523E-5 6:1.6518004625041294E-4 7:0.24372557033970127 
-0.9872130291946368 0:0.16286121973166398 1:0.2752747461184995 2:0.0040645059414042214 3:0.04819306804770869 4:1.5680754976753392E-4 5:0.0026556611694795867 6:2.1341852483834983E-4 7:0.20463147685218902 
-5.994842503189409 0:0.49757579104211264 1:0.6029508316714628 2:0.046263598803468635 3:0.3725012996860843 4:0.03917255070484242 5:0.010606720565030373 6:0.028596363561455902 7:0.4523098055639436 
-5.994842503189409 0:0.5787203316050179 1:0.09790943247610231 2:0.22496636778836587 3:0.08948025904537037 4:0.0056080449544487114 5:4.6752741453785085E-4 6:0.19814892817192015 7:0.37314201619838216 
-5.994842503189409 0:0.566656459074961 1:0.5055513753327927 2:0.018636866537364474 3:0.2156199494562309 4:0.025408098035479294 5:0.08156783302513448 6:0.013865671317007958 7:0.47993266476311935 
5.994842503189409 0:0.5376194396383873 1:0.15857400503211241 2:0.2055834978601432 3:0.2963892363968028 4:0.0 5:1.4142168780772523E-5 6:0.045660484213507005 7:0.3521644736866073 
5.994842503189409 0:0.6600643877190561 1:0.017759426300395516 2:0.144005513362406 3:0.39519083456791804 4:0.0020270042004031487 5:0.0 6:0.007257299474076804 7:0.2411815903110891 
5.994842503189409 0:0.2226862677304647 1:0.042662749243013574 2:0.112997168706822 3:0.3597958559852443 4:2.1005924050861176E-6 5:3.0391394614735044E-5 6:4.25208609509296E-5 7:0.08249318950379707 
-5.994842503189409 0:0.5018153935776444 1:0.055388440568365234 2:0.15109921167917606 3:0.16692468822077172 4:0.0306092479240795 5:4.242650634231757E-5 6:0.02781766819711036 7:0.5010172938794235 
5.994842503189409 0:0.6267534117456995 1:0.19181620192276605 2:0.023630102620874085 3:0.15375471188002413 4:0.05548360941881285 5:3.5418743525594766E-4 6:0.03162277909504662 7:0.46331385086305654 
-5.994842503189409 0:0.5563093901435296 1:0.05452820051125129 2:0.19981192003692771 3:0.2523139851254077 4:5.63056722334208E-4 5:0.0 6:0.007419398298998016 7:0.36955582310875834 
-5.994842503189409 0:0.4977817632901278 1:0.2487936435310467 2:0.20243054024988713 3:0.5917990660239953 4:3.7095305967485255E-4 5:2.5455903805390547E-4 6:0.0036676712310295774 7:0.2606255279235424 
-5.994842503189409 0:0.5506303937453318 1:0.43077485352692896 2:0.04175676065705891 3:0.20212555793079978 4:0.048569272868548785 5:2.833499482047581E-4 6:0.011242228920056621 7:0.4923656751185608 
-5.994842503189409 0:0.6877587092182215 1:0.010324523552122263 2:0.14613040237697142 3:0.427627948180498 4:0.0 5:0.0 6:0.001620988249212129 7:0.1966802698689707 
-5.994842503189409 0:0.5231693560578192 1:0.022659751100908242 2:0.27177250198702163 3:0.6221073002062847 4:2.2401818442111922E-5 5:4.227518634102076E-5 6:6.751586257936746E-4 7:0.18271286344718332 
5.994842503189409 0:0.17445271924629074 1:0.34505861659794024 2:0.0349573116320523 3:0.22125278773881063 4:3.3796324622383098E-6 5:0.0 6:1.7432288531623168E-4 7:0.23603127128757775 
-5.994842503189409 0:0.6930613015469447 1:0.08742051731574337 2:0.05489406753401235 3:0.15847713641897143 4:0.020889404398599116 5:1.7000996892285486E-4 6:0.022531736664048594 7:0.37647490476567 
-5.994842503189409 0:0.23334151481017704 1:0.09915202668371846 2:0.12965150310403561 3:0.3367301040072455 4:2.2056220253404233E-5 5:1.5856379798992195E-5 6:5.48046652256426E-5 7:0.1301957189237954 
5.994842503189409 0:0.6010381585660058 1:0.35762204027411937 2:0.06269116429440226 3:0.3910224437296468 4:0.022650618643782663 5:0.04289319791208306 6:0.022717312891459857 7:0.3401509056665492 
5.994842503189409 0:0.44893856097561313 1:0.5301042769691992 2:0.05316980259562399 3:0.28104746905414674 4:0.0411594464026306 5:1.4167497410237904E-5 6:0.01406882717962027 7:0.5476771507914057 
-5.994842503189409 0:0.588009670369593 1:0.15936800541518412 2:0.05180978928439135 3:0.08939901106857423 4:0.02488710712717199 5:0.0012184047772804598 6:0.033115439107862785 7:0.514883157755184 
-0.4387982267417026 0:0.45151653676394166 1:0.08592915039278591 2:0.08330305876744676 3:0.061090024996129554 4:0.17257688539543473 5:0.03044595193460126 6:0.1082651297531076 7:0.6377287801901439 
5.994842503189409 0:0.5161773248216208 1:0.5339017124880041 2:0.08397625913626951 3:0.15834693630812957 4:0.0053282348571478825 5:0.002729438574689097 6:0.00695778807062964 7:0.5097774207726395 
-5.994842503189409 0:0.5828433783597113 1:0.026079646333847333 2:0.3472019144742103 3:0.3674406882855425 4:0.0 5:0.0 6:0.06679341706950372 7:0.1675225555238244 
0.8794118773836666 0:0.6371377015088636 1:0.2690771900171575 2:0.06458493839976134 3:0.4951063963175648 4:0.0 5:2.8284337561545047E-5 6:2.0226128112295463E-5 7:0.26454618190015927 
-5.994842503189409 0:0.6314856876351953 1:0.005462236832179928 2:0.18602116390211748 3:0.4425819043922721 4:1.1241001808328863E-5 5:0.0 6:0.0011697444091610877 7:0.2185109864151073 
5.994842503189409 0:0.5572529569819717 1:0.061857720640298035 2:0.2043364168293844 3:0.10899638573115651 4:0.006058899974689258 5:1.9799036293081533E-4 6:0.19814863507345457 7:0.40602727580314896 
-5.994842503189409 0:0.5675419149167673 1:0.03965291204807627 2:0.03720915025550697 3:0.031060225033115427 4:0.06202632853233635 5:0.006120358881222775 6:0.0432601239008487 7:0.5810131073622804 
-5.994842503189409 0:0.6380769008357268 1:4.241134765578046E-4 2:0.2371068587073577 3:0.30646317511394167 4:0.0 5:0.0 6:0.004291116115275441 7:0.23322655277519846 
-5.994842503189409 0:0.07204824555246968 1:0.07253020877805313 2:0.007795447189195669 3:0.005987318837717725 4:0.0820067816962126 5:0.3415424757293499 6:0.08500977123063701 7:0.3182077240955503 
5.994842503189409 0:0.6586614983851184 1:0.002862205970706408 2:0.19862111768418567 3:0.22610831746350518 4:0.0 5:0.0 6:0.013187414819111176 7:0.27708761033601004 
-5.994842503189409 0:0.6093002869409644 1:0.024432196687304477 2:0.29035752977310963 3:0.34698613606519735 4:0.0 5:0.0 6:0.0010266258911676817 7:0.20185394888128042 
-4.370826336658156 0:0.5411038419994734 1:0.21145618838612504 2:0.14438241627617784 3:0.21782923991784248 4:0.005664350626682132 5:2.97517445614996E-4 6:0.10473272619336617 7:0.42104735012292716 
5.994842503189409 0:0.39604825327028764 1:0.06363102583768063 2:0.43932226425223453 3:0.5092036896447265 4:2.2482003616657727E-5 5:0.0 6:0.016244951895525307 7:0.23177801777895507 
5.994842503189409 0:0.6288687241986323 1:0.05125486943402479 2:0.165953914230543 3:0.3529774896799492 4:2.81528361167104E-4 5:0.0 6:0.005643065342569724 7:0.2739119452653445 
-5.994842503189409 0:0.6475630675616313 1:0.08716830085083144 2:0.05678543488312193 3:0.13183601611738635 4:0.03979684913458182 5:5.95034891229992E-4 6:0.03394957264443653 7:0.4332883223599522 
-1.8635865218352026 0:0.5993255630307839 1:0.07379311154975396 2:0.16881693795550412 3:0.8961802399576289 4:0.0 5:0.0 6:0.0 7:0.05449439291606356 
-5.994842503189409 0:0.7237116343963169 1:0.21998838040195842 2:0.06514901893350541 3:0.5000135666192304 4:0.015299003461135585 5:9.475253083117591E-4 6:0.005174517775395589 7:0.17252270757723925 
5.994842503189409 0:0.5918678120817075 1:0.14675718216958789 2:0.09450893588767292 3:0.651053494079509 4:2.2522268893368318E-5 5:0.0 6:3.377058852525269E-5 7:0.22718287601923337 
5.994842503189409 0:0.4540937283771255 1:0.05912840951257966 2:0.30117771836385826 3:0.42744445555874494 4:0.07501041654936319 5:3.683549326661855E-4 6:0.0545530087036932 7:0.30929846225512975 
-5.994842503189409 0:0.5544567763640844 1:0.11799902220299995 2:0.08428880484961924 3:0.1765926965486584 4:0.004639587392033874 5:1.4167497410237904E-5 6:0.013964138355191986 7:0.49140236925036673 
-5.994842503189409 0:0.38930635418152865 1:0.1906812278306624 2:0.13473528309444582 3:0.3929213686093209 4:9.23413024628101E-4 5:8.500498446142743E-5 6:0.007554480653099027 7:0.5236402569559426 
5.994842503189409 0:0.5324477246642748 1:0.2635169565239234 2:0.11732236847818696 3:0.22105177203121654 4:0.0013738584024954674 5:1.8417746633309274E-4 6:0.07208332120715187 7:0.45034707174347605 
5.994842503189409 0:0.40683972624274195 1:0.11275730610613474 2:0.1120794644496909 3:0.18036570652729153 4:0.012308419950225786 5:1.2750747669214115E-4 6:0.016145718373923312 7:0.6241930017494539 
-5.994842503189409 0:0.551910523124846 1:0.020322171658692177 2:0.2950970990986394 3:0.45460245760596046 4:0.0 5:0.0 6:1.3927517852946607E-4 7:0.21038343373787 
-5.963019272346364 0:0.4113028590790225 1:0.25239750020128465 2:0.008480714035015598 3:0.05677840483424125 4:0.01835564914809518 5:0.015385902187518365 6:0.012974660111402084 7:0.7466376626745092 
0.08925344507717586 0:0.6075603329906466 1:0.020369318415571085 2:0.14137562715708055 3:0.24773214697327614 4:6.981903356944179E-4 5:0.0 6:0.021687471950917275 7:0.3642131357698325 
-5.994842503189409 0:0.5472133107644337 1:0.10864994503094756 2:0.288585633327052 3:0.4854567185767625 4:0.0 5:0.0 6:0.0024620257365854004 7:0.19945977308615706 
-5.994842503189409 0:0.6014884648449346 1:0.13209024643829662 2:0.11974561700211583 3:0.14996435682769294 4:0.03175639913964933 5:0.012580737700291259 6:0.014956993657834415 7:0.4231037336343051 
-5.994842503189409 0:0.48341678165191326 1:0.06280199715368812 2:0.3033864221522555 3:0.3990624375970454 4:0.001970698528169728 5:0.0 6:0.01500427248176977 7:0.2966814846187751 
5.994842503189409 0:0.16832606583742393 1:0.12223518594645678 2:0.03441706684358535 3:0.19189603356840496 4:5.070157211693364E-6 5:1.3714212803198384E-4 6:1.634505460328818E-5 7:0.23134497212271946 
5.994842503189409 0:0.48813359514751675 1:0.27343016018828775 2:0.14868543513648483 3:0.6585036596821282 4:0.00898638528845396 5:0.036622980805464986 6:0.009952192438391969 7:0.2788470161315458 
5.994842503189409 0:0.5153859411187915 1:0.05996400583074749 2:0.31798443712656693 3:0.4457275964779452 4:0.0 5:0.0 6:0.08076967159509989 7:0.2221758823858366 
5.994842503189409 0:0.5705488345092679 1:0.038682426954828215 2:0.21729283531874824 3:0.41249026333518113 4:0.0 5:0.0 6:0.009185600078868731 7:0.26868280822953483 
5.994842503189409 0:0.6171081009272656 1:0.02288879161139655 2:0.11125523584369534 3:0.24604631656105283 4:0.0 5:0.0 6:0.008902867390762053 7:0.3800283950066044 
-5.994842503189409 0:0.6373469519700632 1:0.003015992892090939 2:0.20342272139061834 3:0.3536675119024393 4:0.0 5:0.0 6:0.011307368119714873 7:0.23801119414902133 
-2.3099189332459225 0:0.2032359294691584 1:0.0477306493123529 2:0.050884281522614976 3:0.026993103241835167 4:0.0300337863410273 5:0.17452660821909025 6:0.056532884318343246 7:0.1859531669878223 
-5.994842503189409 0:0.604986466574978 1:0.0487385460781805 2:0.17457274956194035 3:0.610789860654768 4:0.0 5:0.0 6:3.3710213520492435E-6 7:0.17587745544667316 
-5.994842503189409 0:0.5204702335035354 1:0.3246355855320369 2:0.12241820129977068 3:0.2564338965780018 4:0.17169851690859336 5:1.2750747669214115E-4 6:0.01023586538200409 7:0.4396030502057732 
-5.994842503189409 0:0.2559493279430276 1:0.09233051601654155 2:0.0666621029307142 3:0.08852567805895827 4:1.244646685180357E-4 5:2.328991269369189E-4 6:0.017235754949510032 7:0.19478719626642985 
-5.994842503189409 0:0.5668689343285656 1:0.15507665311505228 2:0.03292697083243047 3:0.09461477724445534 4:0.009330031500912958 5:0.0012445108527079822 6:0.008912980454818201 7:0.5537129924983193 
-5.994842503189409 0:0.6273713417597536 1:0.060104377572456236 2:0.282575055668742 3:0.4027496351058039 4:0.0 5:0.0 6:0.04906866512719216 7:0.15479434981510962 
5.994842503189409 0:0.5909863992190211 1:0.12552165241732954 2:0.014836404148787676 3:0.12510065013084984 4:0.056136755216720534 5:0.001048394808357605 6:0.05583291400880027 7:0.5232530213068542 
-5.994842503189409 0:0.4888154354358671 1:0.40518584827162574 2:0.09773395970089822 3:0.2545852768812362 4:0.03861443001767998 5:0.0 6:0.007564611829656602 7:0.4926401923348855 
5.994842503189409 0:0.45424665774274453 1:0.17463774192815537 2:0.13621527326734306 3:0.5837316233720651 4:3.372300542498659E-5 5:1.4142168780772523E-5 6:9.068047437012466E-4 7:0.36871608554489704 
5.994842503189409 0:0.6131652248376667 1:0.1875504538857774 2:0.16286594602232565 3:0.07674988784961927 4:0.010743122262136688 5:0.001940947145202593 6:0.19693318698501106 7:0.38451909107433685 
0.38396405871861355 0:0.546189240606315 1:0.3342625755135363 2:0.07105607870198584 3:0.25923598841737727 4:0.0034959515623902773 5:4.6669156976549334E-4 6:0.01975081410165652 7:0.45587060834988996 
5.994842503189409 0:0.5884539055890874 1:0.004644170124975441 2:0.19668810651663135 3:0.3520490717877958 4:0.0 5:0.0 6:0.009891405379046514 7:0.29598021791161827 
5.994842503189409 0:0.5274907458473295 1:0.010667215976349214 2:0.20269626848639904 3:0.7841091109232141 4:0.0 5:0.0 6:6.06783843368864E-5 7:0.15980912657353447 
-5.994842503189409 0:0.5140935825694629 1:0.022664391879629 2:0.34470354285647065 3:0.29631360127423306 4:1.1241001808328863E-5 5:0.0 6:8.764655515328035E-4 7:0.2832094580732932 
-5.994842503189409 0:0.6460707822611933 1:0.06625626612965578 2:0.05675538807740865 3:0.13496634547057607 4:0.033051429601018006 5:1.4167497410237905E-4 6:0.06320165642501041 7:0.43171483958820006 
-5.994842503189409 0:0.30923174530564035 1:0.36688391442063983 2:0.06518487388725369 3:0.4691777585128391 4:3.0458589873748702E-5 5:1.3610059327468302E-4 6:1.0205006628223106E-4 7:0.11173102205296821 
5.994842503189409 0:0.13321896601716438 1:0.0047790752670136254 2:0.1581415920187403 3:0.3657197245655135 4:0.006794366134251047 5:1.7970563772191158E-4 6:0.00876370692665678 7:0.22594204130616719 
-4.8899305374435 0:0.49811653682761314 1:0.1736566164491075 2:0.291824727595951 3:0.23593475816275686 4:0.006565241382416865 5:4.108574248968992E-4 6:0.006446805349470739 7:0.3569974923322549 
5.994842503189409 0:0.6458617995851206 1:0.00515956898805633 2:0.17132069544048856 3:0.5432684674239956 4:2.2522268893368318E-5 5:0.0 6:4.39017650828285E-4 7:0.16909752865598005 
5.994842503189409 0:0.648794759968343 1:0.013091827712276651 2:0.20017000855868886 3:0.3531857458474823 4:0.0 5:1.4142168780772523E-5 6:0.036224995449121174 7:0.22481940709928777 
1.937117128749676 0:0.5370645558289241 1:0.19949235520269418 2:0.03991125422193276 3:0.04599981087882834 4:0.22524521120257654 5:0.02122291112053638 6:0.02335573902406476 7:0.5882595300029005 
5.994842503189409 0:0.43999470613303865 1:0.09559977786827244 2:0.3323116617280443 3:0.2936408565212553 4:1.1241001808328863E-5 5:0.0 6:0.14708103261126054 7:0.34927058845765263 
-5.994842503189409 0:0.6321999002134824 1:0.2128872426761688 2:0.04321640285039348 3:0.08991662458366859 4:0.09520163061226788 5:0.008826350886578214 6:0.021109994887135455 7:0.4691481735803094 
-5.994842503189409 0:0.6090517991769996 1:0.02714144018660111 2:0.42961660618795333 3:0.326461032117316 4:0.0 5:0.0 6:0.04379968042717582 7:0.09611375774363477 
-5.994842503189409 0:0.09653755574734689 1:0.2874215944309453 2:0.0324908362043238 3:0.6106145845796523 4:0.0 5:0.0 6:0.0 7:0.06297528782285046 
5.886954198498918 0:0.6246098689875561 1:0.14572638444342612 2:0.07209507309945123 3:0.6012740454647287 4:0.0 5:0.0 6:4.727882393535377E-5 7:0.23289283411878756 
5.994842503189409 0:0.27317558677325776 1:0.2536710025968951 2:0.039443366738643175 3:0.08178640643617967 4:0.0 5:5.048774564600506E-4 6:2.925075085809554E-5 7:0.20680151153296913 
-5.994842503189409 0:0.5857478583096105 1:0.1789779611303912 2:0.23225156272085554 3:0.21680650718880717 4:0.004721220759498123 5:5.65686751230901E-4 6:0.0047261719355730395 7:0.31962923203505067 
5.994842503189409 0:0.557806380494836 1:0.10340884800450796 2:0.18736727110220672 3:0.08591721574834514 4:0.011767885496784945 5:8.500498446142743E-5 6:0.21280874065073235 7:0.4241797579352627 
-2.4177919779383985 0:0.45959847809511223 1:0.3583937564248322 2:0.15560448922574022 3:0.27635595284771913 4:0.005553054893314459 5:0.0012020843463656646 6:0.004577846996082873 7:0.4731558637088344 
5.228111388037296 0:0.22067413329133487 1:0.45837011566395985 2:0.04448748307268055 3:0.1748006987185337 4:6.406806835512658E-5 5:7.928189899496098E-5 6:0.012627435825064585 7:0.11580011554925333 
2.1008456831881595 0:0.18313593925784846 1:0.26681723821554415 2:0.02883114225746947 3:0.03817078873808816 4:0.035359271954814614 5:0.19512993117138122 6:0.006463800803222055 7:0.3789107765418008 
5.994842503189409 0:0.5527179604613571 1:0.007131551909962927 2:0.24003187500811293 3:0.4230516399716043 4:0.0 5:0.0 6:0.008434295422827209 7:0.2673300413635942 
5.994842503189409 0:0.22877398420074138 1:0.027483089118751407 2:0.060982824225209606 3:0.23132729348201295 4:0.0018322999624499415 5:0.0015367963204590644 6:0.0012423059520582543 7:0.23372909358888325 
3.7513702188334626 0:0.5698038681217662 1:0.09699377704913945 2:0.061709948198445705 3:0.1507056305036305 4:0.27711399646400375 5:0.004576101663506843 6:0.16252095727777857 7:0.4778308203845193 
-5.994842503189409 0:0.6125798380921192 1:0.023132733596345215 2:0.17679290403890177 3:0.6399334760418293 4:0.0 5:0.0 6:0.0 7:0.1547348710849059 
-5.994842503189409 0:0.6022231184620145 1:0.01813385453822999 2:0.2822081137011159 3:0.44865871609086094 4:0.0 5:0.0 6:5.840572002848577E-5 7:0.1700647727751143 
5.994842503189409 0:0.46451423978798617 1:0.15338060585684019 2:0.2445695364000401 3:0.5470816449417188 4:6.30623529014313E-4 5:0.0 6:0.002829975318416175 7:0.290380066698594 
2.325906371915068 0:0.22602867159314877 1:0.04195141718080308 2:0.17136187273273237 3:0.4150384954483353 4:0.016021218273591816 5:3.3826943571183357E-4 6:0.01271751705641248 7:0.08730552140048764 
-0.39878725734546727 0:0.21253878119820727 1:0.07735370822446799 2:0.02209979163406012 3:0.006879245758969138 4:0.07728461165918041 5:0.41356086773246453 6:0.04569026077679155 7:0.2510367886189792 
-0.0337559126567299 0:0.1805081999948469 1:0.06781744202798502 2:0.01847452760660801 3:0.026635531414387244 4:0.10008612555295643 5:0.11074008005192391 6:0.31531614711463235 7:0.2783267119702781 
-5.994842503189409 0:0.5221577784150132 1:0.25447006158686525 2:0.030706916071764866 3:0.10810065210953206 4:0.010878255875496899 5:0.011064815477395802 6:0.006477198879143466 7:0.5891654368167721 
-5.994842503189409 0:0.3386160044088002 1:0.2829566152141358 2:0.03311487384984412 3:0.2488203099475434 4:3.983260787934655E-4 5:0.0012695273951618357 6:1.0352549600485452E-4 7:0.09088387908826091 
-5.994842503189409 0:0.5226572979822118 1:0.002072658776199514 2:0.2566884147043961 3:0.5149521781626254 4:0.0 5:0.0 6:0.00457591474517174 7:0.2450635133110264 
-5.994842503189409 0:0.6630238647153001 1:0.09181785655181648 2:0.027783941726499364 3:0.15421663857956158 4:0.07821983986666818 5:1.8417746633309274E-4 6:0.04970692925031943 7:0.4258730300377747 
-5.994842503189409 0:0.5378757978606193 1:0.1370699429317537 2:0.06939119921619642 3:0.07585271051446607 4:0.12046981637986044 5:0.013265354316364627 6:0.03146848432137969 7:0.5583760089985188 
-5.994842503189409 0:0.5586450558121341 1:0.017600420268168437 2:0.236921833640597 3:0.2671568037178578 4:0.0 5:0.0 6:0.026850994936428417 7:0.3314628159271171 
-5.994842503189409 0:0.46562974558304454 1:0.23738756936022778 2:0.16972018362706356 3:0.2422426900356764 4:6.857011103080607E-4 5:1.2727951902695274E-4 6:0.02949643683043088 7:0.4774842358052265 
-5.994842503189409 0:0.5873901720052493 1:0.14140580674015227 2:0.06482532752766466 3:0.09301865407977203 4:0.010551682976543056 5:0.0010200598135371292 6:0.024588365505236486 7:0.5065694454523075 
-5.994842503189409 0:0.20822870654278164 1:0.24851248982731947 2:0.03052808564648378 3:0.11644084224740442 4:1.0622028767825747E-4 5:0.0011358929325132215 6:1.0352549600485452E-4 7:0.21761415878996243 
-5.994842503189409 0:0.645536366900054 1:8.609231512965726E-4 2:0.2148796023967238 3:0.3464447871860951 4:0.0 5:0.0 6:0.0073045782980121566 7:0.22423098407339012 
5.994842503189409 0:0.4329110000808591 1:0.18340027779546875 2:0.07294511705659522 3:0.16901148859046794 4:0.24602056557708554 5:0.008259026567971154 6:0.03427654510763671 7:0.6161250041915334 
5.994842503189409 0:0.5754730623306549 1:0.06022500283828368 2:0.20934361022828765 3:0.473841614802406 4:0.0 5:0.0 6:0.02698945434938195 7:0.2379514377323349 
-5.994842503189409 0:0.6542326853724527 1:0.06451220527218247 2:0.07135443099921802 3:0.11848996051346883 4:0.042738288875266345 5:7.636771141617164E-4 6:0.05009337729145177 7:0.4204149092090267 
-5.994842503189409 0:0.29755479777166616 1:0.21476470913698037 2:0.027317460479909253 3:0.3332448343491105 4:2.0375746329335338E-4 5:2.4048842695138168E-4 6:6.636404001748791E-4 7:0.14134216130536506 
5.994842503189409 0:0.5184392198786621 1:0.21994382072707416 2:0.13095518408093837 3:0.23944850493453498 4:0.001204941385795205 5:8.500498446142743E-5 6:0.07068859590105893 7:0.44955513116789686 
5.994842503189409 0:0.6805777001127319 1:0.02897495019006768 2:0.13747761393940652 3:0.47880839430358363 4:2.2482003616657727E-5 5:2.8284337561545047E-5 6:6.404940568893563E-5 7:0.1865819244528296 
-5.994842503189409 0:0.4866065017338052 1:0.3367692847123055 2:0.14702646603441938 3:0.1794327327074312 4:0.009745948567821124 5:7.919614517232613E-4 6:0.005808269789580847 7:0.4967798487364232 
-5.994842503189409 0:0.47199712101861546 1:0.4136150849849103 2:0.13159037541896304 3:0.21627301173235894 4:0.003561889132295796 5:0.0014514480643750462 6:0.0025998645590263885 7:0.502447132467628 
5.994842503189409 0:0.2096469797862013 1:0.28281888563368124 2:0.017130098928445203 3:0.4334285845720691 4:1.0502962025430588E-6 5:1.9424065253765443E-4 6:5.984417467167871E-6 7:0.11186447056789042 
5.994842503189409 0:0.2521826892668913 1:0.27571476988369686 2:0.01722100439832661 3:0.2319924463316718 4:5.146451392460988E-5 5:6.871097912896619E-5 6:7.527767235016428E-5 7:0.2263250850958015 
-5.994842503189409 0:0.6262317139325344 1:0.10230440400035169 2:0.03583051223653479 3:0.12088021263998112 4:0.024224358896948704 5:0.0010323783209963942 6:0.02557931001934966 7:0.47788821720088975 
-1.7672571703395352 0:0.6090134095338475 1:0.23159512481267938 2:0.056393244998022285 3:0.18913227193373094 4:0.08307338881318904 5:1.1333997928190323E-4 6:0.03465537794461431 7:0.4357593932420509 
4.096779316499833 0:0.4711816889561273 1:0.2819232754958654 2:0.053587822190898214 3:0.7164206865571396 4:1.1261134446684159E-5 5:0.0 6:2.0262353115151614E-5 7:0.3474638421574383 
1.387861158753691 0:0.18173790753278926 1:0.22683025095998144 2:0.03442863796160049 3:0.16002623416197398 4:0.0025144091088880826 5:0.013784479505257219 6:0.0012381444770229947 7:0.327875486841139 
5.994842503189409 0:0.6344281320851806 1:0.022500196953945426 2:0.10927095627956387 3:0.2201453877803211 4:2.922660470165505E-4 5:1.4142168780772523E-5 6:0.00789493200649933 7:0.37516401059592525 
-1.4452733812773826 0:0.46413269275361096 1:0.6174000157931276 2:0.015661078988353925 3:0.27022626087904 4:0.010529442127772346 5:0.03034809761281159 6:0.008320200508374322 7:0.5604119361096528 
5.994842503189409 0:0.6473909411173611 1:0.0244650944870756 2:0.18952009837471606 3:0.3059230434329937 4:0.0 5:0.0 6:0.0020329894292202117 7:0.2595946246284816 
-5.994842503189409 0:0.6666687107880457 1:0.032870482328596906 2:0.31902235813589214 3:0.4708610008221889 4:0.0 5:0.0 6:0.002056628841187889 7:0.06117150099309247 
-5.994842503189409 0:0.6373256610470671 1:0.04142391026908826 2:0.19749989740783225 3:0.3165683541905164 4:0.0 5:0.0 6:9.118058901818226E-4 7:0.257977052728047 
5.994842503189409 0:0.6179926346406159 1:0.004433281964562866 2:0.1709625289070727 3:0.29422588963799984 4:2.2482003616657727E-5 5:0.0 6:0.0044969424836336916 7:0.31196853241389666 
-5.994842503189409 0:0.47169924455165485 1:0.3521436291073223 2:0.06789537307984254 3:0.2540192797395105 4:0.046609835474825737 5:5.6669989640951614E-5 6:0.009965700673802069 7:0.5380303662486492 
5.994842503189409 0:0.6492749913251044 1:0.10295023737470708 2:0.030113934887098532 3:0.12346274200579732 4:0.06858135203261441 5:0.001541496397104205 6:0.050986697949744815 7:0.45194580245759314 
-5.994842503189409 0:0.6075879052468627 1:0.29962848443656087 2:0.04557866483717597 3:0.6643999790852768 4:2.2401818442111922E-5 5:7.045864390170128E-5 6:3.3589981382769876E-6 7:0.23143888578890764 
5.994842503189409 0:0.48514389001398667 1:0.514400828480985 2:0.050598687852263596 3:0.20014946615925386 4:0.023392524763132368 5:3.5355421951931306E-4 6:0.005049789985369767 7:0.5511055894512841 
5.994842503189409 0:0.6190104663665493 1:0.03702108806638662 2:0.20886707843241392 3:0.5430931908897837 4:0.0 5:0.0 6:8.712811839515194E-4 7:0.16556665494479736 
-5.994842503189409 0:0.6317403735786654 1:0.012830239301355946 2:0.130342123816999 3:0.32173262165945604 4:0.0028265447461177243 5:0.0 6:0.02159966842075162 7:0.31405634473624866 
0.17050891305599714 0:0.33574954432130755 1:0.24349864536319651 2:0.0014924595904376415 3:0.014767723438954824 4:0.13168770621952455 5:0.09847827449856368 6:0.027830342003660743 7:0.843661197497543 
5.994842503189409 0:0.3226420254510737 1:0.22399208205612214 2:0.056649985969204494 3:0.3995026764850955 4:1.575444303814588E-5 5:6.791816013901658E-4 6:6.236392939469675E-5 7:0.08672928760959969 
5.994842503189409 0:0.5635304669638563 1:0.0898056077991496 2:0.1877447011529209 3:0.39593119534523996 4:0.0 5:0.0 6:0.008989730665422267 7:0.3031334710727585 
5.994842503189409 0:0.6206987954531717 1:0.031011756641528596 2:0.1838264922605208 3:0.5374560419379183 4:0.0 5:0.0 6:5.741000049292957E-4 7:0.18659467371527094 
5.994842503189409 0:0.5381467175286636 1:0.028681495824407554 2:0.2722885053759537 3:0.3112096393164354 4:0.0 5:0.0 6:0.0013069217759272792 7:0.3075361449133603 
5.994842503189409 0:0.5768802646278886 1:0.13893298879068972 2:0.040421522782116165 3:0.13550221695798415 4:0.09307327620184458 5:1.7000996892285486E-4 6:0.1332722505560572 7:0.5013964596652916 
-5.994842503189409 0:0.47589620745688965 1:0.38660791782145953 2:0.09563462509301746 3:0.3612668574974675 4:1.573740253166041E-4 5:5.6568675123090094E-5 6:0.04814155592861525 7:0.4572257936278395 
4.731747798287413 0:0.609532030533761 1:0.18585225535234345 2:0.11553951168860604 3:0.3399723810611962 4:0.007879942267638534 5:0.00431336147813562 6:0.019154143322343806 7:0.3278475339320277 
5.994842503189409 0:0.6009876622922931 1:0.005899227555369958 2:0.23631859922364953 3:0.4485117771828383 4:0.0 5:0.0 6:1.0872469345879687E-4 7:0.2085731631243843 
5.994842503189409 0:0.6516670481816214 1:0.11146880894843252 2:0.04697225356455339 3:0.13998272336377449 4:0.030765419308341122 5:3.683549326661855E-4 6:0.02534144962934962 7:0.43252300163565294 
-5.994842503189409 0:0.4580028414736481 1:0.25251264250048355 2:0.1467218500262749 3:0.16568538388843362 4:0.005923356718955868 5:5.666998964095162E-4 6:0.017719427799200087 7:0.5386996059472348 
-5.994842503189409 0:0.486143982358866 1:0.4801896623072953 2:0.06749129813152356 3:0.2835069298708649 4:0.0017588218310136212 5:0.0011593262624941237 6:0.04074888806882615 7:0.49771003126984287 
-0.002793850010441964 0:0.5261198233338056 1:0.15233335923079283 2:0.1426929423759838 3:0.48507939676150935 4:0.08115899595725275 5:0.0 6:0.014872567186521284 7:0.3292841474739219 
-5.994842503189409 0:0.5781447470487797 1:0.03196030986826257 2:0.22603065727494676 3:0.17614263753112483 4:2.2522268893368318E-5 5:0.0 6:0.02109648665172536 7:0.36045724112829886 
-5.994842503189409 0:0.3218002447591226 1:0.4119353801913339 2:0.07948447875714859 3:0.369295552435349 4:0.005979662391189289 5:0.010554785570627239 6:0.007372119475062662 7:0.6323561455185281 
5.994842503189409 0:0.598152583779216 1:0.012325806371532098 2:0.15612386452981963 3:0.4006947003218932 4:0.0 5:0.0 6:0.002559810610214154 7:0.2958550214235672 
5.994842503189409 0:0.6949619403928414 1:0.013819758549473829 2:0.1259376417514015 3:0.49418601711520965 4:1.1241001808328863E-5 5:0.0 6:0.006222905415882904 7:0.17381436854528493 
-5.994842503189409 0:0.481139537031592 1:0.05825661781864496 2:0.13328829218772736 3:0.22894560636105946 4:9.346741590747853E-4 5:8.217148497937985E-4 6:0.009898159496751564 7:0.5118089808675235 
-5.994842503189409 0:0.6488036326406079 1:0.1648454890770757 2:0.07742126476483675 3:0.6309176893133074 4:0.0 5:0.0 6:2.1275470770909196E-4 7:0.188047951221087 
4.229770287628002 0:0.15026950428634914 1:0.21018886492946093 2:0.05981294567680353 3:0.5073973750961748 4:1.3653850633059763E-5 5:5.2854599329973995E-6 6:4.7245401056588455E-6 7:0.1470935207463019 
-5.994842503189409 0:0.5219797706571575 1:0.11417191149629294 2:0.11299668272935944 3:0.1770372781744978 4:0.001914392855936307 5:9.917248187166534E-5 6:0.005947000639296999 7:0.5043762192679435 
5.994842503189409 0:0.5787161685061032 1:0.07339064327768377 2:0.2211189575632079 3:0.29731738501902816 4:0.0 5:1.5179837903129105E-4 6:0.016970141517630367 7:0.30587865240206696 
-5.994842503189409 0:0.5226572979822118 1:0.002072658776199514 2:0.2566884147043961 3:0.5149521781626254 4:0.0 5:0.0 6:0.00457591474517174 7:0.2450635133110264 
5.994842503189409 0:0.5451755493153517 1:0.025707471168964567 2:0.42555964637902904 3:0.32356502706277684 4:0.0 5:0.0 6:0.24350572736527715 7:0.14390770471073153 
5.994842503189409 0:0.5724677110884436 1:0.08601687785884223 2:0.22804432039467884 3:0.3179303989251209 4:0.0 5:0.0 6:0.016199751315563716 7:0.2967925393108337 
5.994842503189409 0:0.663513190005617 1:0.012287425605132457 2:0.1413613944596374 3:0.5566844254801273 4:0.0 5:0.0 6:9.455764787070754E-5 7:0.16740176094241052 
-5.994842503189409 0:0.4794257222527655 1:0.05120552273436811 2:0.39199603361154317 3:0.22399039267511203 4:1.1261134446684159E-5 5:0.0 6:0.357630532482426 7:0.2695171741930915 
5.994842503189409 0:0.4208868209916795 1:0.35931324800866016 2:0.11503331255291407 3:0.2393375723157674 4:0.006328684018089151 5:0.001159657840023347 6:0.0058048987682287985 7:0.5628526044846865 
-5.994842503189409 0:0.5303771101945922 1:0.09534888706058342 2:0.20669052999749934 3:0.215817211368869 4:4.8422878120741886E-4 5:0.0 6:0.10860958975606519 7:0.3927096865650435 
-5.994842503189409 0:0.6336047499852817 1:0.15472941564745613 2:0.07554623866093965 3:0.5887655086325895 4:0.0 5:0.0 6:5.40329416404043E-5 7:0.22564308399675745 
5.994842503189409 0:0.4886205679123995 1:0.1991359623718404 2:0.03909999046767422 3:0.0399463801582098 4:0.20087611625995203 5:0.11128569215741875 6:0.06730140587197608 7:0.6359186303031058 
-5.994842503189409 0:0.305540180916907 1:0.0676923306843456 2:0.09895303566248771 3:0.40023610377866986 4:9.032547341870306E-5 5:5.153323434672464E-5 6:2.6142455251312276E-5 7:0.1263074791997682 
5.994842503189409 0:0.23798982553393305 1:0.0369218122152272 2:0.15949862258779574 3:0.27729091808490564 4:2.0348799832974878E-4 5:8.533526537669229E-6 6:0.001263181134413194 7:0.12403615196908618 
-5.994842503189409 0:0.6499310151070273 1:0.007120643385523685 2:0.24203102059805326 3:0.3526509762750719 4:0.0 5:0.0 6:0.003575179638540085 7:0.19530213798499707 
-5.994842503189409 0:0.6202029311051072 1:0.013261201750000852 2:0.23396996904859657 3:0.31496703934746856 4:0.0 5:1.8848055099504457E-5 6:0.008540713367242419 7:0.24929050165455302 
-4.041506049183767 0:0.6962097647530708 1:0.09674704355085605 2:0.05410757921604371 3:0.18643283072714534 4:0.017589892005720656 5:3.2585244043547185E-4 6:0.030265201436331463 7:0.3594756341123499 
5.994842503189409 0:0.5687891454844742 1:0.016618969241663336 2:0.16945515780155354 3:0.7607829947864351 4:0.0 5:1.4167497410237905E-4 6:9.590847141171764E-4 7:0.1522891722485584 
-5.994842503189409 0:0.213429381496542 1:0.03884886389436807 2:0.03973571797585077 3:0.1763750897198669 4:0.0027412730886373833 5:0.0016953112735089157 6:0.0027496823414934484 7:0.24511614893059397 
-5.994842503189409 0:0.4589714158029494 1:0.03914468846868926 2:0.4001757103902441 3:0.27595811078642596 4:2.4170211302822255E-4 5:3.040825128754822E-4 6:0.24183995981685047 7:0.276242693121882 
5.994842503189409 0:0.5502475899760404 1:0.0027135132293731115 2:0.31323312670435 3:0.4951386775792909 4:0.0 5:0.0 6:2.6057936628093656E-4 7:0.18068907167146647 
-5.994842503189409 0:0.5262422225970697 1:0.09151132421875145 2:0.17038897687182916 3:0.19434287578558385 4:0.16631062175422556 5:0.003450689182508496 6:0.03570248713955354 7:0.4385683301366575 
-5.994842503189409 0:0.5579208700659678 1:0.4123904664215011 2:0.022277469226834178 3:0.19516196729034163 4:0.014369207553968987 5:1.8417746633309274E-4 6:0.0035560429717091083 7:0.5067819883273711 
5.994842503189409 0:0.4396367037487698 1:0.5552621220501729 2:0.04824407449412861 3:0.3752130188229273 4:0.014546147208935187 5:0.012717085564640768 6:0.0328713067064632 7:0.5149134213969008 
5.994842503189409 0:0.5317004057513388 1:0.001502430246833424 2:0.23405210012650768 3:0.4562774454365938 4:0.0 5:0.0 6:5.707229460767705E-4 7:0.28060143070496646 
5.994842503189409 0:0.20037179581424036 1:0.03934867835709074 2:0.03732086689824797 3:0.058123241747883435 4:9.126282981048055E-5 5:1.483048593834244E-4 6:0.005059364576041062 7:0.21767623797307284 
-5.994842503189409 0:0.17477725003915404 1:0.056134863192200964 2:0.17070354473535332 3:0.26243370514362496 4:1.5755021331396923E-6 5:7.333844848226383E-5 6:0.007105024203145063 7:0.13007492812010982 
-5.994842503189409 0:0.7371737678495888 1:0.010809518245274978 2:0.1121029352278947 3:0.4543099047232722 4:0.0 5:1.4142168780772523E-5 6:2.7305272951598877E-4 7:0.1590808805632638 
-5.994842503189409 0:0.5075305594402016 1:0.03902785385242498 2:0.1356683154823845 3:0.23468591285649745 4:7.094514701411021E-4 5:0.0011759022850497461 6:0.007294447121454581 7:0.481096743388431 
-5.994842503189409 0:0.6316658300236556 1:0.002035674449248032 2:0.1970995394898943 3:0.3432493737581944 4:1.3346368806399899E-4 5:0.0 6:0.0021612916083774522 7:0.2549697623487496 
-5.994842503189409 0:0.6305903942936565 1:0.0013881365867259563 2:0.19794847619388448 3:0.3415902996605514 4:1.3367722996490138E-4 5:1.6817771054080326E-4 6:0.0029264208568780094 7:0.2561466058699041 
5.994842503189409 0:0.5590083258777133 1:0.22876733576184016 2:0.040923549070591626 3:0.2896385738908161 4:0.0020121393236908667 5:3.252698819577681E-4 6:0.011677217963498581 7:0.4612519062627281 
-5.994842503189409 0:0.635022146559397 1:0.07789660428200396 2:0.06665660126534768 3:0.17716508398069394 4:0.040709001024763235 5:1.9834496374333067E-4 6:0.059892138749535646 7:0.41563644941509637 
-5.994842503189409 0:0.2374000441670871 1:0.08697147249138071 2:0.02456731994876097 3:0.13415403366553671 4:0.004506143474077625 5:0.006382222202268398 6:0.0013598291897854629 7:0.32598554321401924 
5.994842503189409 0:0.3549053026149383 1:0.1401349148778471 2:0.39894577955467453 3:0.7673244925784828 4:0.0 5:0.0 6:0.0013484085408196976 7:0.18570919177689518 
-5.994842503189409 0:0.6592417879922251 1:0.023653615426054625 2:0.15009025508781623 3:0.2728551168769742 4:0.0 5:0.0 6:0.0071289712376808425 7:0.29263526722421923 
0.14932705194570822 0:0.0 1:0.12915172768840336 2:6.883033880716551E-4 3:0.13635979382129035 4:0.0 5:0.0 6:0.0 7:0.6202326312604237 
5.994842503189409 0:0.6467575927214457 1:0.10073907904216829 2:0.074918346535644 3:0.13198035032699842 4:0.004642533746839821 5:7.071084390386262E-5 6:0.04668864572588203 7:0.4184846836093982 
-5.994842503189409 0:0.42375216228169593 1:0.04678462646254597 2:0.3280315954393556 3:0.7237103648518319 4:0.0 5:0.0 6:1.854061743627084E-4 7:0.19572568835487691 
5.994842503189409 0:0.6965549155548588 1:0.06398200708649954 2:0.1860801009345973 3:0.39122597554902155 4:0.0 5:0.0 6:0.007289025960061064 7:0.1676438638226782 
5.994842503189409 0:0.6595734940784496 1:0.054040216481313005 2:0.12287364761795092 3:0.3266449291104662 4:4.95489915654103E-4 5:0.0 6:0.0032960094400646626 7:0.28739947522558956 
5.994842503189409 0:0.7599432075541388 1:0.011607537743195966 2:0.11104205894716926 3:0.43050084012406403 4:3.378340334005248E-5 5:0.0 6:5.403294164040431E-4 7:0.14651723980774303 
-5.994842503189409 0:0.4376233057246056 1:0.4026198198894783 2:0.13676528745939037 3:0.23208506470040605 4:0.005022465963221135 5:9.067198342552258E-4 6:0.002296400019717183 7:0.5284576181672652 
-5.994842503189409 0:0.5843115003870051 1:0.02126304197601986 2:0.22525260314805554 3:0.6018902520303172 4:0.0 5:0.0 6:0.0010739047151030355 7:0.1638284618432504 
5.994842503189409 0:0.6128601807063633 1:0.22911134092995977 2:0.07455680262017078 3:0.5079447683886142 4:2.2522268893368318E-5 5:0.0 6:1.0131176557575807E-4 7:0.27960443408749625 
5.994842503189409 0:0.16444458787143423 1:0.14724032416899988 2:0.06950811974369062 3:0.5202254560990881 4:6.301777215258352E-6 5:6.6068249162467485E-6 6:5.1969941162247295E-5 7:0.11304987355349452 
-5.994842503189409 0:0.4253177184481519 1:0.24167721318310526 2:0.07522779661429523 3:0.2754584663768298 4:0.001329361621655224 5:7.602062821887055E-4 6:0.03265364960212532 7:0.5789165381133283 
0.2965779601017407 0:0.5774044857121463 1:0.3985624245843734 2:0.03191616821748877 3:0.4834188341795752 4:0.006249929617909708 5:0.0 6:0.0049710306309171965 7:0.3483522796939074 
5.994842503189409 0:0.6175087498900568 1:8.242661153740904E-4 2:0.2738704921008571 3:0.31390314119315155 4:0.0 5:0.0 6:0.004393907245219929 7:0.2226046975620801 
-5.994842503189409 0:0.5244456093997885 1:0.27561786387306725 2:0.1297743973301007 3:0.26990280275384343 4:0.019053839483789598 5:1.8417746633309274E-4 6:0.004255094154181839 7:0.4335362197249969 
-5.994842503189409 0:0.5797459292185756 1:0.0022306220234659013 2:0.23462811355313662 3:0.4144410830472829 4:1.3346368806399899E-4 5:0.0 6:0.002681602551134987 7:0.24792051634966164 
1.1860432501801519 0:0.5641162457969762 1:0.2057374541925786 2:0.007959902735985423 3:0.058840642807077514 4:0.6621884888683687 5:0.013232442581162202 6:0.08218748129390747 7:0.5552991628961791 
-5.994842503189409 0:0.49261780850519726 1:0.15752863067192702 2:0.060187530731385164 3:0.08664848517813031 4:0.04308675993132454 5:0.011582436231452697 6:0.022289193179749603 7:0.6112161942830783 
-5.994842503189409 0:0.567780473717235 1:0.08219052560411391 2:0.11386147733962299 3:0.15975757690738274 4:0.0120728359421452 5:7.353927766001713E-4 6:0.014434713429474864 7:0.4639672591174432 
5.994842503189409 0:0.5003000725181382 1:0.32348964550667625 2:0.09478831846711218 3:0.20052889825196374 4:0.06215020101124988 5:1.9834496374333067E-4 6:0.003988306504832343 7:0.513173248245622 
5.994842503189409 0:0.5122313651322415 1:0.06661937348512167 2:0.12383549461305488 3:0.2984651015680552 4:0.0734487058156208 5:0.001725344591254248 6:0.06536410401623484 7:0.4444395540997348 
-5.994842503189409 0:0.4629905874817588 1:0.12241829330558715 2:0.0819166886090972 3:0.6252348954306576 4:1.6891701670026238E-4 5:0.0 6:0.0022896459020121324 7:0.38716111131387415 
5.994842503189409 0:0.7151985658829191 1:0.007774944069860417 2:0.11795598708287752 3:0.5370771890124083 4:0.0 5:0.0 6:0.0 7:0.14032812438514933 
-5.994842503189409 0:0.7101931412728137 1:0.029741193176591026 2:0.15281144867246263 3:0.5343710488631851 4:0.0 5:2.8284337561545047E-5 6:2.1574536653115158E-4 7:0.1176746558698354 
-5.994842503189409 0:0.19996027116486437 1:0.10899422452347161 2:0.022834061547438046 3:0.0061534563058233535 4:0.07814088890520043 5:0.41123466579258894 6:0.0454825943103861 7:0.242092494093669 
5.994842503189409 0:0.643534367755536 1:0.0332762218591074 2:0.20266900226440096 3:0.4519320480259251 4:0.0 5:0.0 6:0.0036033217956444622 7:0.18592418621115667 
-5.994842503189409 0:0.2455247597345108 1:0.032589039470558794 2:0.10594798787062584 3:0.12968683151814347 4:5.566569873478211E-5 5:3.964094949748049E-5 6:0.0028753551083039734 7:0.13065976285853362 
5.994842503189409 0:0.6522096973817805 1:0.008295825899569826 2:0.29859053025086224 3:0.39915098876276695 4:0.0 5:0.0 6:0.026955683760856695 7:0.12410166128930086 
5.994842503189409 0:0.6539497128615005 1:0.008986954570187309 2:0.17723108431611487 3:0.5905123576737722 4:0.0 5:0.0 6:3.371021352049244E-5 7:0.13408925451068543 
-5.994842503189409 0:0.6318713308278369 1:0.023516541260341618 2:0.1813832125327831 3:0.3029159553929217 4:4.5044537786736636E-5 5:0.0 6:0.005271588868791945 7:0.28352004783670975 
1.269509977594085 0:0.624587107444261 1:0.8841732742845824 2:0.005202833554531237 3:0.5243544070886433 4:0.0 5:0.0 6:0.0 7:0.2647317725310549 
5.994842503189409 0:0.6542073835630025 1:0.19216711178699136 2:0.0365201822718709 3:0.15158201317468975 4:0.004391842434206822 5:1.4167497410237904E-5 6:0.019867237229406157 7:0.42832746351282347 
5.994842503189409 0:0.6042561391815658 1:0.5537255131822009 2:0.01664598594943092 3:0.42889194720714274 4:3.372300542498659E-5 5:2.8284337561545047E-5 6:0.0012371648362020727 7:0.34567793581975514 
5.994842503189409 0:0.4998397617081765 1:0.3415176397812503 2:0.09502236726951035 3:0.2331787172419987 4:0.10029166338216912 5:1.1333997928190323E-4 6:0.005204047691741439 7:0.4956773509918599 
-5.994842503189409 0:0.6752270539201606 1:0.022341475192451304 2:0.16918767476498428 3:0.5348649553262311 4:0.0 5:0.0 6:0.0011562603237528907 7:0.14206716048979087 
-5.994842503189409 0:0.5547034478659728 1:0.0027500751720082517 2:0.2523810631882775 3:0.30234738578913506 4:0.0 5:0.0 6:0.012488250569098797 7:0.31030810241710155 
-4.418176698657597 0:0.5064543264261896 1:0.012408691972329453 2:0.1423127963159576 3:0.06300891932074112 4:0.0 5:4.228994871481494E-5 6:0.10578364621611737 7:0.5451635530743608 
-5.994842503189409 0:0.6900696079074972 1:0.152520685438578 2:0.048655977655824106 3:0.21941910835034387 4:0.0032036855153737267 5:1.2727951902695274E-4 6:0.007274664077722268 7:0.3543994498971472 
5.994842503189409 0:0.5581680188500305 1:0.0909421151430484 2:0.16834576352059014 3:0.23769091368343506 4:0.08238530225324225 5:0.003252698819577681 6:0.020934042596225805 7:0.3915304470148874 
5.994842503189409 0:0.6900116444090558 1:0.01737561863639911 2:0.2985942202094586 3:0.15281807790032956 4:0.0 5:0.0 6:0.06025686110560838 7:0.19144156632410728 
-5.335646619531319 0:0.42951982695598656 1:0.22810005434424205 2:0.05619231254650373 3:0.22012771214127472 4:2.365742723566817E-5 5:2.742459267939755E-4 6:3.319229357038714E-4 7:0.06410852922351187 
5.994842503189409 0:0.5499179706263366 1:0.006733180410441598 2:0.2932458887924949 3:0.3109795888652824 4:0.0 5:0.0 6:0.004825817100258609 7:0.279849003971131 
5.994842503189409 0:0.591291051262752 1:0.02967391278416969 2:0.20372538469684678 3:0.4928600316630071 4:0.0 5:0.0 6:8.27379418868691E-4 7:0.22247906511102689 
-5.994842503189409 0:0.5096180107622663 1:0.439292685398797 2:0.039862726007181125 3:0.2614974310722413 4:0.0020305197871662043 5:0.0021864462900610445 6:0.023607139697458365 7:0.5098099425195973 
-5.994842503189409 0:0.6097696004887466 1:0.0013208666771158432 2:0.20523375014918208 3:0.2612598945799706 4:1.3346368806399899E-4 5:0.0 6:0.008004783734731305 7:0.30847008880196725 
5.994842503189409 0:0.6385146640413821 1:0.0045894569348345175 2:0.2878622200361609 3:0.3692269499204083 4:0.0 5:0.0 6:0.003296499887942518 7:0.16392392913385892 
5.994842503189409 0:0.4975226212204985 1:0.16092445954483467 2:0.1782560134457866 3:0.2449483094815 4:0.00132723804078996 5:0.0 6:0.06578191317495097 7:0.4369950694366837 
-5.994842503189409 0:0.2520285144891552 1:0.23742710429795838 2:0.05572750931621104 3:0.11392393447364492 4:0.002149956326605641 5:0.004981545986850048 6:8.236448250865253E-4 7:0.2814307872606285 
-5.994842503189409 0:0.5302265485668024 1:0.009524010424358327 2:0.30967411160046593 3:0.58921830634597 4:0.0 5:0.0 6:0.0030731235557979945 7:0.16100842134827825 
-0.1044122729299567 0:0.5038480729605086 1:0.1900013399687259 2:0.0075772013158478665 3:0.0666961353950616 4:1.0 5:0.008769680896937264 6:0.24168259383982338 7:0.5851591491991363 
5.994842503189409 0:0.591125118790902 1:0.048623609630202 2:0.26938984629466456 3:0.42845818433553773 4:0.0 5:0.0 6:0.04875508181468822 7:0.19284508925609817 
5.994842503189409 0:0.6427321815525044 1:0.031804576076014605 2:0.17891964255565287 3:0.37461600099776443 4:0.0 5:0.0 6:0.009954626052601417 7:0.2400706389666039 
-4.2034025523573755 0:0.8542798695537805 1:0.055383543305300424 2:0.20424725026976162 3:0.2106054731719136 4:0.0 5:0.0 6:0.0011110523624808136 7:0.06969858804138504 
5.994842503189409 0:0.675117803472361 1:0.003690961543179555 2:0.2366054120609418 3:0.3515974414391969 4:0.0 5:0.0 6:1.8869540316895404E-4 7:0.17402177076510467 
-0.975892159973408 0:0.4137463488300283 1:0.016169365978124687 2:0.43094143804843416 3:0.8391188249985111 4:0.0 5:0.0 6:0.0 7:0.07490235303144349 
-5.994842503189409 0:0.5423122558975156 1:0.0950144260962437 2:0.23011280575641405 3:0.09933408670309264 4:0.002522494116057252 5:9.917248187166534E-5 6:0.2059600652978111 7:0.4025964657044959 
5.994842503189409 0:0.40703773046678854 1:0.3230510081763946 2:0.13999505550509672 3:0.2649831921139078 4:0.014346685285075619 5:9.350548290757017E-4 6:0.00872969713377782 7:0.54826445126027 
5.994842503189409 0:0.24928386701092883 1:0.5160013086294067 2:0.028753560412432766 3:0.15327102310498536 4:5.892161696266559E-4 5:0.014422698792166653 6:2.771730195319856E-4 7:0.26131024259592345 
5.994842503189409 0:0.5235733573796647 1:0.324859679436057 2:0.08893406397669554 3:0.1993502854063178 4:0.04621175843403996 5:2.5455903805390547E-4 6:0.004419408992536559 7:0.49407072375522826 
5.994842503189409 0:0.5356515478194824 1:0.01623342395702236 2:0.3202675951824583 3:0.2750601318321261 4:0.0 5:0.0 6:0.019818234528697506 7:0.2874601893464694 
5.994842503189409 0:0.6633771356180048 1:0.19118566076048624 2:0.02477346264880571 3:0.1320523730893041 4:0.051992657740340766 5:9.917248187166533E-4 6:0.02596958257591932 7:0.4343027882548249 
5.994842503189409 0:0.4375802422048716 1:0.334065541602716 2:0.08691821274089931 3:0.2251810466637016 4:0.015152870437627308 5:4.6669156976549334E-4 6:0.006613943892720617 7:0.5752880071378319 
-5.994842503189409 0:0.6099676438182562 1:0.06906040471361746 2:0.14979898500111485 3:0.40880854399852484 4:1.1241001808328863E-5 5:0.0 6:9.67483128038133E-4 7:0.2805069761571861 
0.391015785588967 0:0.23037757759732996 1:0.008213581400142025 2:1.0 3:0.1963532999838128 4:0.0 5:0.0 6:0.19959768641965348 7:0.08928788703721133 
-5.994842503189409 0:0.09556272734835253 1:0.034102218170832595 2:0.05927606750962938 3:0.3214653823858609 4:1.9535509367300894E-4 5:2.5898753671687257E-4 6:2.085097033297437E-4 7:0.25182891957656484 
-5.994842503189409 0:0.6250086220486558 1:0.13190382557292693 2:0.03740102810251809 3:0.21092224899155687 4:0.023704688010270154 5:1.1333997928190323E-4 6:0.027192077880533468 7:0.4345236498334134 
-5.994842503189409 0:0.5852958067879648 1:0.13440451197149034 2:0.043366670262917885 3:0.09903259741575983 4:0.018446483967467668 5:0.0013576482029541623 6:0.015584231710523656 7:0.524321581399653 
-5.994842503189409 0:0.5919905354918591 1:0.09545306342652532 2:0.14326699450619013 3:0.1551432306744836 4:0.028862287586851502 5:0.008968025860680594 6:0.021025568415822326 7:0.4145051057356976 
5.994842503189409 0:0.5965175786024358 1:0.1647632445776479 2:0.08388449081484582 3:0.5786505919707807 4:0.0 5:0.0 6:4.559029450909113E-4 7:0.2622046178594477 
5.994842503189409 0:0.4687793684002201 1:0.10778425537406701 2:0.10578861217982644 3:0.1813005147097547 4:0.011891757975698473 5:0.0014592522332545043 6:0.014872567186521284 7:0.5635342634507445 
-5.994842503189409 0:0.17950935792889616 1:0.075469936244489 2:0.10631888612091539 3:0.44243405682500364 4:7.142014177292798E-5 5:1.1231602357619473E-4 6:6.945073955318502E-4 7:0.28210718502405396 
0.8500289961180721 0:0.519956990871304 1:0.14507391141463222 2:0.02729265009624013 3:0.04782652100881743 4:0.03445907140685353 5:0.01425250239469933 6:0.017959198977729383 7:0.627576218473068 
5.994842503189409 0:0.6214233732869103 1:0.16328284358794748 2:0.033701053904246034 3:0.1639773505784838 4:0.044121124762108534 5:0.00148758722807498 6:0.03662758031448907 7:0.4582985045078392 
-5.994842503189409 0:0.47995371232693473 1:0.13954381314538622 2:0.19854248888436943 3:0.2065893867761286 4:0.013298105139253046 5:0.007254932584536305 6:0.2079583072079179 7:0.44055834332207794 
5.994842503189409 0:0.7087012827211864 1:0.0425259865614208 2:0.17012198603361142 3:0.4942448988630038 4:0.0 5:0.0 6:3.377058852525269E-6 7:0.12293787466615456 
5.994842503189409 0:0.6519419015698523 1:0.020934063978308652 2:0.12278456147469574 3:0.36732460432408137 4:0.005022465963221135 5:1.4167497410237904E-5 6:0.040940084469163834 7:0.2747384084605524 
-5.994842503189409 0:0.6454736328884748 1:0.09584783702377876 2:0.03936514034967035 3:0.14342526404352904 4:0.031024425400614862 5:1.5584247151261696E-4 6:0.0354557408926628 7:0.4434629286413693 
-5.994842503189409 0:0.6628474253077339 1:0.02012258491728768 2:0.11530290685208919 3:0.30925786207609723 4:0.0 5:0.0 6:0.0038397159153212308 7:0.3003462894567101 
5.994842503189409 0:0.6614118897547462 1:0.13176644683217426 2:0.04907640708349344 3:0.14551174713469237 4:0.0025292254068739945 5:9.899518146540767E-5 6:0.026071479136748853 7:0.41742719068570416 
-5.994842503189409 0:0.610329539617628 1:0.20271178770699205 2:0.018879354731742938 3:0.11817909430580925 4:0.10671106214900015 5:0.003748399855570508 6:0.06025370860441261 7:0.4943495723520328 
5.994842503189409 0:0.5202360038514623 1:0.19718717838869948 2:0.14713854546882935 3:0.24712525614084335 4:5.395680867997855E-4 5:2.6870120683467795E-4 6:0.07052850872757428 7:0.43314717383329143 
-1.5718854799287263 0:0.2962868784420493 1:0.22951040289243665 2:0.02340729615832554 3:0.017324475959254036 4:0.05965577400824319 5:0.39335978459346543 6:0.04959696215184505 7:0.19812078026016458 
-5.994842503189409 0:0.6829117226485913 1:0.005444683252739376 2:0.18489974307512147 3:0.3077387987795946 4:0.0 5:0.0 6:0.013791908353713198 7:0.22472636286830336 
-5.994842503189409 0:0.6751280001619147 1:0.009491112624587206 2:0.18485809925667673 3:0.20953920758879152 4:0.0 5:0.0 6:0.028877230247943576 7:0.2755931552477453 
-5.994842503189409 0:0.6183656260692986 1:0.12701574031572954 2:0.20694581549247848 3:0.2546750993997661 4:0.002090826336349169 5:0.009065130188475188 6:0.0390060880645618 7:0.2873086444241497 
5.994842503189409 0:0.4526316338197602 1:0.049642877245239886 2:0.3135612194132681 3:0.900260209784128 4:0.0 5:0.0 6:1.6885294262626346E-5 7:0.09587172494206589 
-5.994842503189409 0:0.5807376221648582 1:0.12150812084525282 2:0.03123036305550673 3:0.16420192363794275 4:0.038794608168826926 5:2.2667995856380646E-4 6:0.02757368553086882 7:0.5078239059438763 
3.8672452824675303 0:0.4640707887436364 1:0.3694314228870461 2:0.05239965552286783 3:0.20359806339790246 4:0.21101113726196777 5:1.4167497410237905E-4 6:0.009793470672323279 7:0.5739575989675588 
5.994842503189409 0:0.5840413520496426 1:0.12080081815017372 2:0.05487140064549181 3:0.06837678174654083 4:0.04142971362935102 5:0.015017547254852178 6:0.019688253110222317 7:0.5298185580639538 
-5.994842503189409 0:0.5967546515972534 1:2.504412762926969E-4 2:0.22339218807171896 3:0.3175461601733998 4:1.2085105651411127E-4 5:0.0 6:0.01851943945248173 7:0.28109025971668955 
5.994842503189409 0:0.5708160681777412 1:0.23740398885279612 2:0.02431632358038934 3:0.1056374572758289 4:0.012421306998203395 5:0.0026587277307852345 6:0.008468005636347701 7:0.5449516200303993 
-5.994842503189409 0:0.5439177576632459 1:0.09981029944502942 2:0.19910637490968924 3:0.2794360277551835 4:0.004713191204050339 5:4.561237693132234E-4 6:0.027181173364699215 7:0.3648647807584467 
-5.994842503189409 0:0.382669485162566 1:0.11216157270555556 2:0.2966304108015649 3:0.7821863385301753 4:0.001405125226041108 5:0.001965761460527381 6:9.236598504614929E-4 7:0.23228122995937014 
5.994842503189409 0:0.5659308270819016 1:0.10422032706552896 2:0.24632437528108408 3:0.24162394233571644 4:2.252226889336832E-4 5:9.917248187166534E-5 6:0.0620500793562993 7:0.31703069718160937 
5.994842503189409 0:0.2061392968303916 1:0.05716336817097603 2:0.08139096033736924 3:0.12543863511063286 4:0.0031046710617571266 5:0.0012462561690595962 6:0.0032822159657715936 7:0.1485561612359441 
5.994842503189409 0:0.49934690762970824 1:0.3737191027905489 2:0.06697868193711634 3:0.21566567019866498 4:0.0016103422258758348 5:1.4167497410237905E-4 6:0.0012596429519919252 7:0.5279942663809232 
5.994842503189409 0:0.6135382427113296 1:0.010808315289052163 2:0.23948864803311043 3:0.3325814367735377 4:0.0 5:0.0 6:0.0037622483553237133 7:0.2447557499640571 
-5.994842503189409 0:0.47320151072396205 1:0.082409452171692 2:0.21385264486367697 3:0.47782787150978745 4:0.0023268873743240753 5:2.8284337561545047E-5 6:0.02123069247520614 7:0.34000891015029344 
5.994842503189409 0:0.6705386338528055 1:0.173242085059845 2:0.03723597782014526 3:0.16007378639571662 4:0.08752244007964854 5:1.2727951902695274E-4 6:0.1076872770912131 7:0.3941145993341147 
-5.994842503189409 0:0.4934513870997471 1:0.43626303207883504 2:0.06670946512579116 3:0.28164690968767636 4:0.0015373077465030897 5:0.0010422788994538517 6:0.04077545967592655 7:0.49476313773359826 
4.565138456038351 0:0.712604122416551 1:0.009743329089499132 2:0.14338401890738922 3:0.5113334480500432 4:0.0 5:0.0 6:6.315100054222253E-4 7:0.13451875777847153 
5.994842503189409 0:0.6295181872028892 1:0.010098006900646156 2:0.20095140743239218 3:0.23523596163279684 4:1.1241001808328863E-5 5:0.0 6:0.0023866831172508645 7:0.30278698607916144 
-5.994842503189409 0:0.3869641703115006 1:0.04076961901833773 2:0.301108852427214 3:0.5811153771443804 4:0.0 5:0.0 6:0.0040115154089386 7:0.3209487108381523 
5.994842503189409 0:0.7020511258574046 1:0.035575586202547346 2:0.09942217330373562 3:0.22451217702555443 4:1.1241001808328863E-5 5:1.4142168780772523E-5 6:0.004719429892868942 7:0.3086191820348468 
5.994842503189409 0:0.6568633847782326 1:0.006530310645186355 2:0.17648400179069157 3:0.516229323325971 4:0.0 5:0.0 6:2.735417670545468E-4 7:0.16558953137949112 
-5.994842503189409 0:0.1500594155534047 1:0.13280810744742927 2:0.03147428393745567 3:0.047415259181533866 4:0.05476034340818999 5:0.5152173847137037 6:0.06432303869184329 7:0.25541666738297936 
-5.994842503189409 0:0.4519773982427425 1:0.2652295555919724 2:0.11211661628561609 3:0.14238701417936994 4:0.23000213800021688 5:0.008414590424559653 6:0.03214943063449364 7:0.5717630307255184 
-0.7494990035034114 0:0.39371484770767606 1:0.5996993721228633 2:0.057579858223275646 3:0.3992208049745452 4:0.0251819921203145 5:0.00267728117150332 6:0.09162059083302831 7:0.5346186204657316 
-5.994842503189409 0:0.18538591827819162 1:0.08958611902325146 2:0.11845715083644878 3:0.49539033418984135 4:2.2686397974930068E-4 5:1.242083084254389E-4 6:4.894623549462564E-4 7:0.2310879944901633 
-5.994842503189409 0:0.576926530961428 1:0.18600425729653475 2:0.03891127544231713 3:0.10477770114843245 4:0.020540309230751907 5:0.0027909969898168674 6:0.010867375387426317 7:0.5306450212591617 
-5.994842503189409 0:0.6884461362955606 1:0.028569936040048198 2:0.08950182787213384 3:0.1998651509997144 4:1.573740253166041E-4 5:0.0 6:0.017684378012850336 7:0.3410385852389316 
-1.4419281022504835 0:0.5225400637980734 1:0.4141888794756557 2:0.03041857216430585 3:0.21442047648686835 4:0.006418846634609971 5:8.500498446142743E-5 6:0.0016986606028202103 7:0.529505358876238 
-5.994842503189409 0:0.6335984765841239 1:0.0025277450063666824 2:0.209774281110178 3:0.4328177768106769 4:0.0 5:0.0 6:0.001445381188880815 7:0.20216520703817384 
-5.994842503189409 0:0.4117463783626613 1:0.004564637905109725 2:0.4065282426994993 3:0.6067657076274411 4:0.0 5:0.0 6:0.005595895444401745 7:0.20234301156564882 
-5.994842503189409 0:0.24890678178776787 1:0.041049479500480886 2:0.12996706846515285 3:0.06619597910632626 4:0.0016780194634634842 5:0.0011792656216600193 6:0.031098303468238414 7:0.18449962683533475 
-5.994842503189409 0:0.6740070217925107 1:0.013203081032095314 2:0.14241145124877516 3:0.5204889082667652 4:0.0 5:0.0 6:3.714764737777796E-5 7:0.17187015254085972 
-5.994842503189409 0:0.17030904389164275 1:0.06417197847999113 2:0.01581076508081533 3:0.0687436552359912 4:0.008458035319079252 5:0.008011435893440806 6:0.006241432448915712 7:0.4234872744997462 
1.3861297073693888 0:0.5314247681879631 1:0.21792060604115024 2:0.014111063716130268 3:0.0781895289665572 4:0.7846420648416123 5:0.008939690865860118 6:0.2198971871821829 7:0.5540276490623842 
5.994842503189409 0:0.5222087497994212 1:0.04763062849257301 2:0.14927846419661536 3:0.13653653108955718 4:0.0017454758392360446 5:0.0 6:0.016706310143442506 7:0.4976900613097316 
5.994842503189409 0:0.5829177418134887 1:0.21148855641573877 2:0.03470813930885184 3:0.13770401544580277 4:0.003810699613023485 5:6.788241014770812E-4 6:0.011124370461762505 7:0.5113190270646207 
5.994842503189409 0:0.5755933330030302 1:0.08766368979356637 2:0.03822627592136388 3:0.09323694224053364 4:0.0058678029439476675 5:0.001131373502461802 6:0.010059127714514945 7:0.5460082825709573 
-5.994842503189409 0:0.47644981582055157 1:0.3633385119996997 2:0.09765225433279573 3:0.3551615427441042 4:4.00391064191997E-4 5:5.037271681533644E-4 6:0.04622762606807329 7:0.459807048362806 
5.994842503189409 0:0.6582757089383411 1:0.1484212854606781 2:0.07029993716561436 3:0.5588522243792938 4:0.0 5:0.0 6:0.0 7:0.21772544396845273 
2.419824879887772 0:0.2715395656780744 1:0.15853569288278624 2:0.13000565164540848 3:0.34504540187259314 4:0.010364203667279213 5:0.005077038592297336 6:0.09984965244769861 7:0.6646907922835407 
5.994842503189409 0:0.5919838700031288 1:0.01068639934960459 2:0.21141209559002289 3:0.7180492976875247 4:0.0 5:0.0 6:0.0 7:0.11462041894669178 
5.994842503189409 0:0.6139785736830407 1:0.06520182396005349 2:0.13546860323247098 3:0.2861538906533845 4:0.12269553473790956 5:0.002955713275181458 6:0.07095662843928453 7:0.33049770171056686 
-5.994842503189409 0:0.20109880019187182 1:0.08836954175797558 2:0.03250959350195687 3:0.00908095411846224 4:0.09140937909972748 5:0.34364210573372544 6:0.10290741282673796 7:0.21413006324959594 
-5.994842503189409 0:0.526778680789855 1:0.08032285154582056 2:0.19583834906807315 3:0.2919474517971188 4:8.446060259572473E-4 5:3.035967580625821E-4 6:0.03462777277691313 7:0.3806329700438419 
-5.994842503189409 0:0.5176900340260893 1:0.22092976464254424 2:0.12556456983122935 3:0.20220710599976652 4:2.6978404339989275E-4 5:1.8384819415004282E-4 6:0.09426049904600096 7:0.46862487812725867 
5.994842503189409 0:0.6582318736392725 1:0.0062941577889767016 2:0.1503141294437785 3:0.436593971977742 4:3.372300542498659E-5 5:0.0 6:8.393843166602617E-4 7:0.22101749791111874 
-5.812058175195343 0:0.5131342750245047 1:0.3635591656279011 2:0.15306436171648855 3:0.6473763384555229 4:0.04711658652492653 5:0.04781530375955293 6:0.03853899562501837 7:0.24184542285238342 
-5.994842503189409 0:0.7421279394175476 1:0.009260612779659932 2:0.11196033651087543 3:0.4051434299867702 4:1.1241001808328863E-5 5:0.0 6:0.0013382954767635498 7:0.1763254471485443 
3.7554436529449036 0:0.3636210894031839 1:0.2538779011909851 2:0.0035482936655567504 3:0.016839090397947953 4:0.16582020472742423 5:0.0762494710619004 6:0.030670448498634494 7:0.809783277392015 
5.994842503189409 0:0.48314123815337623 1:0.5595642419080797 2:0.04684531530029842 3:0.36884726621708797 4:0.02601548059190237 5:0.018434196399621818 6:0.04313528048796684 7:0.470584911066435 
-5.994842503189409 0:0.5696195993451255 1:0.1053310637971189 2:0.1340120967796691 3:0.573110811883502 4:0.0 5:0.0 6:6.843173344659966E-4 7:0.25819001418565884 
-5.994842503189409 0:0.636110189572722 1:0.07668486865710102 2:0.09014424200511235 3:0.1674518427097874 4:0.08150809112509994 5:4.391924197173751E-4 6:0.06295175406992354 7:0.3985760362908675 
-0.12820939535732467 0:0.4819212127592407 1:0.012407682188595096 2:0.13216041823652974 3:0.07807711213124707 4:0.03047435590237955 5:0.002842575924935277 6:0.9044787389683328 7:0.4727552038457151 
-5.994842503189409 0:0.2407714425909887 1:0.035964825700489964 2:0.10103267003206541 3:0.12493978748564144 4:5.3110143839128737E-5 5:0.0 6:0.003432268367545561 7:0.12776579590163997 
-5.994842503189409 0:0.5283000130086911 1:0.1130908092286944 2:0.16091417225595067 3:0.19521822383519916 4:0.023489609099263824 5:5.037271681533644E-4 6:0.09733817021433268 7:0.4395959234703162 
5.994842503189409 0:0.5898073918889065 1:0.15376989648746509 2:0.028496630872540656 3:0.10775192483833973 4:0.0742108760036486 5:0.0014450847358442663 6:0.02776617788546276 7:0.5222643433929091 
-0.022371662653409473 0:0.5625631603148087 1:0.11886122971444538 2:0.15547748483522392 3:0.27752003558160626 4:1.2065800370817818E-4 5:3.035967580625821E-4 6:0.03944020096847996 7:0.37760251004644074 
-5.994842503189409 0:0.4601091359124163 1:0.011119553713257676 2:0.36929646260057414 3:0.436538751568216 4:0.0 5:0.0 6:0.028313261419571856 7:0.2546799345859166 
-1.1735575985337328 0:0.4760584741812574 1:0.4374860046802376 2:0.09883040454096176 3:0.29010981361206867 4:0.025956914899606987 5:8.500498446142743E-5 6:0.0032318453218666823 7:0.4876705988490555 
5.994842503189409 0:0.5091553077436961 1:0.12314979923625881 2:0.1685526878437666 3:0.21871486521709013 4:0.0034990821075371677 5:3.035967580625821E-4 6:0.0671207089876425 7:0.4468752603399754 
-5.076874980387966 0:0.672281444386513 1:0.01302762609998267 2:0.18768882463703304 3:0.5482045102390135 4:0.0 5:0.0 6:6.078705934545485E-4 7:0.12528998808784592 
-5.994842503189409 0:0.4450780667380644 1:0.03467986131600854 2:0.4050616498643386 3:0.3661424006167671 4:0.0 5:0.0 6:0.06435323349372153 7:0.26825273125729276 
-5.994842503189409 0:0.5585648848612417 1:0.023583883463457012 2:0.23843382222734733 3:0.23104686936227564 4:0.0011128591790245574 5:0.001994045798088926 6:0.009536619404947311 7:0.3483862304178142 
-5.994842503189409 0:0.346023414980102 1:0.06299938395231484 2:0.24371188459485582 3:0.5940895333592743 4:0.0 5:0.0 6:0.0025530564925091035 7:0.4022504076378563 
5.994842503189409 0:0.43738208051616867 1:0.4743011047944491 2:0.04340092266825099 3:0.24481572334866245 4:0.017414588917006223 5:0.04906117746779833 6:0.021404108019226303 7:0.5869193719930631 
5.994842503189409 0:0.6048776698204954 1:0.01643254837629365 2:0.15482552624084056 3:0.2643797661289389 4:0.0 5:0.0 6:0.010590456561519242 7:0.3505525767762677 
5.994842503189409 0:0.2099532449103805 1:0.037736097131341434 2:0.07541569700463184 3:0.26969617761528997 4:0.0022108735063531386 5:0.001725702668123651 6:0.003408913170903046 7:0.2596286749283847 
-5.994842503189409 0:0.5067381504564432 1:0.11076698921998195 2:0.28945946413567936 3:0.22281731795395465 4:0.006677852726883707 5:1.9834496374333067E-4 6:0.035246363243806235 7:0.35692012838947246 
-5.994842503189409 0:0.5977506940175374 1:0.03457568495006665 2:0.27765159662730293 3:0.473917385387508 4:0.0 5:0.0 6:0.0012461347165818243 7:0.16550260092765495 
-1.7306691402950962 0:0.40863972491502293 1:0.49961518385800885 2:0.012915235829070951 3:0.3139430093951009 4:0.02723024570474853 5:0.006481251502680954 6:0.008762934092472857 7:0.6104928724646578 
-5.994842503189409 0:0.5860723656745159 1:0.061316113197359176 2:0.16950101871553697 3:0.5081209578214417 4:0.0 5:0.0 6:5.065588278787903E-4 7:0.24570571722315573 
5.994842503189409 0:0.5801553721198898 1:0.1833121206819314 2:0.0719358777428651 3:0.44554540931058095 4:0.09585477641017558 5:0.020443698762973295 6:0.037650829146804225 7:0.33950658630060765 
5.994842503189409 0:0.44927252545824536 1:0.16221913238228775 2:0.3063918454857873 3:0.4922951390509653 4:0.0012814742061494904 5:4.242650634231757E-5 6:0.009125354799997303 7:0.28125888808683275 
-5.994842503189409 0:0.5167061928087895 1:0.012013277273706453 2:0.32168492683164257 3:0.5660717619452337 4:0.0 5:0.0 6:0.0016480047200323313 7:0.17640675750821383 
-5.994842503189409 0:0.560905048579271 1:0.03971870764761851 2:0.2070900997997917 3:0.3142815431582212 4:0.0 5:0.0 6:0.003478370618101027 7:0.33233378418618376 
5.994842503189409 0:0.5703410280959121 1:0.08060518979649288 2:0.2288012890438765 3:0.08081137379080941 4:0.009662053355255008 5:0.008302153482399413 6:0.2052339976445182 7:0.38301506947701836 
5.994842503189409 0:0.6019146640361002 1:0.17316863241916922 2:0.07621253975605517 3:0.5975868479559701 4:0.0 5:0.0 6:1.0131176557575807E-4 7:0.25331109192087925 
5.994842503189409 0:0.14736022330495205 1:0.12669504959576552 2:0.03031591521064339 3:0.00652179180560341 4:0.11188175267969679 5:0.46692149457594 6:0.12313600374312686 7:0.2770741975596664 
-5.994842503189409 0:0.47572556289980084 1:0.4158729267424619 2:0.1441755440830897 3:0.23318287812496907 4:0.008779222412304843 5:8.62672295627124E-4 6:0.005070016113482063 7:0.4802062317250295 
5.994842503189409 0:0.5658330538465995 1:0.05111541588657444 2:0.20224939935346023 3:0.22792264513730104 4:0.005632905258863108 5:0.0028657332716320915 6:0.025459598603806456 7:0.3664083994953306 
-5.994842503189409 0:0.6621927060194072 1:0.014126255744083166 2:0.18501718474317747 3:0.532088326188037 4:0.0 5:1.4142168780772523E-5 6:4.382327757664017E-5 7:0.14542896661588073 
-5.994842503189409 0:0.6071160977711522 1:0.28573393730268687 2:0.04287956234423935 3:0.6471700233683777 4:0.0 5:0.0 6:9.455764787070754E-5 7:0.2429651203468473 
0.19520521412142244 0:0.17375442156368365 1:0.45883535947707776 2:0.002441816060276688 3:0.023607065007817805 4:0.005271337648920995 5:0.16162353766973547 6:4.2494662180795717E-4 7:0.39982262773392063 
0.9464478218347495 0:0.5248533804750526 1:0.09245388068072481 2:0.2468209382807667 3:0.2881927265191266 4:4.391842434206822E-4 5:0.0 6:0.03843430680059009 7:0.3427933060633318 
5.994842503189409 0:0.7164587353405143 1:0.014014560093116288 2:0.12335861360490208 3:0.4211180681520361 4:0.0 5:0.0 6:9.455764787070754E-5 7:0.1870767425845442 
-5.994842503189409 0:0.6482895651689737 1:0.002041550737381078 2:0.23022729073354278 3:0.3349994876797734 4:5.6107951595753E-5 5:0.0 6:0.018654425966724758 7:0.21292547576514068 
5.994842503189409 0:0.6350597869663445 1:0.018505109761874253 2:0.11342524506348041 3:0.2736183001196883 4:0.0 5:0.0 6:0.005649819460274774 7:0.3474434613338021 
5.994842503189409 0:0.1412379194769122 1:0.009949656489882316 2:0.13000155553537995 3:0.32574529761294524 4:1.2603554430516704E-5 5:1.3213649832493499E-6 6:3.565452933070542E-4 7:0.21808250567484297 
-2.439564611062168 0:0.2547445284638315 1:0.029210851402289524 2:0.10261265683939015 3:0.2269328708158411 4:0.0011385210835566757 5:0.0023810996998153283 6:0.0014948444894304588 7:0.21499522859255968 
5.994842503189409 0:0.5331095684864343 1:0.07612560606099197 2:0.10439907919982284 3:0.5347063913074699 4:6.418846634609971E-4 5:0.0 6:0.0014521353065858659 7:0.3398817598295848 
-5.994842503189409 0:0.20941640754682062 1:0.08604796074572106 2:0.05655601655296182 3:0.21951892429125744 4:1.2062119212887226E-5 5:0.0 6:1.8086315664266935E-5 7:0.14320363625602306 
5.994842503189409 0:0.7344143857171694 1:0.041752888266799466 2:0.08477113515185873 3:0.22739550451162344 4:0.0 5:0.0 6:0.011603574217276823 7:0.28321849483392875 
-5.994842503189409 0:0.6282861021897801 1:0.3934876852076013 2:0.028185958137435935 3:0.536351231048054 4:0.0 5:0.0 6:2.3597149464344707E-5 7:0.27442732602697323 
-5.994842503189409 0:0.6107444761658583 1:0.009880403255212134 2:0.22685457231582143 3:0.46480939589880177 4:0.0 5:0.0 6:0.001445381188880815 7:0.19779830362272957 
4.610899073005139 0:0.47108058674491565 1:0.15434324911366565 2:0.16376313537844725 3:0.20984898717892483 4:0.24805518690439307 5:0.010974322973879479 6:0.057411864646750674 7:0.48456781914686153 
5.989575493658731 0:0.49771366202193174 1:0.5514322573868202 2:0.08166416038135209 3:0.40126599087189796 4:0.02131293942859153 5:0.06208412094759138 6:0.006182453159658313 7:0.416942246934281 
2.779839980432346 0:0.5991480941254619 1:0.10001489166145403 2:0.04026865306883808 3:0.12009979151411808 4:0.1370480062161462 5:5.383649015890403E-4 6:0.0683584252928165 7:0.49422490535639635 
-5.994842503189409 0:0.5444397230651918 1:0.0512000397677396 2:0.40104908345925994 3:0.5256203113855402 4:0.0 5:0.0 6:0.004535390038941436 7:0.09946665267039097 
-1.8226689227048158 0:0.3800585451617875 1:0.04196824197582782 2:0.30584302459334783 3:0.24807661840545592 4:1.573740253166041E-4 5:6.788241014770812E-4 6:0.45023024075834495 7:0.4212029428050893 
-5.994842503189409 0:0.6149983457511582 1:8.023581157161017E-4 2:0.17738017367638972 3:0.37167303371564075 4:2.6735445992980277E-4 5:0.0 6:0.008939614398408166 7:0.2745138451907389 
-5.994842503189409 0:0.641485710189906 1:0.09267319934586563 2:0.04371560153478778 3:0.1336234716069009 4:0.02712807288206214 5:1.5584247151261696E-4 6:0.02932300201647691 7:0.4498666666149078 
5.994842503189409 0:0.2879800906190281 1:0.07949809056083128 2:0.03044713570773018 3:0.025971152923690462 4:0.04670142064607711 5:0.08986471114580502 6:0.06376428308201404 7:0.18595811192019304 
-2.5483005651896353 0:0.22580059092693916 1:0.029235397727944524 2:0.03166917267872657 3:0.0852145216264465 4:0.0011952370784940008 5:6.699320465074203E-4 6:0.004045781177145858 7:0.24698260486037665 
-5.994842503189409 0:0.4366787667627678 1:0.38386807401993955 2:0.11871348286901758 3:0.25899822878946577 4:0.006689113861330391 5:4.958624093583267E-4 6:0.002900893554319206 7:0.5327396708067547 
-5.994842503189409 0:0.4104140983802523 1:0.05716721892993728 2:0.25454958202863454 3:0.5260694107112496 4:0.0021807543508157996 5:7.071084390386262E-5 6:0.01838217943272453 7:0.3547934666951785 
-5.994842503189409 0:0.2494699697592568 1:0.17851230407498325 2:0.02941679845099884 3:0.27684013548475045 4:1.8588550343695057E-4 5:1.3363446264861429E-4 6:2.0705099200970904E-4 7:0.13383121019235977 
-5.994842503189409 0:0.5761564709692947 1:0.005823007950107263 2:0.23146965624599267 3:0.45753541972901013 4:0.0 5:0.0 6:9.827241260848532E-4 7:0.2345274593614484 
-2.6974737392425783 0:0.14676568498985884 1:0.5762395259321281 2:0.005296409326981753 3:0.7370315534968415 4:8.40236962034447E-6 5:7.928189899496098E-6 6:1.3543681636222024E-5 7:0.0902457335641459 
-5.994842503189409 0:0.624131914236838 1:0.0030266949695620113 2:0.21267933279940401 3:0.2826788188803788 4:0.0 5:0.0 6:0.006527854761931346 7:0.2776578574626482 
5.994842503189409 0:0.5552538903987114 1:0.1811353829304089 2:0.10780385671038549 3:0.20019295156139105 4:0.1079154514025743 5:0.003966899274866613 6:0.023666428438497086 7:0.45133450185189256 
-5.994842503189409 0:0.741560037462649 1:0.005976714265988459 2:0.20680163819187602 3:0.23339155816193868 4:0.0 5:0.0 6:0.02747045299784929 7:0.1773783729649904 
5.994842503189409 0:0.6313060411863334 1:0.011504610097335439 2:0.14164507459915754 3:0.26361553539412835 4:0.0014500892332744235 5:0.0 6:0.026047881987284506 7:0.33168141287093267 
5.994842503189409 0:0.593038216485971 1:0.021268735011318624 2:0.22821986024926308 3:0.7397395432374024 4:0.008003593287530152 5:8.485301268463514E-5 6:0.001904627063907823 7:0.08902187057063972 
5.994842503189409 0:0.6937325554708411 1:0.043545818354325534 2:0.19662326867272376 3:0.45426085239454195 4:0.0 5:0.0 6:0.006767625940460639 7:0.1352133695228083 
-1.6573747181186045 0:0.3049457523087239 1:0.23745625305967372 2:0.07065454145634326 3:0.010442656313277133 4:0.18365899516148942 5:0.8076143136670529 6:0.11304375613875882 7:0.2654256163475289 
5.994842503189409 0:0.6228172446066834 1:0.014743794654709461 2:0.1758308791191345 3:0.5475864778761936 4:1.1261134446684159E-5 5:2.1251246115356858E-4 6:0.0017797100152808166 7:0.18711958390769795 
5.994842503189409 0:0.6913392529290985 1:0.11483535045834385 2:0.03346858651267487 3:0.11155414757267486 4:0.04943638022094346 5:7.650448601528468E-4 6:0.0304441855555153 7:0.41246036840925465 
5.994842503189409 0:0.2310008813130769 1:0.11622553032212386 2:0.035630910736332774 3:0.13115743242534306 4:0.0033704005139606756 5:0.005207499398985687 6:0.009405299473005252 7:0.3368895848855781 
5.994842503189409 0:0.5231056503940659 1:0.07725920466941724 2:0.06106627559272156 3:0.11874602641036167 4:0.13570137383014605 5:2.2627470049236037E-4 6:0.319616647451845 7:0.5299378777399787 
-5.994842503189409 0:0.5904025808237632 1:0.0905677401605139 2:0.1971588398061394 3:0.067534176324262 4:0.04169998085607144 5:0.005468654000351831 6:0.211694311229399 7:0.39009844552854867 
-5.994842503189409 0:0.6005841799571378 1:9.48270752200281E-4 2:0.28956393109241163 3:0.30034086871683013 4:0.0 5:0.0 6:0.007943177923874065 7:0.23390850890867815 
5.994842503189409 0:0.6654439544958675 1:0.04114726734740994 2:0.05841215039476901 3:0.08174769374222364 4:0.008475715363479963 5:7.071084390386262E-5 6:0.06036487935114581 7:0.4372675349541159 
-0.4567167391052944 0:0.24612840372314673 1:0.4372229447303935 2:0.007072630428050205 3:0.3476129083238 4:1.0502962025430588E-6 5:3.964094949748049E-6 6:5.291484918337907E-5 7:0.14301814275600006 
-5.994842503189409 0:0.5242052597179261 1:0.01864766689421577 2:0.3343625702948771 3:0.3209146644998008 4:0.0 5:0.0 6:0.004342897684347496 7:0.2693117022160242 
5.994842503189409 0:0.7170578451510947 1:0.0037833443642977848 2:0.16212848143999445 3:0.33322236363648894 4:0.001126113444668416 5:0.0 6:0.00728093888604448 7:0.1957464953982904 
5.994842503189409 0:0.6706388288221053 1:0.019752668530840296 2:0.13769966803011546 3:0.1970748528634656 4:0.0 5:0.0 6:0.0015810090141110953 7:0.3258280421452794 
5.994842503189409 0:0.5377683530213271 1:0.18849352414588288 2:0.1931742116590047 3:0.2192068039289137 4:0.1335007488654407 5:0.010370608104294146 6:0.051736541620687124 7:0.38871088578058005 
1.9894415216640644 0:0.6902809566708641 1:0.022472831132998163 2:0.3117469271946618 3:0.14730967601216427 4:0.0 5:0.0 6:0.28469286624461476 7:0.1552582117966948 
-5.994842503189409 0:0.6585485771642761 1:0.03893464341974013 2:0.1066926520359365 3:0.348050575851088 4:0.0 5:0.0 6:0.0033736817936727437 7:0.2926560639830317 
5.994842503189409 0:0.4488600039830811 1:0.16738579937713086 2:0.1460114367903967 3:0.19747307634012817 4:0.028023817508163858 5:0.018229255558415786 6:0.16786337924664413 7:0.5211063378970668 
-5.994842503189409 0:0.5572900320060249 1:0.002545260702167834 2:0.2462467618370579 3:0.29011470239165027 4:0.0 5:0.0 6:0.014387901101047451 7:0.31775946742971356 
-5.994842503189409 0:0.5326480814137555 1:0.11464892959297418 2:0.21406254013609952 3:0.22348008234894318 4:0.001328813864708731 5:0.0017142671866387867 6:0.13672698176219056 7:0.37598368532251925 
5.994842503189409 0:0.6661864430740313 1:0.013367570030950918 2:0.19042835532636485 3:0.4387598339001817 4:0.0 5:0.0 6:0.005237818280266693 7:0.1788632706591438 
5.994842503189409 0:0.49950131221090155 1:0.2636738854852688 2:0.06242609409408329 3:0.2480587626045732 4:0.002413160074163564 5:0.026868313088538515 6:0.04313093537103496 7:0.5190403173075002 
-5.994842503189409 0:0.5931581722823751 1:0.11263119787367878 2:0.12351570041371888 3:0.14970418072222222 4:0.024594317631558203 5:0.00831632097980965 6:0.018040248390189986 7:0.43057060191833746 
-5.994842503189409 0:0.5992770909367714 1:0.08430619227074394 2:0.17732636662454807 3:0.12749883479425883 4:2.3648382338036734E-4 5:0.0 6:0.10217629264200455 7:0.384667579932258 
-5.603735975114933 0:0.3271698840627211 1:0.26679028760114987 2:0.08020507495732496 3:0.297265112961821 4:0.00958322541412822 5:0.04669607146414414 6:0.005112867102723257 7:0.6690046098330547 
5.994842503189409 0:0.44647645959622145 1:0.023972478120908136 2:0.2983752718555718 3:0.5685207623367072 4:0.0 5:0.0 6:0.014903285397409706 7:0.26564477878908527 
5.994842503189409 0:0.5425098680339898 1:0.04218604263045256 2:0.2921420640352386 3:0.15360225781120443 4:0.004572020585353769 5:0.0 6:0.020059729584000097 7:0.35554837417820134 
-5.994842503189409 0:0.5169159596600071 1:0.14756866123060886 2:0.25969098672795465 3:0.25549817549692294 4:0.008434589700566436 5:1.2750747669214115E-4 6:0.010110914204460655 7:0.35496315338521817 
5.994842503189409 0:0.5550294897140327 1:0.21053075268258456 2:0.025650226708226316 3:0.11021930542379071 4:0.004170411670890009 5:0.0016829180849119304 6:0.003455296885850475 7:0.5615476573864651 
-5.994842503189409 0:0.6676177156657557 1:0.026424455677782836 2:0.15634063537005735 3:0.18667001154416807 4:1.1241001808328863E-5 5:0.0 6:0.01110414433365021 7:0.3173855368015828 
-0.7920250285401731 0:0.12633421226958466 1:0.1892894912410903 2:0.013379546845908117 3:0.011704005985532928 4:0.07563809869763506 5:0.24964801415895202 6:0.09035666706198969 7:0.30874300890879114 
5.994842503189409 0:0.5652540839319921 1:0.1699227161750853 2:0.026644798794106445 3:0.03531615837944684 4:0.09778043040055856 5:0.04346588205460989 6:0.013390038350262692 7:0.5812164996634664 
-5.994842503189409 0:0.5787046481021232 1:0.14453109771840875 2:0.21057816494724382 3:0.5354330586055566 4:0.0 5:0.0 6:3.039352967272742E-5 7:0.20241185659768984 
5.994842503189409 0:0.31408474018320137 1:0.2253968478180864 2:0.015152843502690383 3:0.08406201734901173 4:0.005499350916515455 5:0.005792864086565149 6:0.011621108782559252 7:0.21426723590912064 
5.994842503189409 0:0.4921536239989878 1:0.23112626952749418 2:0.12677955299579566 3:0.6024381028432981 4:0.028214914538905452 5:0.021835508597512775 6:0.020849767062424574 7:0.31900270795893987 
-5.994842503189409 0:0.43999175716291156 1:0.41468945273324886 2:0.10539912924448645 3:0.411466568650587 4:0.011682548317561369 5:0.013020757393034396 6:0.00613353060049378 7:0.4669747470677729 
5.994842503189409 0:0.653446781082007 1:0.020513438353174186 2:0.16584107756851757 3:0.2182062125896165 4:2.2482003616657727E-5 5:2.8284337561545047E-5 6:0.0033474242025848993 7:0.3119560766668567 
-5.994842503189409 0:0.5364795818968461 1:0.14223531561620653 2:0.20021368018272934 3:0.2859979272892947 4:1.3367722996490138E-4 5:0.0 6:0.04421701650871842 7:0.36375789108431084 
5.994842503189409 0:0.556279983575602 1:0.5177401872218863 2:0.08045599214187796 3:0.1395162321711586 4:0.0020720487381898855 5:0.0010200598135371292 6:0.0029549264959596107 7:0.4804824071331103 
5.994842503189409 0:0.24610025276389652 1:0.024780276578933627 2:0.06417380265596197 3:0.244429901832751 4:0.0017854530746345305 5:0.0015331595234499506 6:0.0016317950277425553 7:0.25319104192842884 
5.994842503189409 0:0.6370967252990741 1:0.002859401037403924 2:0.28667812800678083 3:0.3765018884168495 4:0.0 5:0.0 6:0.001424201019156153 7:0.16340964554457119 
0.5880770573763776 0:0.6643808798032704 1:0.03416994541955617 2:0.12733849751955575 3:0.5873359094004241 4:0.0 5:0.0 6:0.0 7:0.16193221337472857 
-5.994842503189409 0:0.637154922519212 1:0.1364022169006405 2:0.22170504580123562 3:0.09911005507140355 4:9.217621482829669E-4 5:1.4142168780772524E-4 6:0.13883551438414812 7:0.31390706184488515 
-5.994842503189409 0:0.5370754122660171 1:0.12471153819197005 2:0.13690564048774623 3:0.4512261787621141 4:0.10451883481384178 5:0.0 6:0.03807568617139621 7:0.3360276382047488 
5.994842503189409 0:0.6054506510811876 1:0.02418045836010733 2:0.10860637259102027 3:0.22273794107804412 4:0.0014163662278494369 5:0.0 6:0.023378033076461507 7:0.40317158819845017 
5.994842503189409 0:0.4839732526968935 1:0.10750938314452098 2:0.14181766640425836 3:0.14750195325146814 4:0.08305976236174198 5:0.001159657840023347 6:0.0517316936685477 7:0.5272482667624796 
-3.448834263720035 0:0.28903351021949825 1:0.04975300426639915 2:0.033127112244086675 3:0.020993243373787118 4:0.026642306891608254 5:0.0109125433726049 6:0.061017910905735474 7:0.28405207544520183 
-5.994842503189409 0:0.6353957136935989 1:0.014829495686332085 2:0.2682587797579123 3:0.3045272350843308 4:0.0 5:0.0 6:0.0033785462662631774 7:0.2113921887841226 
5.994842503189409 0:0.5870470953794261 1:0.10067284765687644 2:0.13964661798621114 3:0.32168697672867175 4:0.03332169682773843 5:0.001345912253972601 6:0.014403156006020273 7:0.34720388267228236 
5.994842503189409 0:0.609534182142585 1:8.023829441694686E-4 2:0.24245065354787573 3:0.45651043020919335 4:0.0 5:0.0 6:0.00172521511468758 7:0.19121155437006196 
5.994842503189409 0:0.4590728484586441 1:0.018543490528273893 2:0.26110687655507514 3:0.4476204278640368 4:0.0 5:0.0 6:0.2235714272137304 7:0.3114846175414975 
-5.899232810035526 0:0.5507103796100952 1:0.08127959469180085 2:0.20743379308619625 3:0.07570644473188937 4:0.29524442292316533 5:3.2585244043547185E-4 6:0.14695947008534213 7:0.4198378106303933 
5.994842503189409 0:0.5990590902465339 1:0.1628222743911518 2:0.10700629851662775 3:0.5630692383982402 4:0.044549047871082534 5:0.012495732715829832 6:0.007959727715402059 7:0.2455742817074609 
5.994842503189409 0:0.403815554797057 1:0.22101299921963558 2:0.005155534202746024 3:0.05915650572810511 4:0.032206844517516695 5:0.00913803582960345 6:0.010458751266270758 7:0.7584830805589208 
-5.994842503189409 0:0.5283000130086911 1:0.1130908092286944 2:0.16091417225595067 3:0.19521822383519916 4:0.023489609099263824 5:5.037271681533644E-4 6:0.09733817021433268 7:0.4395959234703162 
5.994842503189409 0:0.13394837069380652 1:0.2925295143391558 2:0.028990484944265385 3:0.33407404823489195 4:0.0 5:0.0 6:3.7796320845270764E-5 7:0.1762142367063596 
-5.994842503189409 0:0.6405686957091186 1:0.0037125417760499615 2:0.2128165289614853 3:0.29794386670566586 4:1.4535233451917415E-4 5:1.4066616826914999E-5 6:0.005777240169022853 7:0.25319267526568195 
-5.994842503189409 0:0.19266860164622507 1:0.10853552627000314 2:0.02519470194441952 3:0.011521453489739344 4:0.07049102468011294 5:0.2882834013520212 6:0.06114621599775365 7:0.2880007278264443 
5.994842503189409 0:0.5107421487454791 1:0.2683035863906214 2:0.09881669898046096 3:0.4109748516331412 4:0.11426673123050417 5:0.004080239254148517 6:0.012275608928929354 7:0.4041607979023706 
-5.994842503189409 0:0.5568203352959531 1:0.002188639710041584 2:0.24680057660417704 3:0.29039222523558217 4:0.0 5:1.5179837903129105E-4 6:0.014111631539180903 7:0.317750925097768 
-5.994842503189409 0:0.4406243440035207 1:0.06973246697213753 2:0.26134672386383906 3:0.48099965284800544 4:0.003051767435051407 5:4.2502492230713716E-5 6:0.009445633610513178 7:0.3380333439063317 
5.994842503189409 0:0.6324246240857825 1:0.012965944935919245 2:0.20120976894551562 3:0.4270958408627448 4:2.2482003616657727E-5 5:1.4142168780772523E-5 6:9.202888291094435E-4 7:0.2120468688929271 
5.994842503189409 0:0.39176043029698854 1:0.02218966333623976 2:0.3058971754086125 3:0.49394364231982724 4:0.0 5:0.0 6:2.701647082020215E-5 7:0.35369995825494827 
-5.994842503189409 0:0.5445783766285751 1:0.11858074551821322 2:0.22108975947704246 3:0.6163139232134832 4:0.0 5:0.0 6:5.436234672939842E-4 7:0.19537403382342117 
-2.6724399399623526 0:0.6655386700527838 1:0.1309564185321353 2:0.20396018774204575 3:0.07434091932960755 4:7.531471211580339E-4 5:1.2727951902695274E-4 6:0.11779359910465673 7:0.3120951658421365 
-5.994842503189409 0:0.5961890092167902 1:0.08538085372993388 2:0.19430386612643552 3:0.07273495973782915 4:0.005720656298915553 5:8.500498446142743E-5 6:0.18654197689579083 7:0.3888215245374625 
-5.994842503189409 0:0.48699867110583034 1:0.158218249359798 2:0.2089737692024129 3:0.21076481004859499 4:0.009183898477404681 5:2.404168692731329E-4 6:0.023903912407381187 7:0.44456203561229457 
5.994842503189409 0:0.3080984363547822 1:0.25874712227467866 2:0.06775333443757527 3:0.1683180324452381 4:2.3106516455947292E-5 5:0.002259534121356388 6:0.0014050782274229406 7:0.11953504465381175 
-5.994842503189409 0:0.44085920445937 1:0.2862164383659966 2:0.013459522455400212 3:0.09105774785327699 4:0.1227688877377507 5:0.011985702809061267 6:0.023473936083903146 7:0.6881214064686614 
5.994842503189409 0:0.4549598498244895 1:0.05691877396128606 2:0.32333222977644954 3:0.8026047061682744 4:4.5044537786736636E-5 5:0.0 6:1.6885294262626346E-5 7:0.1296323513278915 
-5.994842503189409 0:0.591210068730007 1:0.00771090731347258 2:0.23277085553583146 3:0.40564527287448654 4:0.0 5:0.0 6:0.0013387958126915215 7:0.2409866994283049 
5.994842503189409 0:0.49089310748185233 1:0.171479878697585 2:0.28822807223837726 3:0.25052379094004606 4:0.009414308397427958 5:8.500498446142743E-5 6:0.010269635970529344 7:0.3604497542951263 
-5.994842503189409 0:0.5561934734589457 1:0.16707382901833207 2:0.023908522821385926 3:0.0987619512542752 4:0.006857011103080607 5:0.002503163874196737 6:0.004975627515624684 7:0.5698934230948177 
5.994842503189409 0:0.6044353950388628 1:0.007550142438091093 2:0.18642369597542127 3:0.17060225583252223 4:7.882794112678913E-5 5:0.0 6:0.0404672962298103 7:0.3658074153003972 
5.994842503189409 0:0.3610090019960592 1:0.01728789117034279 2:0.35760878231505083 3:0.486583853680161 4:0.0 5:0.0 6:0.0011110523624808136 7:0.34911052952021043 
-5.994842503189409 0:0.516499044605857 1:0.11651821140035971 2:0.15133968257835614 3:0.22996063965018923 4:0.003338577537073673 5:0.010295498872402397 6:0.11742952879863541 7:0.44156227653350005 
5.994842503189409 0:0.6360821318518258 1:0.0274534105453999 2:0.3067291361780727 3:0.4418282869661853 4:0.0 5:0.0 6:0.02421741739312177 7:0.1142277354723057 
5.060564975565966 0:0.47605002239022887 1:0.1022332528658888 2:0.06255698468982694 3:0.07086899382369376 4:0.11785066295851981 5:1.4142168780772524E-4 6:0.3727607990669013 7:0.5927148428214641 
-5.994842503189409 0:0.5564995526161288 1:0.1330442826316591 2:0.16057606314480838 3:0.2983204237615549 4:2.2522268893368318E-5 5:0.0 6:0.04054496858341838 7:0.36933537746534606 
-5.994842503189409 0:0.6040852608367369 1:0.03694980950021586 2:0.18624815937362266 3:0.6663345040074887 4:0.0 5:0.0 6:1.0131176557575807E-5 7:0.1432072276751489 
5.994842503189409 0:0.6964269812681634 1:0.012298391538389498 2:0.1275762362805503 3:0.3277924426703844 4:1.1261134446684159E-5 5:0.0 6:0.0020025958995474845 7:0.24741479486236526 
5.994842503189409 0:0.5663036581232752 1:0.00504042376746457 2:0.3109055494403868 3:0.48369327095111386 4:0.0 5:0.0 6:5.076804894783763E-4 7:0.17050081170898543 
-5.994842503189409 0:0.6110009044391608 1:0.2929347127189808 2:0.05319808881933052 3:0.6547776076615829 4:0.0 5:4.242650634231757E-5 6:2.663106868118903E-4 7:0.2266674247684524 
-5.994842503189409 0:0.49196849813774235 1:0.06162784774434103 2:0.1468517694512076 3:0.3041659850234349 4:0.09093970462938052 5:0.0039032385834932167 6:0.03932296407165443 7:0.4480525511244642 
5.994842503189409 0:0.5822302995528684 1:0.15847976482136386 2:0.1478399074809743 3:0.5872172325803848 4:2.9278949561378813E-4 5:0.0026351545183042504 6:0.002502400609721224 7:0.22313041959703372 
-5.994842503189409 0:0.5570131873359326 1:0.033967075654300925 2:0.21855585543259062 3:0.4451346049335219 4:0.0 5:0.0 6:5.741000049292958E-5 7:0.26865369276719736 
-5.994842503189409 0:0.5752601587788583 1:0.17037231943862396 2:0.13559029921491844 3:0.4579863916451593 4:0.008975124154007275 5:0.002082622119304972 6:0.0036066988544969873 7:0.2977275615870428 
5.994842503189409 0:0.3774429605043488 1:0.37289665779627085 2:0.07006296018673736 3:0.42954686107067147 4:0.006351279827929866 5:0.02057120623966544 6:0.007054675942925287 7:0.5560041730199221 
-5.994842503189409 0:0.6358423937607938 1:0.022151282569840114 2:0.19646934468556101 3:0.5785017894964238 4:0.0 5:0.0 6:6.754117705050538E-6 7:0.14259497109570954 
5.994842503189409 0:0.6086385738146624 1:0.00571883158416538 2:0.319218453078442 3:0.41118025382167067 4:0.0 5:0.0 6:4.39017650828285E-5 7:0.15207579750314237 
-5.994842503189409 0:0.3541761493813226 1:0.06591333530468231 2:0.30775942506340004 3:0.9020260895425682 4:0.002090826336349169 5:6.788241014770812E-4 6:9.607410853340346E-4 7:0.20264111911147228 
5.994842503189409 0:0.600310633777537 1:0.019217895423581863 2:0.17383724720321128 3:0.6003912725033597 4:0.0 5:0.0 6:3.377058852525269E-6 7:0.18839525709325536 
5.994842503189409 0:0.5647812263197146 1:0.0020013802100287527 2:0.2257143751095438 3:0.3525557305195019 4:0.0 5:0.0 6:0.004407061802545476 7:0.29883478102621913 
-5.994842503189409 0:0.1632770677651109 1:0.1423290159082956 2:0.023014991697388316 3:0.011331873134304102 4:0.06346780782460434 5:0.29097705426582504 6:0.1169914329027088 7:0.3329701035208568 
5.994842503189409 0:0.6553759256276279 1:0.062355778581538214 2:0.2017385944459007 3:0.4556321524684378 4:0.0 5:0.0 6:0.020667731909413914 7:0.16810299333588735 
-5.994842503189409 0:0.49760094166994745 1:0.22850821460082255 2:0.11559863067674095 3:0.2017686145720663 4:0.03329917455884506 5:1.2750747669214115E-4 6:0.008327827130327313 7:0.5067898910957198 
-5.994842503189409 0:0.6432206976976405 1:0.07850521357776968 2:0.20234217736015125 3:0.2387136215489072 4:0.027240684226528984 5:2.833499482047581E-4 6:0.07426152416703066 7:0.27051333894020924 
-5.994842503189409 0:0.6812065337963571 1:0.010423216951435624 2:0.126936819169494 3:0.26553458287778253 4:0.0 5:0.0 6:0.008121826540323271 7:0.29182045021394626 
-5.994842503189409 0:0.2717433216403937 1:0.2787477752474427 2:0.0633120933795616 3:0.24915399790966777 4:5.986688354495435E-5 5:4.558709192210257E-4 6:0.0024602255176867493 7:0.1630210665203434 
5.994842503189409 0:0.49710996788171563 1:0.14070838224289262 2:0.2006231146141941 3:0.3525324264284129 4:0.0 5:0.0 6:0.022613514050615936 7:0.3776660790741332 
5.994842503189409 0:0.6365320758005916 1:0.0068976694092972015 2:0.20174071410894334 3:0.6549004488460127 4:0.0 5:0.0 6:3.377058852525269E-6 7:0.1040527539237188 
5.994842503189409 0:0.6463546536635888 1:0.016904083506346382 2:0.19910450226030982 3:0.4817500555100999 4:0.0 5:0.0 6:0.003154172968258601 7:0.1734565293030756 
5.994842503189409 0:0.41834475187877623 1:0.008202615466884984 2:0.43293190714270335 3:0.38494537340406615 4:0.0 5:0.0 6:0.1070628968016086 7:0.2628023167077183 
5.994842503189409 0:0.3660007213051001 1:0.11246259673597545 2:0.29988018820492635 3:0.29609763110496756 4:0.0015624992513577122 5:0.0012586530214887546 6:0.10556353363942207 7:0.4559756518165937 
-5.994842503189409 0:0.5285731152741208 1:0.21106689775550014 2:0.04278678624238782 3:0.10573989628936624 4:0.016959268476706344 5:0.0014450847358442663 6:0.017243262500994023 7:0.5759282998326294 
5.994842503189409 0:0.1672700540447491 1:0.1743632600435485 2:0.023371887203707743 3:0.14679677529230833 4:1.0140314423386729E-5 5:3.970743009298137E-4 6:2.4707640679389108E-5 7:0.2253404857902466 
-5.994842503189409 0:0.7190402399169942 1:0.024267707688448874 2:0.10283611816578998 3:0.22948878103739306 4:0.0 5:0.0 6:0.004738013570092953 7:0.28649190467101293 
5.994842503189409 0:0.675845912506923 1:0.15078167967492165 2:0.03412803482754 3:0.13366363914599114 4:0.04646344072701884 5:0.0014167497410237906 6:0.046944495108953765 7:0.41363372154145467 
5.994842503189409 0:0.5028635268893046 1:0.11605299244425626 2:0.3837119217818902 3:0.40850782604131974 4:0.0 5:0.0 6:0.03417878548842728 7:0.20203950652944136 
5.994842503189409 0:0.6356551290725049 1:0.0046686280247093224 2:0.20884906109933704 3:0.381865126299482 4:4.496400723331545E-5 5:0.0 6:0.00392386885378532 7:0.22345923952252228 
5.994842503189409 0:0.6373557038444105 1:0.07642181054843102 2:0.17443067703944884 3:0.0633920518877298 4:0.10071937620262662 5:0.003309267494700771 6:0.1813508356761932 7:0.36280417280815586 
-5.994842503189409 0:0.1279090052898429 1:0.15530225800131367 2:0.005141835612916229 3:0.001215640315522487 4:0.12437712660135156 5:0.5744594623727051 6:0.026686407302143802 7:0.2741851147979464 
-5.994842503189409 0:0.6001986343115209 1:0.009441227197911864 2:0.16130738551745508 3:0.25531663104180374 4:0.0 5:0.0 6:0.01721917706626754 7:0.3542449986338515 
-5.994842503189409 0:0.6128787395181222 1:4.1680285438644454E-4 2:0.27814692964078674 3:0.2898119043638162 4:0.0 5:0.0 6:0.008442647131313173 7:0.23465071481867703 
5.994842503189409 0:0.6827882516229097 1:0.024541687196611196 2:0.11192402908846094 3:0.3509923272929588 4:0.007553953215196997 5:0.0 6:0.021601504823931555 7:0.26004176857893546 
-5.994842503189409 0:0.6607023058510719 1:0.23499032344524762 2:0.060794233021876705 3:0.4481342514021232 4:0.0 5:0.0 6:2.2585843058729935E-4 7:0.26650214937700367 
-5.994842503189409 0:0.5115558318626652 1:0.04159606681094504 2:0.2538239597748723 3:0.30118523218095616 4:3.372300542498659E-5 5:0.0 6:0.002369828010490619 7:0.35376918909692434 
-5.994842503189409 0:0.5599903148541716 1:0.1488591385958343 2:0.03073537062436696 3:0.07234433434707288 4:0.018660063001825915 5:0.0032385566507969078 6:0.010197339589948963 7:0.5727964425382684 
5.994842503189409 0:0.46499804761253694 1:0.024240663166191306 2:0.28388334836690976 3:0.8877729696375819 4:0.0 5:0.0 6:2.3597149464344707E-5 7:0.1137859716439545 
5.994842503189409 0:0.597107462953981 1:0.036456765637049186 2:0.15187692719118515 3:0.6729054328818304 4:3.372300542498659E-5 5:0.001131373502461802 6:3.1687600709262895E-4 7:0.17470121773453132 
-5.994842503189409 0:0.22473131424264065 1:0.4141166701804876 2:0.027371000802624695 3:0.1898976873740091 4:0.0010954589392524101 5:0.009219163488130714 6:8.318340279363341E-4 7:0.28781556162937044 
5.994842503189409 0:0.5103147954578177 1:0.11739254152204351 2:0.16863176034576208 3:0.2175900158172366 4:0.002895792088996277 5:0.0013661854112816192 6:0.06607138253985724 7:0.44665243239899 
5.994842503189409 0:0.298142112800382 1:0.10989568273112225 2:0.3220298206558808 3:0.6024654408394077 4:0.0 5:0.0 6:0.04271758257316802 7:0.3789268917767024 
5.994842503189409 0:0.5087396985197447 1:0.19638728093622865 2:0.09190313918019925 3:0.22543150054797825 4:0.00775327933796428 5:5.045331316224098E-4 6:0.05083152940440159 7:0.5010233804280008 
-5.994842503189409 0:0.5896827080408931 1:0.35147470717864276 2:0.03090564669902638 3:0.16189502883610243 4:0.01448181889843583 5:3.116849430252339E-4 6:0.003100140026618197 7:0.48610668258635714 
-5.994842503189409 0:0.6498548194221301 1:0.02792484642967178 2:0.12243401540804083 3:0.36608488800397887 4:0.0 5:0.0 6:0.002846860612678802 7:0.2821412227274424 
5.994842503189409 0:0.577509173093969 1:0.05115069306808292 2:0.17330536602839203 3:0.7397616783630173 4:6.756680668010495E-5 5:2.691824507945202E-4 6:1.2157411869090968E-4 7:0.14705587586098623 
5.994842503189409 0:0.5015998428205427 1:0.12812606156587658 2:0.030636279721491546 3:0.056161285370037034 4:0.02948164998141913 5:0.012382392736547928 6:0.013400169526820268 7:0.6427000374166789 
0.33753382760330003 0:0.46990613913255613 1:0.4729814520819394 2:0.02549345543825172 3:0.25486764979603066 4:0.04334446243848682 5:0.03741442472791883 6:0.027080013060048456 7:0.560752314000077 
5.994842503189409 0:0.6024702421311158 1:0.004756198651740561 2:0.24872987055175994 3:0.37762135803674174 4:0.0 5:0.0 6:4.3149073306230317E-4 7:0.22955342135761517 
-5.994842503189409 0:0.48706918898786994 1:0.540960873927135 2:0.055965171705634885 3:0.3539632302140544 4:0.001869578873268887 5:7.9703680546471E-4 6:0.03746995175263616 7:0.46952219033214293 
-5.994842503189409 0:0.5677755991098994 1:0.10577200662140014 2:0.06682581222383827 3:0.2045821681056127 4:0.10574205245436426 5:4.958624093583267E-4 6:0.0608883711110306 7:0.4696997036240163 
-5.994842503189409 0:0.6803772685807958 1:0.02345074566079938 2:0.15481023926951276 3:0.5249794565573281 4:0.0015315142847490458 5:0.0 6:0.0011752164806787936 7:0.15230913713701838 
5.994842503189409 0:0.5230944756254036 1:0.15858394118730573 2:0.0827026497901235 3:0.13706692518527117 4:0.07441357642368893 5:0.007012911218067763 6:0.013288726584686935 7:0.5381543149311716 
5.994842503189409 0:0.4903496741065484 1:0.012627369536100705 2:0.2769499773570508 3:0.5411523684328338 4:0.0 5:0.0 6:3.6134529722020375E-4 7:0.25112992785662647 
5.994842503189409 0:0.2809627557465637 1:0.26112090010726013 2:0.007796490283860572 3:0.06948869226044722 4:0.01461695251179604 5:0.007253758674041807 6:0.0052749659276444694 7:0.880317564580418 
-5.994842503189409 0:0.5907830469035268 1:0.06429327870460438 2:0.1645834726472038 3:0.7182017586357561 4:0.0 5:0.0 6:2.6968170816393948E-5 7:0.14870482808739474 
-5.994842503189409 0:0.7230680408837508 1:0.07415850565705692 2:0.053763789735175156 3:0.13948933070169278 4:0.0358877131442633 5:0.0016205488097391291 6:0.043472153905580777 7:0.35201653285020024 
5.994842503189409 0:0.22142608078120643 1:0.13282195044998846 2:0.04065429953450907 3:0.0781317936605811 4:0.0014013301290421271 5:0.004346698345744445 6:0.0018367367490576135 7:0.2204749754135928 
-0.06714775410183402 0:0.3041598408128272 1:0.18149428766018028 2:0.10606485614770061 3:0.2766836714278576 4:1.6805561712264934E-5 5:1.4095249649038875E-4 6:1.4615292672351282E-4 7:0.04439897758240414 
-5.994842503189409 0:0.5416460991120602 1:0.10858476850183095 2:0.19116581990869602 3:0.3176994355753522 4:2.2522268893368318E-5 5:0.0 6:0.04473589861940224 7:0.35346537081554347 
5.994842503189409 0:0.5021261545371134 1:0.03176626392668844 2:0.19490280133594798 3:0.3361942699988554 4:1.1241001808328863E-5 5:0.0 6:0.005413860291391086 7:0.39468465735697766 
5.994842503189409 0:0.5141074363791254 1:0.2568332202037574 2:0.02529005685229718 3:0.1850023185963643 4:0.025213680026125833 5:0.0010625623057678429 6:0.017841001917890998 7:0.5651268792406041 
5.994842503189409 0:0.5373000681737441 1:0.13230829008693007 2:0.0997057921541909 3:0.6396141324861483 4:0.0 5:1.4142168780772523E-5 6:3.371021352049244E-5 7:0.28727750505654975 
0.9284118568000789 0:0.23653968411346732 1:0.1339786992761749 2:0.04698665401006964 3:0.011368717038415002 4:0.15183376741806193 5:0.825436689010841 6:0.3257933001050733 7:0.2776016346299603 
-5.994842503189409 0:0.5837588316143689 1:0.034229187811942036 2:0.11930338114557565 3:0.3774591525931584 4:0.0067446010849973185 5:4.242650634231757E-5 6:0.017633812692569594 7:0.34699533866501675 
